#include "KinectConfig.h"

namespace Beam{
	KinectConfig::KinectConfig(){
	
	}

	KinectConfig::~KinectConfig(){
	
	}

	MicArrayWeights KinectConfig::kinect_weights{
		"Kinect",
		4,
		256,
		11,
		0.000f,
		kinect_beams,
		kinect_frequencies,
		kinect_comp_weights,
		(std::complex<float>*)&kinect_dd
	};
	
	MicArrayDescriptor KinectConfig::kinect_descriptor =
	{
		"Microsoft Corporation",
		"Kinect",
		0,
		0.f,
		0.f,
		-50.f,
		50.f,
		100.f,
		7500.f,
		4,
		{
			{ 0, 0.f, -0.113f, 0.f, 2, 0.f, 0.f },
			{ 1, 0.f, 0.035f, 0.f, 2, 0.f, 0.f },
			{ 2, 0.f, 0.075f, 0.f, 2, 0.f, 0.f },
			{ 3, 0.f, 0.113f, 0.f, 2, 0.f, 0.f }
		}
	};

	float KinectConfig::frequency_bands[MAX_GAIN_SUBBANDS][3] = 
	{ { 300.f, 200.f, 450.f },
	{ 600.f, 450.f, 800.f },
	{ 1000.f, 800.f, 1500.f },
	{ 2000.f, 1500.f, 3999.f },
	{ 6000.f, 4000.f, 7999.f }
	};

	RCoords KinectConfig::kinect_beams[11] =
	{
		{ -0.873f, 0.f, 1.f },
		{ -0.698f, 0.f, 1.f },
		{ -0.524f, 0.f, 1.f },
		{ -0.349f, 0.f, 1.f },
		{ -0.175f, 0.f, 1.f },
		{ 0.f, 0.f, 1.f },
		{ 0.175f, 0.f, 1.f },
		{ 0.349f, 0.f, 1.f },
		{ 0.524f, 0.f, 1.f },
		{ 0.698f, 0.f, 1.f },
		{ 0.873f, 0.f, 1.f }
	};

	float KinectConfig::kinect_frequencies[256] =
	{
		0.00f, 31.25f, 62.50f, 93.75f,
		125.00f, 156.25f, 187.50f, 218.75f,
		250.00f, 281.25f, 312.50f, 343.75f,
		375.00f, 406.25f, 437.50f, 468.75f,
		500.00f, 531.25f, 562.50f, 593.75f,
		625.00f, 656.25f, 687.50f, 718.75f,
		750.00f, 781.25f, 812.50f, 843.75f,
		875.00f, 906.25f, 937.50f, 968.75f,
		1000.00f, 1031.25f, 1062.50f, 1093.75f,
		1125.00f, 1156.25f, 1187.50f, 1218.75f,
		1250.00f, 1281.25f, 1312.50f, 1343.75f,
		1375.00f, 1406.25f, 1437.50f, 1468.75f,
		1500.00f, 1531.25f, 1562.50f, 1593.75f,
		1625.00f, 1656.25f, 1687.50f, 1718.75f,
		1750.00f, 1781.25f, 1812.50f, 1843.75f,
		1875.00f, 1906.25f, 1937.50f, 1968.75f,
		2000.00f, 2031.25f, 2062.50f, 2093.75f,
		2125.00f, 2156.25f, 2187.50f, 2218.75f,
		2250.00f, 2281.25f, 2312.50f, 2343.75f,
		2375.00f, 2406.25f, 2437.50f, 2468.75f,
		2500.00f, 2531.25f, 2562.50f, 2593.75f,
		2625.00f, 2656.25f, 2687.50f, 2718.75f,
		2750.00f, 2781.25f, 2812.50f, 2843.75f,
		2875.00f, 2906.25f, 2937.50f, 2968.75f,
		3000.00f, 3031.25f, 3062.50f, 3093.75f,
		3125.00f, 3156.25f, 3187.50f, 3218.75f,
		3250.00f, 3281.25f, 3312.50f, 3343.75f,
		3375.00f, 3406.25f, 3437.50f, 3468.75f,
		3500.00f, 3531.25f, 3562.50f, 3593.75f,
		3625.00f, 3656.25f, 3687.50f, 3718.75f,
		3750.00f, 3781.25f, 3812.50f, 3843.75f,
		3875.00f, 3906.25f, 3937.50f, 3968.75f,
		4000.00f, 4031.25f, 4062.50f, 4093.75f,
		4125.00f, 4156.25f, 4187.50f, 4218.75f,
		4250.00f, 4281.25f, 4312.50f, 4343.75f,
		4375.00f, 4406.25f, 4437.50f, 4468.75f,
		4500.00f, 4531.25f, 4562.50f, 4593.75f,
		4625.00f, 4656.25f, 4687.50f, 4718.75f,
		4750.00f, 4781.25f, 4812.50f, 4843.75f,
		4875.00f, 4906.25f, 4937.50f, 4968.75f,
		5000.00f, 5031.25f, 5062.50f, 5093.75f,
		5125.00f, 5156.25f, 5187.50f, 5218.75f,
		5250.00f, 5281.25f, 5312.50f, 5343.75f,
		5375.00f, 5406.25f, 5437.50f, 5468.75f,
		5500.00f, 5531.25f, 5562.50f, 5593.75f,
		5625.00f, 5656.25f, 5687.50f, 5718.75f,
		5750.00f, 5781.25f, 5812.50f, 5843.75f,
		5875.00f, 5906.25f, 5937.50f, 5968.75f,
		6000.00f, 6031.25f, 6062.50f, 6093.75f,
		6125.00f, 6156.25f, 6187.50f, 6218.75f,
		6250.00f, 6281.25f, 6312.50f, 6343.75f,
		6375.00f, 6406.25f, 6437.50f, 6468.75f,
		6500.00f, 6531.25f, 6562.50f, 6593.75f,
		6625.00f, 6656.25f, 6687.50f, 6718.75f,
		6750.00f, 6781.25f, 6812.50f, 6843.75f,
		6875.00f, 6906.25f, 6937.50f, 6968.75f,
		7000.00f, 7031.25f, 7062.50f, 7093.75f,
		7125.00f, 7156.25f, 7187.50f, 7218.75f,
		7250.00f, 7281.25f, 7312.50f, 7343.75f,
		7375.00f, 7406.25f, 7437.50f, 7468.75f,
		7500.00f, 7531.25f, 7562.50f, 7593.75f,
		7625.00f, 7656.25f, 7687.50f, 7718.75f,
		7750.00f, 7781.25f, 7812.50f, 7843.75f,
		7875.00f, 7906.25f, 7937.50f, 7968.75f
	};

	std::complex<float> KinectConfig::kinect_comp_weights[11264] =
	{
		{ 0.000000e+000f, 0.000000e+000f }, { 0.000000e+000f, 0.000000e+000f }, { 0.000000e+000f, 0.000000e+000f }, { 0.000000e+000f, 0.000000e+000f },
		{ 0.000000e+000f, 0.000000e+000f }, { 0.000000e+000f, 0.000000e+000f }, { 0.000000e+000f, 0.000000e+000f }, { 0.000000e+000f, 0.000000e+000f },
		{ 0.000000e+000f, 0.000000e+000f }, { 0.000000e+000f, 0.000000e+000f }, { 0.000000e+000f, 0.000000e+000f }, { 0.000000e+000f, 0.000000e+000f },
		{ 0.000000e+000f, 0.000000e+000f }, { 0.000000e+000f, 0.000000e+000f }, { 0.000000e+000f, 0.000000e+000f }, { 0.000000e+000f, 0.000000e+000f },
		{ 0.000000e+000f, 0.000000e+000f }, { 0.000000e+000f, 0.000000e+000f }, { 0.000000e+000f, 0.000000e+000f }, { 0.000000e+000f, 0.000000e+000f },
		{ 0.000000e+000f, 0.000000e+000f }, { 0.000000e+000f, 0.000000e+000f }, { 0.000000e+000f, 0.000000e+000f }, { 0.000000e+000f, 0.000000e+000f },
		{ -9.761715e-003f, -6.704412e-002f }, { 5.412034e-002f, -4.075806e-002f }, { 3.067438e-002f, 6.040946e-002f }, { -5.126900e-002f, 4.429068e-002f },
		{ -2.254077e-002f, -2.106342e-001f }, { 1.703846e-001f, -1.258726e-001f }, { 1.046222e-001f, 1.841982e-001f }, { -1.600767e-001f, 1.387453e-001f },
		{ -2.993946e-002f, -3.846485e-001f }, { 3.126871e-001f, -2.260037e-001f }, { 1.952520e-001f, 3.327571e-001f }, { -2.962606e-001f, 2.471443e-001f },
		{ -2.794868e-002f, -5.368842e-001f }, { 4.397589e-001f, -3.092574e-001f }, { 2.846000e-001f, 4.561023e-001f }, { -4.146789e-001f, 3.421480e-001f },
		{ -3.203764e-002f, -6.603937e-001f }, { 5.421678e-001f, -3.784183e-001f }, { 3.480285e-001f, 5.621588e-001f }, { -5.114693e-001f, 4.189819e-001f },
		{ -3.246139e-002f, -7.213856e-001f }, { 5.935890e-001f, -4.112213e-001f }, { 3.779538e-001f, 6.153059e-001f }, { -5.602161e-001f, 4.556407e-001f },
		{ -4.300975e-003f, -6.841435e-001f }, { 5.751519e-001f, -3.705113e-001f }, { 3.896264e-001f, 5.623771e-001f }, { -5.368716e-001f, 4.240743e-001f },
		{ -1.883333e-003f, -6.475680e-001f }, { 5.455725e-001f, -3.488524e-001f }, { 3.669923e-001f, 5.335373e-001f }, { -5.095128e-001f, 3.996782e-001f },
		{ 2.275279e-004f, -6.155898e-001f }, { 5.197151e-001f, -3.299235e-001f }, { 3.472078e-001f, 5.083310e-001f }, { -4.855941e-001f, 3.783514e-001f },
		{ 2.116585e-003f, -5.874491e-001f }, { 4.969752e-001f, -3.132378e-001f }, { 3.297683e-001f, 4.861619e-001f }, { -4.645625e-001f, 3.595572e-001f },
		{ 2.494253e-002f, -5.429542e-001f }, { 4.800454e-001f, -2.549099e-001f }, { 3.439414e-001f, 4.208639e-001f }, { -4.430224e-001f, 3.148856e-001f },
		{ 2.556582e-002f, -5.230062e-001f }, { 4.631917e-001f, -2.442186e-001f }, { 3.301585e-001f, 4.064287e-001f }, { -4.276945e-001f, 3.021035e-001f },
		{ 2.621187e-002f, -5.051617e-001f }, { 4.481609e-001f, -2.345792e-001f }, { 3.177635e-001f, 3.935754e-001f }, { -4.140375e-001f, 2.906000e-001f },
		{ 2.690117e-002f, -4.891655e-001f }, { 4.347430e-001f, -2.258433e-001f }, { 3.065702e-001f, 3.821270e-001f }, { -4.018629e-001f, 2.802012e-001f },
		{ 2.764983e-002f, -4.748070e-001f }, { 4.227648e-001f, -2.178900e-001f }, { 2.964262e-001f, 3.719371e-001f }, { -3.910149e-001f, 2.707644e-001f },
		{ 2.809137e-002f, -4.810742e-001f }, { 4.421865e-001f, -1.915649e-001f }, { 3.143377e-001f, 3.652597e-001f }, { -4.367781e-001f, 2.035900e-001f },
		{ 2.782378e-002f, -4.687167e-001f }, { 4.310299e-001f, -1.862319e-001f }, { 3.059369e-001f, 3.561944e-001f }, { -4.257742e-001f, 1.979558e-001f },
		{ 2.776386e-002f, -4.575904e-001f }, { 4.210717e-001f, -1.812742e-001f }, { 2.982413e-001f, 3.481554e-001f }, { -4.159538e-001f, 1.927265e-001f },
		{ 2.790052e-002f, -4.475906e-001f }, { 4.122039e-001f, -1.766466e-001f }, { 2.911894e-001f, 3.410647e-001f }, { -4.072173e-001f, 1.878580e-001f },
		{ 2.822955e-002f, -4.386262e-001f }, { 4.043481e-001f, -1.723154e-001f }, { 2.847183e-001f, 3.348503e-001f }, { -3.994830e-001f, 1.833125e-001f },
		{ 2.874556e-002f, -4.306182e-001f }, { 3.974311e-001f, -1.682472e-001f }, { 2.787799e-001f, 3.294565e-001f }, { -3.926811e-001f, 1.790550e-001f },
		{ 2.944818e-002f, -4.235023e-001f }, { 3.913953e-001f, -1.644144e-001f }, { 2.733237e-001f, 3.248291e-001f }, { -3.867528e-001f, 1.750566e-001f },
		{ 3.033424e-002f, -4.172165e-001f }, { 3.861855e-001f, -1.607875e-001f }, { 2.683186e-001f, 3.209377e-001f }, { -3.816480e-001f, 1.712836e-001f },
		{ 3.140731e-002f, -4.117260e-001f }, { 3.817739e-001f, -1.573487e-001f }, { 2.637073e-001f, 3.177251e-001f }, { -3.773359e-001f, 1.677143e-001f },
		{ -3.860735e-002f, -4.358080e-001f }, { 4.183331e-001f, -1.282702e-001f }, { 2.528535e-001f, 3.570845e-001f }, { -4.332867e-001f, 6.098065e-002f },
		{ -3.764209e-002f, -4.291085e-001f }, { 4.119568e-001f, -1.259184e-001f }, { 2.486139e-001f, 3.517689e-001f }, { -4.266479e-001f, 5.965098e-002f },
		{ -5.866695e-002f, -4.290019e-001f }, { 4.126122e-001f, -1.315256e-001f }, { 2.279943e-001f, 3.681315e-001f }, { -4.313655e-001f, 3.912577e-002f },
		{ -5.952461e-002f, -4.234634e-001f }, { 4.072323e-001f, -1.309511e-001f }, { 2.218533e-001f, 3.656918e-001f }, { -4.262255e-001f, 3.693176e-002f },
		{ -8.086851e-002f, -4.215641e-001f }, { 4.022130e-001f, -1.510198e-001f }, { 1.883883e-001f, 3.859372e-001f }, { -4.285630e-001f, 3.071196e-002f },
		{ -7.924758e-002f, -4.164066e-001f }, { 3.971757e-001f, -1.484858e-001f }, { 1.847643e-001f, 3.815821e-001f }, { -4.230155e-001f, 2.936996e-002f },
		{ -7.827966e-002f, -4.118937e-001f }, { 3.927618e-001f, -1.470734e-001f }, { 1.799219e-001f, 3.787769e-001f }, { -4.184400e-001f, 2.833957e-002f },
		{ -8.697517e-002f, -4.074973e-001f }, { 3.859583e-001f, -1.572969e-001f }, { 1.576336e-001f, 3.857698e-001f }, { -4.155858e-001f, 3.158962e-002f },
		{ -8.475736e-002f, -4.041770e-001f }, { 3.829927e-001f, -1.545077e-001f }, { 1.546259e-001f, 3.829392e-001f }, { -4.119351e-001f, 2.979046e-002f },
		{ -8.241946e-002f, -4.015664e-001f }, { 3.808155e-001f, -1.517452e-001f }, { 1.517832e-001f, 3.808000e-001f }, { -4.090241e-001f, 2.781486e-002f },
		{ -9.025403e-002f, -3.972147e-001f }, { 3.753071e-001f, -1.584150e-001f }, { 1.295197e-001f, 3.862234e-001f }, { -4.061204e-001f, 3.188572e-002f },
		{ -8.761709e-002f, -3.957904e-001f }, { 3.743343e-001f, -1.555535e-001f }, { 1.267181e-001f, 3.850586e-001f }, { -4.043258e-001f, 2.947700e-002f },
		{ -8.702243e-002f, -3.942757e-001f }, { 3.732785e-001f, -1.540530e-001f }, { 1.199579e-001f, 3.855872e-001f }, { -4.028544e-001f, 2.811757e-002f },
		{ -9.103495e-002f, -3.912998e-001f }, { 3.713777e-001f, -1.543781e-001f }, { 1.049941e-001f, 3.881602e-001f }, { -4.011305e-001f, 2.866451e-002f },
		{ -9.637017e-002f, -3.882970e-001f }, { 3.698154e-001f, -1.538092e-001f }, { 8.863767e-002f, 3.904627e-001f }, { -3.993633e-001f, 2.859906e-002f },
		{ -1.020081e-001f, -3.852091e-001f }, { 3.689720e-001f, -1.518143e-001f }, { 7.263449e-002f, 3.921774e-001f }, { -3.978751e-001f, 2.751419e-002f },
		{ -1.080678e-001f, -3.819206e-001f }, { 3.687197e-001f, -1.481975e-001f }, { 5.690170e-002f, 3.932107e-001f }, { -3.964495e-001f, 2.550692e-002f },
		{ -1.146928e-001f, -3.782215e-001f }, { 3.690346e-001f, -1.426979e-001f }, { 4.132434e-002f, 3.934226e-001f }, { -3.948861e-001f, 2.259950e-002f },
		{ -1.217805e-001f, -3.740537e-001f }, { 3.698094e-001f, -1.355154e-001f }, { 2.617300e-002f, 3.929771e-001f }, { -3.932951e-001f, 1.862099e-002f },
		{ -1.331289e-001f, -3.671274e-001f }, { 3.701531e-001f, -1.245488e-001f }, { 8.293291e-003f, 3.904663e-001f }, { -3.903046e-001f, 1.331407e-002f },
		{ -1.573215e-001f, -3.487247e-001f }, { 3.689186e-001f, -1.012432e-001f }, { -1.783317e-002f, 3.821773e-001f }, { -3.825580e-001f, 3.690481e-003f },
		{ -1.749956e-001f, -3.329846e-001f }, { 3.679227e-001f, -7.833164e-002f }, { -3.548101e-002f, 3.745090e-001f }, { -3.761159e-001f, -6.354954e-003f },
		{ -1.975553e-001f, -3.099439e-001f }, { 3.646338e-001f, -4.608879e-002f }, { -5.116412e-002f, 3.640244e-001f }, { -3.669508e-001f, -2.107535e-002f },
		{ -2.209977e-001f, -2.830163e-001f }, { 3.588806e-001f, -1.077143e-002f }, { -6.284885e-002f, 3.537786e-001f }, { -3.568775e-001f, -3.984363e-002f },
		{ -2.408481e-001f, -2.571832e-001f }, { 3.516620e-001f, 2.133431e-002f }, { -7.113248e-002f, 3.455646e-001f }, { -3.473515e-001f, -5.872898e-002f },
		{ -2.596502e-001f, -2.303890e-001f }, { 3.431544e-001f, 5.000183e-002f }, { -7.747125e-002f, 3.407922e-001f }, { -3.371665e-001f, -8.152846e-002f },
		{ -2.756940e-001f, -2.052092e-001f }, { 3.344270e-001f, 7.185927e-002f }, { -8.367314e-002f, 3.402774e-001f }, { -3.265425e-001f, -1.060456e-001f },
		{ -2.897558e-001f, -1.822100e-001f }, { 3.268683e-001f, 8.305990e-002f }, { -9.202211e-002f, 3.491080e-001f }, { -3.124279e-001f, -1.364505e-001f },
		{ -3.011923e-001f, -1.635418e-001f }, { 3.214327e-001f, 8.598798e-002f }, { -1.022527e-001f, 3.611180e-001f }, { -2.969853e-001f, -1.666702e-001f },
		{ -3.113370e-001f, -1.500407e-001f }, { 3.193232e-001f, 7.069342e-002f }, { -1.181946e-001f, 3.895967e-001f }, { -2.747090e-001f, -2.065894e-001f },
		{ -3.199496e-001f, -1.346203e-001f }, { 3.164480e-001f, 7.361437e-002f }, { -1.282632e-001f, 3.932793e-001f }, { -2.598574e-001f, -2.286579e-001f },
		{ -3.273037e-001f, -1.192794e-001f }, { 3.139928e-001f, 8.061505e-002f }, { -1.370485e-001f, 3.895985e-001f }, { -2.470243e-001f, -2.447025e-001f },
		{ -3.335092e-001f, -1.042169e-001f }, { 3.123382e-001f, 8.910835e-002f }, { -1.453662e-001f, 3.817096e-001f }, { -2.354598e-001f, -2.572970e-001f },
		{ -3.385821e-001f, -8.887719e-002f }, { 3.107694e-001f, 1.004858e-001f }, { -1.527905e-001f, 3.685011e-001f }, { -2.259970e-001f, -2.655439e-001f },
		{ -3.421365e-001f, -7.355625e-002f }, { 3.094714e-001f, 1.144225e-001f }, { -1.592729e-001f, 3.514605e-001f }, { -2.182476e-001f, -2.703681e-001f },
		{ -3.438871e-001f, -5.810013e-002f }, { 3.076950e-001f, 1.307102e-001f }, { -1.647265e-001f, 3.311702e-001f }, { -2.129937e-001f, -2.720993e-001f },
		{ -3.448345e-001f, -4.443721e-002f }, { 3.065798e-001f, 1.416752e-001f }, { -1.717275e-001f, 3.153754e-001f }, { -2.068306e-001f, -2.760656e-001f },
		{ -3.451809e-001f, -3.315317e-002f }, { 3.065315e-001f, 1.483869e-001f }, { -1.802876e-001f, 3.039640e-001f }, { -1.988868e-001f, -2.813672e-001f },
		{ -3.454675e-001f, -2.276087e-002f }, { 3.067072e-001f, 1.528123e-001f }, { -1.893249e-001f, 2.939223e-001f }, { -1.906318e-001f, -2.872710e-001f },
		{ -3.454710e-001f, -1.335017e-002f }, { 3.064596e-001f, 1.563313e-001f }, { -1.983107e-001f, 2.846869e-001f }, { -1.827144e-001f, -2.926685e-001f },
		{ -3.454306e-001f, -5.168047e-003f }, { 3.061596e-001f, 1.588087e-001f }, { -2.073862e-001f, 2.767466e-001f }, { -1.745754e-001f, -2.978180e-001f },
		{ -3.454154e-001f, 1.465171e-003f }, { 3.054349e-001f, 1.609732e-001f }, { -2.159227e-001f, 2.698545e-001f }, { -1.669520e-001f, -3.022675e-001f },
		{ -3.455730e-001f, 9.103848e-003f }, { 3.048085e-001f, 1.625868e-001f }, { -2.252115e-001f, 2.626077e-001f }, { -1.584624e-001f, -3.070504e-001f },
		{ -3.457309e-001f, 3.092498e-002f }, { 3.068435e-001f, 1.596247e-001f }, { -2.430749e-001f, 2.490365e-001f }, { -1.399099e-001f, -3.167439e-001f },
		{ -3.459253e-001f, 4.602913e-002f }, { 3.079918e-001f, 1.569827e-001f }, { -2.577376e-001f, 2.396657e-001f }, { -1.234446e-001f, -3.232396e-001f },
		{ -3.464509e-001f, 5.918117e-002f }, { 3.098262e-001f, 1.523965e-001f }, { -2.732528e-001f, 2.332759e-001f }, { -1.049923e-001f, -3.288818e-001f },
		{ -3.456325e-001f, 7.330176e-002f }, { 3.116814e-001f, 1.478797e-001f }, { -2.897122e-001f, 2.266580e-001f }, { -8.509969e-002f, -3.337813e-001f },
		{ -3.439957e-001f, 8.836611e-002f }, { 3.142417e-001f, 1.439318e-001f }, { -3.072523e-001f, 2.195692e-001f }, { -6.267234e-002f, -3.367382e-001f },
		{ -3.406215e-001f, 1.043378e-001f }, { 3.161764e-001f, 1.414651e-001f }, { -3.245886e-001f, 2.113646e-001f }, { -3.972617e-002f, -3.380146e-001f },
		{ -3.363516e-001f, 1.209088e-001f }, { 3.191971e-001f, 1.383970e-001f }, { -3.429981e-001f, 2.033713e-001f }, { -1.393885e-002f, -3.381178e-001f },
		{ -3.309428e-001f, 1.377356e-001f }, { 3.232388e-001f, 1.352740e-001f }, { -3.619317e-001f, 1.952988e-001f }, { 1.409479e-002f, -3.368559e-001f },
		{ -3.246258e-001f, 1.547290e-001f }, { 3.268186e-001f, 1.329553e-001f }, { -3.795998e-001f, 1.866460e-001f }, { 4.223031e-002f, -3.339765e-001f },
		{ -3.173085e-001f, 1.713717e-001f }, { 3.288749e-001f, 1.323851e-001f }, { -3.943388e-001f, 1.770972e-001f }, { 6.837781e-002f, -3.299254e-001f },
		{ -3.096331e-001f, 1.877271e-001f }, { 3.300722e-001f, 1.320961e-001f }, { -4.071051e-001f, 1.676276e-001f }, { 9.369223e-002f, -3.249958e-001f },
		{ -3.013782e-001f, 2.030193e-001f }, { 3.309730e-001f, 1.325192e-001f }, { -4.177565e-001f, 1.581366e-001f }, { 1.178472e-001f, -3.197310e-001f },
		{ -2.927821e-001f, 2.179834e-001f }, { 3.291341e-001f, 1.340516e-001f }, { -4.248775e-001f, 1.485952e-001f }, { 1.387599e-001f, -3.142331e-001f },
		{ -2.835289e-001f, 2.315820e-001f }, { 3.266854e-001f, 1.371083e-001f }, { -4.297577e-001f, 1.388277e-001f }, { 1.577831e-001f, -3.084526e-001f },
		{ -2.743787e-001f, 2.447613e-001f }, { 3.234679e-001f, 1.389583e-001f }, { -4.333384e-001f, 1.300890e-001f }, { 1.760955e-001f, -3.033368e-001f },
		{ -2.641898e-001f, 2.567166e-001f }, { 3.180321e-001f, 1.436347e-001f }, { -4.337166e-001f, 1.205764e-001f }, { 1.908700e-001f, -2.980997e-001f },
		{ -2.535880e-001f, 2.676638e-001f }, { 3.120268e-001f, 1.490210e-001f }, { -4.329359e-001f, 1.111291e-001f }, { 2.044267e-001f, -2.927357e-001f },
		{ -2.414839e-001f, 2.776704e-001f }, { 3.031026e-001f, 1.572634e-001f }, { -4.292081e-001f, 1.008026e-001f }, { 2.144918e-001f, -2.874818e-001f },
		{ -2.282223e-001f, 2.867613e-001f }, { 2.923013e-001f, 1.671537e-001f }, { -4.237531e-001f, 9.001214e-002f }, { 2.224469e-001f, -2.822914e-001f },
		{ -2.145701e-001f, 2.948448e-001f }, { 2.812908e-001f, 1.775515e-001f }, { -4.179044e-001f, 7.915978e-002f }, { 2.297949e-001f, -2.767618e-001f },
		{ -1.993561e-001f, 3.020602e-001f }, { 2.679631e-001f, 1.899919e-001f }, { -4.102133e-001f, 6.749536e-002f }, { 2.348592e-001f, -2.711588e-001f },
		{ -1.828135e-001f, 3.083652e-001f }, { 2.529844e-001f, 2.036864e-001f }, { -4.012456e-001f, 5.527164e-002f }, { 2.384657e-001f, -2.655446e-001f },
		{ -1.657690e-001f, 3.138757e-001f }, { 2.375804e-001f, 2.178023e-001f }, { -3.919872e-001f, 4.274077e-002f }, { 2.413360e-001f, -2.592441e-001f },
		{ -1.479792e-001f, 3.184873e-001f }, { 2.217817e-001f, 2.319265e-001f }, { -3.822695e-001f, 3.000241e-002f }, { 2.439351e-001f, -2.529112e-001f },
		{ -1.278345e-001f, 3.220875e-001f }, { 2.027326e-001f, 2.483528e-001f }, { -3.703477e-001f, 1.603887e-002f }, { 2.437413e-001f, -2.463824e-001f },
		{ -1.070520e-001f, 3.245807e-001f }, { 1.835706e-001f, 2.642559e-001f }, { -3.582062e-001f, 1.951302e-003f }, { 2.435863e-001f, -2.398898e-001f },
		{ -8.654426e-002f, 3.261903e-001f }, { 1.655003e-001f, 2.788741e-001f }, { -3.466509e-001f, -1.209159e-002f }, { 2.439174e-001f, -2.329355e-001f },
		{ -6.610268e-002f, 3.266454e-001f }, { 1.482142e-001f, 2.925416e-001f }, { -3.355576e-001f, -2.615546e-002f }, { 2.446191e-001f, -2.255789e-001f },
		{ -5.099814e-002f, 3.266292e-001f }, { 1.357786e-001f, 3.008253e-001f }, { -3.286550e-001f, -3.793986e-002f }, { 2.475780e-001f, -2.190377e-001f },
		{ -5.008775e-002f, 3.270172e-001f }, { 1.305628e-001f, 3.038449e-001f }, { -3.279715e-001f, -4.359509e-002f }, { 2.507094e-001f, -2.159146e-001f },
		{ -2.770903e-002f, 3.267729e-001f }, { 1.140298e-001f, 3.074494e-001f }, { -3.226938e-001f, -5.849478e-002f }, { 2.540091e-001f, -2.074331e-001f },
		{ -3.011725e-002f, 3.277080e-001f }, { 1.103711e-001f, 3.100083e-001f }, { -3.230242e-001f, -6.292873e-002f }, { 2.573474e-001f, -2.051121e-001f },
		{ 8.294103e-003f, 3.240130e-001f }, { 8.690947e-002f, 3.122341e-001f }, { -3.127811e-001f, -8.495383e-002f }, { 2.607676e-001f, -1.924791e-001f },
		{ 4.674714e-003f, 3.254514e-001f }, { 8.373803e-002f, 3.145296e-001f }, { -3.131310e-001f, -8.885338e-002f }, { 2.640372e-001f, -1.903331e-001f },
		{ 3.327460e-002f, 3.207158e-001f }, { 6.677625e-002f, 3.154489e-001f }, { -3.043317e-001f, -1.065435e-001f }, { 2.681294e-001f, -1.790906e-001f },
		{ 2.975109e-002f, 3.226891e-001f }, { 6.345577e-002f, 3.177651e-001f }, { -3.045840e-001f, -1.105841e-001f }, { 2.715173e-001f, -1.768726e-001f },
		{ 8.301063e-002f, 3.075642e-001f }, { 4.021379e-002f, 3.160127e-001f }, { -2.869303e-001f, -1.384018e-001f }, { 2.782600e-001f, -1.550905e-001f },
		{ 7.984343e-002f, 3.096330e-001f }, { 3.678067e-002f, 3.176464e-001f }, { -2.864252e-001f, -1.421713e-001f }, { 2.810526e-001f, -1.525111e-001f },
		{ 1.171086e-001f, 2.946218e-001f }, { 2.244149e-002f, 3.162497e-001f }, { -2.720813e-001f, -1.627647e-001f }, { 2.881156e-001f, -1.322945e-001f },
		{ 1.141984e-001f, 2.969662e-001f }, { 1.894298e-002f, 3.175908e-001f }, { -2.711719e-001f, -1.664017e-001f }, { 2.906157e-001f, -1.294942e-001f },
		{ 1.544223e-001f, 2.756262e-001f }, { 7.559394e-003f, 3.158330e-001f }, { -2.547950e-001f, -1.867890e-001f }, { 2.992063e-001f, -1.014073e-001f },
		{ 1.517600e-001f, 2.780772e-001f }, { 4.048389e-003f, 3.167676e-001f }, { -2.533891e-001f, -1.901419e-001f }, { 3.011402e-001f, -9.832862e-002f },
		{ 1.827798e-001f, 2.572774e-001f }, { -4.766101e-003f, 3.155376e-001f }, { -2.397280e-001f, -2.052362e-001f }, { 3.075507e-001f, -7.070006e-002f },
		{ 1.811530e-001f, 2.593090e-001f }, { -8.424623e-003f, 3.162002e-001f }, { -2.377365e-001f, -2.086600e-001f }, { 3.091731e-001f, -6.680938e-002f },
		{ 2.099769e-001f, 2.353857e-001f }, { -1.684492e-002f, 3.149464e-001f }, { -2.246182e-001f, -2.214410e-001f }, { 3.133129e-001f, -3.607600e-002f },
		{ 2.079005e-001f, 2.380697e-001f }, { -2.039407e-002f, 3.154247e-001f }, { -2.225965e-001f, -2.244252e-001f }, { 3.143931e-001f, -3.258193e-002f },
		{ 2.252129e-001f, 2.209962e-001f }, { -2.922005e-002f, 3.141398e-001f }, { -2.131974e-001f, -2.325708e-001f }, { 3.152902e-001f, -1.139847e-002f },
		{ 2.294098e-001f, 2.173422e-001f }, { -3.483515e-002f, 3.137780e-001f }, { -2.088812e-001f, -2.371299e-001f }, { 3.156045e-001f, -2.388388e-003f },
		{ 2.359551e-001f, 2.104571e-001f }, { -4.190082e-002f, 3.130471e-001f }, { -2.033249e-001f, -2.420827e-001f }, { 3.156375e-001f, 8.541873e-003f },
		{ 2.500509e-001f, 1.919283e-001f }, { -5.345827e-002f, 3.105552e-001f }, { -1.941128e-001f, -2.482697e-001f }, { 3.139994e-001f, 2.677986e-002f },
		{ 2.560904e-001f, 1.837789e-001f }, { -6.199322e-002f, 3.089835e-001f }, { -1.883306e-001f, -2.526865e-001f }, { 3.129887e-001f, 3.690478e-002f },
		{ 2.600619e-001f, 1.791466e-001f }, { -6.952874e-002f, 3.076646e-001f }, { -1.833831e-001f, -2.565732e-001f }, { 3.123833e-001f, 4.439132e-002f },
		{ 2.701863e-001f, 1.612890e-001f }, { -8.386223e-002f, 3.031538e-001f }, { -1.742845e-001f, -2.619123e-001f }, { 3.094858e-001f, 5.635186e-002f },
		{ 2.739008e-001f, 1.555588e-001f }, { -9.266992e-002f, 3.010031e-001f }, { -1.689247e-001f, -2.658378e-001f }, { 3.086010e-001f, 6.296076e-002f },
		{ 2.818748e-001f, 1.391135e-001f }, { -1.071977e-001f, 2.953760e-001f }, { -1.598528e-001f, -2.705373e-001f }, { 3.059501e-001f, 7.185482e-002f },
		{ 2.819785e-001f, 1.425097e-001f }, { -1.115192e-001f, 2.955822e-001f }, { -1.573922e-001f, -2.739405e-001f }, { 3.066702e-001f, 7.591939e-002f },
		{ 2.926330e-001f, 1.141102e-001f }, { -1.316187e-001f, 2.851211e-001f }, { -1.434535e-001f, -2.793911e-001f }, { 3.021158e-001f, 8.577995e-002f },
		{ 2.936638e-001f, 1.161270e-001f }, { -1.366640e-001f, 2.846025e-001f }, { -1.403065e-001f, -2.828892e-001f }, { 3.026040e-001f, 9.014783e-002f },
		{ 3.022563e-001f, 8.498453e-002f }, { -1.562605e-001f, 2.722954e-001f }, { -1.244211e-001f, -2.882162e-001f }, { 2.977462e-001f, 9.959985e-002f },
		{ 3.036508e-001f, 8.669638e-002f }, { -1.613518e-001f, 2.714381e-001f }, { -1.209761e-001f, -2.916278e-001f }, { 2.981397e-001f, 1.040661e-001f },
		{ 3.090315e-001f, 5.903235e-002f }, { -1.771036e-001f, 2.600339e-001f }, { -1.057159e-001f, -2.963284e-001f }, { 2.934640e-001f, 1.134146e-001f },
		{ 3.105891e-001f, 6.302765e-002f }, { -1.813991e-001f, 2.598684e-001f }, { -1.030466e-001f, -2.996868e-001f }, { 2.942791e-001f, 1.176336e-001f },
		{ 3.133786e-001f, 5.875824e-003f }, { -2.042840e-001f, 2.377064e-001f }, { -7.441967e-002f, -3.044572e-001f }, { 2.841398e-001f, 1.322986e-001f },
		{ 3.152052e-001f, 9.415473e-003f }, { -2.081889e-001f, 2.368486e-001f }, { -7.145210e-002f, -3.071430e-001f }, { 2.843694e-001f, 1.362869e-001f },
		{ 3.113029e-001f, -3.708621e-002f }, { -2.236447e-001f, 2.196884e-001f }, { -4.550049e-002f, -3.101718e-001f }, { 2.745207e-001f, 1.513936e-001f },
		{ 3.134100e-001f, -3.387086e-002f }, { -2.272959e-001f, 2.184229e-001f }, { -4.232526e-002f, -3.123784e-001f }, { 2.743519e-001f, 1.552521e-001f },
		{ 3.032292e-001f, -8.081883e-002f }, { -2.408953e-001f, 2.011086e-001f }, { -1.632584e-002f, -3.133763e-001f }, { 2.620852e-001f, 1.725725e-001f },
		{ 3.055289e-001f, -7.793285e-002f }, { -2.442259e-001f, 1.994422e-001f }, { -1.299104e-002f, -3.150450e-001f }, { 2.614488e-001f, 1.762426e-001f },
		{ 2.855587e-001f, -1.302465e-001f }, { -2.546374e-001f, 1.834619e-001f }, { 1.873601e-002f, -3.132820e-001f }, { 2.434777e-001f, 1.980441e-001f },
		{ 2.878848e-001f, -1.276184e-001f }, { -2.574463e-001f, 1.813325e-001f }, { 2.216307e-002f, -3.141108e-001f }, { 2.421417e-001f, 2.013034e-001f },
		{ 2.609055e-001f, -1.753284e-001f }, { -2.661404e-001f, 1.671086e-001f }, { 5.146740e-002f, -3.099751e-001f }, { 2.201230e-001f, 2.242423e-001f },
		{ 2.517187e-001f, -1.886491e-001f }, { -2.697292e-001f, 1.616019e-001f }, { 6.324042e-002f, -3.079833e-001f }, { 2.097085e-001f, 2.343008e-001f },
		{ 2.361566e-001f, -2.098961e-001f }, { -2.735179e-001f, 1.546468e-001f }, { 7.865221e-002f, -3.038677e-001f }, { 1.934327e-001f, 2.476265e-001f },
		{ 2.284786e-001f, -2.266128e-001f }, { -2.746082e-001f, 1.499152e-001f }, { 8.929726e-002f, -2.976600e-001f }, { 1.773997e-001f, 2.562900e-001f },
		{ 2.218212e-001f, -2.422846e-001f }, { -2.747139e-001f, 1.450905e-001f }, { 9.879540e-002f, -2.909305e-001f }, { 1.619339e-001f, 2.636020e-001f },
		{ 2.152967e-001f, -2.560168e-001f }, { -2.748454e-001f, 1.405802e-001f }, { 1.074077e-001f, -2.846772e-001f }, { 1.475412e-001f, 2.693031e-001f },
		{ 2.086017e-001f, -2.681819e-001f }, { -2.743387e-001f, 1.372126e-001f }, { 1.154718e-001f, -2.785925e-001f }, { 1.331061e-001f, 2.743722e-001f },
		{ 2.018039e-001f, -2.795253e-001f }, { -2.741411e-001f, 1.336923e-001f }, { 1.230237e-001f, -2.726692e-001f }, { 1.196141e-001f, 2.783059e-001f },
		{ 1.948725e-001f, -2.896608e-001f }, { -2.735685e-001f, 1.306964e-001f }, { 1.302394e-001f, -2.668424e-001f }, { 1.066031e-001f, 2.819830e-001f },
		{ 1.876688e-001f, -2.989841e-001f }, { -2.734538e-001f, 1.280189e-001f }, { 1.372307e-001f, -2.611935e-001f }, { 9.419897e-002f, 2.846884e-001f },
		{ 1.801286e-001f, -3.072876e-001f }, { -2.732739e-001f, 1.259418e-001f }, { 1.441503e-001f, -2.556381e-001f }, { 8.203921e-002f, 2.871480e-001f },
		{ 1.723815e-001f, -3.150085e-001f }, { -2.732653e-001f, 1.237334e-001f }, { 1.509795e-001f, -2.500512e-001f }, { 7.063831e-002f, 2.893555e-001f },
		{ 1.640222e-001f, -3.219328e-001f }, { -2.735036e-001f, 1.221625e-001f }, { 1.579606e-001f, -2.444795e-001f }, { 5.915445e-002f, 2.911449e-001f },
		{ 1.552186e-001f, -3.284347e-001f }, { -2.740182e-001f, 1.205391e-001f }, { 1.650291e-001f, -2.387546e-001f }, { 4.808060e-002f, 2.926316e-001f },
		{ 1.451667e-001f, -3.338013e-001f }, { -2.745216e-001f, 1.199593e-001f }, { 1.725531e-001f, -2.329692e-001f }, { 3.580728e-002f, 2.940120e-001f },
		{ 1.341501e-001f, -3.386724e-001f }, { -2.752207e-001f, 1.195824e-001f }, { 1.803665e-001f, -2.268448e-001f }, { 2.307857e-002f, 2.949480e-001f },
		{ 1.225584e-001f, -3.435689e-001f }, { -2.762756e-001f, 1.186976e-001f }, { 1.882772e-001f, -2.201584e-001f }, { 1.086658e-002f, 2.952917e-001f },
		{ 1.091143e-001f, -3.472514e-001f }, { -2.771856e-001f, 1.186357e-001f }, { 1.967291e-001f, -2.130748e-001f }, { -3.335088e-003f, 2.952453e-001f },
		{ 9.469668e-002f, -3.507381e-001f }, { -2.782044e-001f, 1.182065e-001f }, { 2.052727e-001f, -2.052266e-001f }, { -1.766074e-002f, 2.945028e-001f },
		{ 7.834070e-002f, -3.530526e-001f }, { -2.790419e-001f, 1.182545e-001f }, { 2.141536e-001f, -1.967328e-001f }, { -3.397128e-002f, 2.928861e-001f },
		{ 6.081410e-002f, -3.550031e-001f }, { -2.798286e-001f, 1.179118e-001f }, { 2.229699e-001f, -1.872792e-001f }, { -5.060511e-002f, 2.902891e-001f },
		{ 4.128706e-002f, -3.555807e-001f }, { -2.803330e-001f, 1.180823e-001f }, { 2.318663e-001f, -1.770283e-001f }, { -6.938070e-002f, 2.861655e-001f },
		{ 2.047631e-002f, -3.554060e-001f }, { -2.807050e-001f, 1.177835e-001f }, { 2.404362e-001f, -1.658896e-001f }, { -8.862123e-002f, 2.806899e-001f },
		{ -1.794094e-003f, -3.539636e-001f }, { -2.809534e-001f, 1.173905e-001f }, { 2.486516e-001f, -1.540444e-001f }, { -1.088331e-001f, 2.733863e-001f },
		{ -2.498868e-002f, -3.519722e-001f }, { -2.809134e-001f, 1.167227e-001f }, { 2.562376e-001f, -1.410238e-001f }, { -1.288062e-001f, 2.644678e-001f },
		{ -4.921300e-002f, -3.485185e-001f }, { -2.807814e-001f, 1.159545e-001f }, { 2.631779e-001f, -1.275339e-001f }, { -1.491769e-001f, 2.535004e-001f },
		{ -7.395074e-002f, -3.437538e-001f }, { -2.805262e-001f, 1.149516e-001f }, { 2.692492e-001f, -1.137370e-001f }, { -1.693648e-001f, 2.406576e-001f },
		{ -9.872631e-002f, -3.378985e-001f }, { -2.804278e-001f, 1.131840e-001f }, { 2.744868e-001f, -9.970278e-002f }, { -1.881112e-001f, 2.265305e-001f },
		{ -1.233329e-001f, -3.312037e-001f }, { -2.802157e-001f, 1.114048e-001f }, { 2.787198e-001f, -8.532061e-002f }, { -2.055788e-001f, 2.108605e-001f },
		{ -1.472452e-001f, -3.235005e-001f }, { -2.799953e-001f, 1.090529e-001f }, { 2.819279e-001f, -7.109674e-002f }, { -2.214654e-001f, 1.945059e-001f },
		{ -1.702899e-001f, -3.150791e-001f }, { -2.799155e-001f, 1.066928e-001f }, { 2.842183e-001f, -5.705145e-002f }, { -2.353720e-001f, 1.771457e-001f },
		{ -1.922472e-001f, -3.058309e-001f }, { -2.801131e-001f, 1.033277e-001f }, { 2.858331e-001f, -4.327035e-002f }, { -2.468341e-001f, 1.601857e-001f },
		{ -2.125714e-001f, -2.959294e-001f }, { -2.801694e-001f, 9.980676e-002f }, { 2.864392e-001f, -3.025637e-002f }, { -2.569702e-001f, 1.433311e-001f },
		{ -2.315277e-001f, -2.855793e-001f }, { -2.804685e-001f, 9.583364e-002f }, { 2.863633e-001f, -1.772358e-002f }, { -2.650366e-001f, 1.269501e-001f },
		{ -2.488727e-001f, -2.748879e-001f }, { -2.807646e-001f, 9.173780e-002f }, { 2.854692e-001f, -5.906935e-003f }, { -2.717879e-001f, 1.110844e-001f },
		{ -2.643798e-001f, -2.637171e-001f }, { -2.814773e-001f, 8.726581e-002f }, { 2.841940e-001f, 4.897314e-003f }, { -2.769961e-001f, 9.594652e-002f },
		{ -2.780480e-001f, -2.520751e-001f }, { -2.825743e-001f, 8.227100e-002f }, { 2.826419e-001f, 1.482900e-002f }, { -2.810224e-001f, 8.189341e-002f },
		{ -2.903347e-001f, -2.403880e-001f }, { -2.839818e-001f, 7.745971e-002f }, { 2.808527e-001f, 2.400430e-002f }, { -2.837039e-001f, 6.804075e-002f },
		{ -3.011495e-001f, -2.285444e-001f }, { -2.857175e-001f, 7.268317e-002f }, { 2.788534e-001f, 3.241579e-002f }, { -2.854783e-001f, 5.463325e-002f },
		{ -3.106429e-001f, -2.165464e-001f }, { -2.877981e-001f, 6.802071e-002f }, { 2.767930e-001f, 4.009496e-002f }, { -2.863819e-001f, 4.143851e-002f },
		{ -3.188634e-001f, -2.043600e-001f }, { -2.902099e-001f, 6.347558e-002f }, { 2.747388e-001f, 4.705509e-002f }, { -2.865995e-001f, 2.833627e-002f },
		{ -3.261983e-001f, -1.920135e-001f }, { -2.928597e-001f, 5.912773e-002f }, { 2.725844e-001f, 5.358832e-002f }, { -2.861401e-001f, 1.517547e-002f },
		{ -3.326721e-001f, -1.794151e-001f }, { -2.957330e-001f, 5.500641e-002f }, { 2.703969e-001f, 5.974508e-002f }, { -2.850756e-001f, 1.820028e-003f },
		{ -3.384928e-001f, -1.664893e-001f }, { -2.988655e-001f, 5.119675e-002f }, { 2.681446e-001f, 6.562768e-002f }, { -2.832489e-001f, -1.197332e-002f },
		{ -3.434652e-001f, -1.531016e-001f }, { -3.021064e-001f, 4.757211e-002f }, { 2.659388e-001f, 7.119108e-002f }, { -2.809549e-001f, -2.624170e-002f },
		{ -3.478863e-001f, -1.392048e-001f }, { -3.055073e-001f, 4.424495e-002f }, { 2.636955e-001f, 7.623750e-002f }, { -2.778001e-001f, -4.155684e-002f },
		{ -3.517272e-001f, -1.245766e-001f }, { -3.088282e-001f, 4.104655e-002f }, { 2.614712e-001f, 8.125097e-002f }, { -2.739406e-001f, -5.756792e-002f },
		{ -3.546031e-001f, -1.092563e-001f }, { -3.120402e-001f, 3.782913e-002f }, { 2.593774e-001f, 8.645869e-002f }, { -2.695699e-001f, -7.383497e-002f },
		{ -3.574306e-001f, -9.326187e-002f }, { -3.152129e-001f, 3.493364e-002f }, { 2.566552e-001f, 9.215331e-002f }, { -2.640286e-001f, -9.049831e-002f },
		{ -3.594747e-001f, -7.646993e-002f }, { -3.181724e-001f, 3.209345e-002f }, { 2.538644e-001f, 9.810982e-002f }, { -2.576214e-001f, -1.075623e-001f },
		{ -3.608401e-001f, -5.901178e-002f }, { -3.209824e-001f, 2.925655e-002f }, { 2.506208e-001f, 1.048003e-001f }, { -2.504063e-001f, -1.243042e-001f },
		{ -3.616417e-001f, -4.077729e-002f }, { -3.234960e-001f, 2.660319e-002f }, { 2.469561e-001f, 1.118386e-001f }, { -2.420234e-001f, -1.413491e-001f },
		{ -3.615794e-001f, -2.193241e-002f }, { -3.256683e-001f, 2.389562e-002f }, { 2.428992e-001f, 1.194244e-001f }, { -2.327962e-001f, -1.580739e-001f },
		{ -3.604514e-001f, -2.646243e-003f }, { -3.273691e-001f, 2.104835e-002f }, { 2.385418e-001f, 1.275975e-001f }, { -2.229358e-001f, -1.742647e-001f },
		{ -3.583687e-001f, 1.674402e-002f }, { -3.282400e-001f, 1.779282e-002f }, { 2.338331e-001f, 1.366623e-001f }, { -2.129905e-001f, -1.891480e-001f },
		{ -3.550668e-001f, 3.642834e-002f }, { -3.294451e-001f, 1.476438e-002f }, { 2.281577e-001f, 1.460365e-001f }, { -2.021643e-001f, -2.036979e-001f },
		{ -3.505591e-001f, 5.566171e-002f }, { -3.295383e-001f, 1.119400e-002f }, { 2.225031e-001f, 1.561648e-001f }, { -1.917355e-001f, -2.167848e-001f },
		{ -3.454786e-001f, 7.475229e-002f }, { -3.296018e-001f, 7.527521e-003f }, { 2.154334e-001f, 1.666766e-001f }, { -1.811655e-001f, -2.286002e-001f },
		{ -3.395783e-001f, 9.342483e-002f }, { -3.292893e-001f, 3.710898e-003f }, { 2.076309e-001f, 1.776102e-001f }, { -1.706426e-001f, -2.391120e-001f },
		{ -3.325928e-001f, 1.112977e-001f }, { -3.285773e-001f, -6.236918e-004f }, { 1.994859e-001f, 1.887203e-001f }, { -1.606219e-001f, -2.483065e-001f },
		{ -3.248407e-001f, 1.283906e-001f }, { -3.276352e-001f, -5.404581e-003f }, { 1.907602e-001f, 1.996306e-001f }, { -1.509677e-001f, -2.564192e-001f },
		{ -3.161020e-001f, 1.442817e-001f }, { -3.263625e-001f, -1.083624e-002f }, { 1.822430e-001f, 2.104209e-001f }, { -1.418078e-001f, -2.633323e-001f },
		{ -3.068372e-001f, 1.592725e-001f }, { -3.248736e-001f, -1.681117e-002f }, { 1.734967e-001f, 2.205259e-001f }, { -1.328536e-001f, -2.695456e-001f },
		{ -2.971960e-001f, 1.734290e-001f }, { -3.232160e-001f, -2.314269e-002f }, { 1.644132e-001f, 2.300701e-001f }, { -1.240831e-001f, -2.750509e-001f },
		{ -2.867689e-001f, 1.860128e-001f }, { -3.209171e-001f, -3.048430e-002f }, { 1.567522e-001f, 2.388327e-001f }, { -1.155334e-001f, -2.800660e-001f },
		{ -2.761008e-001f, 1.980089e-001f }, { -3.190832e-001f, -3.768441e-002f }, { 1.483499e-001f, 2.472214e-001f }, { -1.066421e-001f, -2.843520e-001f },
		{ -2.651554e-001f, 2.090711e-001f }, { -3.168105e-001f, -4.616032e-002f }, { 1.409306e-001f, 2.543402e-001f }, { -9.770149e-002f, -2.881954e-001f },
		{ -2.536131e-001f, 2.188214e-001f }, { -3.142443e-001f, -5.505791e-002f }, { 1.346986e-001f, 2.607800e-001f }, { -8.825704e-002f, -2.920061e-001f },
		{ -2.418759e-001f, 2.280251e-001f }, { -3.112771e-001f, -6.428643e-002f }, { 1.292030e-001f, 2.668257e-001f }, { -7.805475e-002f, -2.952401e-001f },
		{ -2.298957e-001f, 2.364090e-001f }, { -3.081606e-001f, -7.387474e-002f }, { 1.239942e-001f, 2.719054e-001f }, { -6.747308e-002f, -2.985845e-001f },
		{ -2.174629e-001f, 2.441167e-001f }, { -3.049678e-001f, -8.379625e-002f }, { 1.196742e-001f, 2.765754e-001f }, { -5.581000e-002f, -3.013853e-001f },
		{ -2.048824e-001f, 2.515505e-001f }, { -3.011227e-001f, -9.367573e-002f }, { 1.153880e-001f, 2.806395e-001f }, { -4.349674e-002f, -3.042981e-001f },
		{ -1.918806e-001f, 2.584020e-001f }, { -2.971486e-001f, -1.036803e-001f }, { 1.118032e-001f, 2.843788e-001f }, { -3.004050e-002f, -3.065937e-001f },
		{ -1.785385e-001f, 2.651498e-001f }, { -2.929965e-001f, -1.136162e-001f }, { 1.079424e-001f, 2.876777e-001f }, { -1.581271e-002f, -3.083683e-001f },
		{ -1.652082e-001f, 2.714657e-001f }, { -2.889899e-001f, -1.232468e-001f }, { 1.034437e-001f, 2.908175e-001f }, { -1.583219e-003f, -3.092531e-001f },
		{ -1.508470e-001f, 2.779142e-001f }, { -2.841786e-001f, -1.328409e-001f }, { 9.910960e-002f, 2.935616e-001f }, { 1.419747e-002f, -3.098916e-001f },
		{ -1.361799e-001f, 2.838986e-001f }, { -2.792159e-001f, -1.420982e-001f }, { 9.531971e-002f, 2.958365e-001f }, { 3.128443e-002f, -3.095442e-001f },
		{ -1.234343e-001f, 2.886504e-001f }, { -2.746814e-001f, -1.503348e-001f }, { 9.146198e-002f, 2.979012e-001f }, { 4.701166e-002f, -3.079395e-001f },
		{ -1.079576e-001f, 2.942660e-001f }, { -2.696403e-001f, -1.589483e-001f }, { 8.629141e-002f, 3.000356e-001f }, { 6.425138e-002f, -3.053210e-001f },
		{ -9.344748e-002f, 2.990292e-001f }, { -2.648344e-001f, -1.668175e-001f }, { 8.204042e-002f, 3.013917e-001f }, { 8.189593e-002f, -3.014488e-001f },
		{ -7.840280e-002f, 3.032978e-001f }, { -2.600383e-001f, -1.742750e-001f }, { 7.701244e-002f, 3.029725e-001f }, { 9.926153e-002f, -2.964487e-001f },
		{ -6.317262e-002f, 3.069199e-001f }, { -2.554462e-001f, -1.811234e-001f }, { 7.142597e-002f, 3.045293e-001f }, { 1.164216e-001f, -2.903360e-001f },
		{ -4.694077e-002f, 3.099844e-001f }, { -2.508863e-001f, -1.876684e-001f }, { 6.522404e-002f, 3.060977e-001f }, { 1.338136e-001f, -2.829320e-001f },
		{ -2.908996e-002f, 3.123464e-001f }, { -2.463359e-001f, -1.941063e-001f }, { 5.834002e-002f, 3.077050e-001f }, { 1.517309e-001f, -2.739470e-001f },
		{ -1.367466e-002f, 3.134896e-001f }, { -2.422060e-001f, -1.994071e-001f }, { 5.091884e-002f, 3.092073e-001f }, { 1.671404e-001f, -2.650427e-001f },
		{ 3.504722e-003f, 3.139289e-001f }, { -2.375497e-001f, -2.051643e-001f }, { 4.175720e-002f, 3.107955e-001f }, { 1.816917e-001f, -2.556012e-001f },
		{ 2.155060e-002f, 3.137562e-001f }, { -2.342844e-001f, -2.094915e-001f }, { 3.205734e-002f, 3.117419e-001f }, { 1.974337e-001f, -2.433822e-001f },
		{ 3.481002e-002f, 3.046739e-001f }, { -2.250930e-001f, -2.080573e-001f }, { 2.181368e-002f, 3.051189e-001f }, { 2.043493e-001f, -2.276059e-001f },
		{ 4.575087e-002f, 2.806883e-001f }, { -2.057343e-001f, -1.961227e-001f }, { 1.003086e-002f, 2.834063e-001f }, { 1.996174e-001f, -2.014271e-001f },
		{ 4.993297e-002f, 2.445367e-001f }, { -1.780922e-001f, -1.746158e-001f }, { -7.001926e-006f, 2.487971e-001f }, { 1.824284e-001f, -1.692487e-001f },
		{ 5.069145e-002f, 1.993624e-001f }, { -1.450029e-001f, -1.456798e-001f }, { -8.759455e-003f, 2.048771e-001f }, { 1.566138e-001f, -1.325713e-001f },
		{ 4.597045e-002f, 1.503838e-001f }, { -1.092801e-001f, -1.128669e-001f }, { -1.343789e-002f, 1.559514e-001f }, { 1.237943e-001f, -9.590754e-002f },
		{ 3.526294e-002f, 1.026016e-001f }, { -7.449541e-002f, -7.877152e-002f }, { -1.338062e-002f, 1.074044e-001f }, { 8.789965e-002f, -6.324978e-002f },
		{ 2.263774e-002f, 6.057881e-002f }, { -4.385207e-002f, -4.751894e-002f }, { -1.008939e-002f, 6.379393e-002f }, { 5.356101e-002f, -3.608349e-002f },
		{ 1.150130e-002f, 2.765543e-002f }, { -2.002820e-002f, -2.226536e-002f }, { -5.820668e-003f, 2.935853e-002f }, { 2.540642e-002f, -1.582086e-002f },
		{ 3.151520e-003f, 6.998115e-003f }, { -5.060904e-003f, -5.768367e-003f }, { -1.749402e-003f, 7.469352e-003f }, { 6.639944e-003f, -3.844537e-003f },
		{ 0.000000e+000f, 0.000000e+000f }, { 0.000000e+000f, 0.000000e+000f }, { 0.000000e+000f, 0.000000e+000f }, { 0.000000e+000f, 0.000000e+000f },
		{ 0.000000e+000f, 0.000000e+000f }, { 0.000000e+000f, 0.000000e+000f }, { 0.000000e+000f, 0.000000e+000f }, { 0.000000e+000f, 0.000000e+000f },
		{ 0.000000e+000f, 0.000000e+000f }, { 0.000000e+000f, 0.000000e+000f }, { 0.000000e+000f, 0.000000e+000f }, { 0.000000e+000f, 0.000000e+000f },
		{ 0.000000e+000f, 0.000000e+000f }, { 0.000000e+000f, 0.000000e+000f }, { 0.000000e+000f, 0.000000e+000f }, { 0.000000e+000f, 0.000000e+000f },
		{ 0.000000e+000f, 0.000000e+000f }, { 0.000000e+000f, 0.000000e+000f }, { 0.000000e+000f, 0.000000e+000f }, { 0.000000e+000f, 0.000000e+000f },
		{ 0.000000e+000f, 0.000000e+000f }, { 0.000000e+000f, 0.000000e+000f }, { 0.000000e+000f, 0.000000e+000f }, { 0.000000e+000f, 0.000000e+000f },
		{ 0.000000e+000f, 0.000000e+000f }, { 0.000000e+000f, 0.000000e+000f }, { 0.000000e+000f, 0.000000e+000f }, { 0.000000e+000f, 0.000000e+000f },
		{ 0.000000e+000f, 0.000000e+000f }, { 0.000000e+000f, 0.000000e+000f }, { 0.000000e+000f, 0.000000e+000f }, { 0.000000e+000f, 0.000000e+000f },
		{ 0.000000e+000f, 0.000000e+000f }, { 0.000000e+000f, 0.000000e+000f }, { 0.000000e+000f, 0.000000e+000f }, { 0.000000e+000f, 0.000000e+000f },
		{ 0.000000e+000f, 0.000000e+000f }, { 0.000000e+000f, 0.000000e+000f }, { 0.000000e+000f, 0.000000e+000f }, { 0.000000e+000f, 0.000000e+000f },
		{ 0.000000e+000f, 0.000000e+000f }, { 0.000000e+000f, 0.000000e+000f }, { 0.000000e+000f, 0.000000e+000f }, { 0.000000e+000f, 0.000000e+000f },
		{ 0.000000e+000f, 0.000000e+000f }, { 0.000000e+000f, 0.000000e+000f }, { 0.000000e+000f, 0.000000e+000f }, { 0.000000e+000f, 0.000000e+000f },
		{ 0.000000e+000f, 0.000000e+000f }, { 0.000000e+000f, 0.000000e+000f }, { 0.000000e+000f, 0.000000e+000f }, { 0.000000e+000f, 0.000000e+000f },
		{ 0.000000e+000f, 0.000000e+000f }, { 0.000000e+000f, 0.000000e+000f }, { 0.000000e+000f, 0.000000e+000f }, { 0.000000e+000f, 0.000000e+000f },
		{ 0.000000e+000f, 0.000000e+000f }, { 0.000000e+000f, 0.000000e+000f }, { 0.000000e+000f, 0.000000e+000f }, { 0.000000e+000f, 0.000000e+000f },
		{ 0.000000e+000f, 0.000000e+000f }, { 0.000000e+000f, 0.000000e+000f }, { 0.000000e+000f, 0.000000e+000f }, { 0.000000e+000f, 0.000000e+000f },
		{ 0.000000e+000f, 0.000000e+000f }, { 0.000000e+000f, 0.000000e+000f }, { 0.000000e+000f, 0.000000e+000f }, { 0.000000e+000f, 0.000000e+000f },

		{ 0.000000e+000f, 0.000000e+000f }, { 0.000000e+000f, 0.000000e+000f }, { 0.000000e+000f, 0.000000e+000f }, { 0.000000e+000f, 0.000000e+000f },
		{ 0.000000e+000f, 0.000000e+000f }, { 0.000000e+000f, 0.000000e+000f }, { 0.000000e+000f, 0.000000e+000f }, { 0.000000e+000f, 0.000000e+000f },
		{ 0.000000e+000f, 0.000000e+000f }, { 0.000000e+000f, 0.000000e+000f }, { 0.000000e+000f, 0.000000e+000f }, { 0.000000e+000f, 0.000000e+000f },
		{ 0.000000e+000f, 0.000000e+000f }, { 0.000000e+000f, 0.000000e+000f }, { 0.000000e+000f, 0.000000e+000f }, { 0.000000e+000f, 0.000000e+000f },
		{ 0.000000e+000f, 0.000000e+000f }, { 0.000000e+000f, 0.000000e+000f }, { 0.000000e+000f, 0.000000e+000f }, { 0.000000e+000f, 0.000000e+000f },
		{ 0.000000e+000f, 0.000000e+000f }, { 0.000000e+000f, 0.000000e+000f }, { 0.000000e+000f, 0.000000e+000f }, { 0.000000e+000f, 0.000000e+000f },
		{ -2.813039e-003f, -6.030617e-002f }, { 3.648197e-002f, -4.810212e-002f }, { 2.862823e-002f, 5.315212e-002f }, { -3.267267e-002f, 5.076634e-002f },
		{ -2.370804e-003f, -1.937387e-001f }, { 1.187888e-001f, -1.530670e-001f }, { 9.733382e-002f, 1.675298e-001f }, { -1.042446e-001f, 1.633192e-001f },
		{ 6.858896e-003f, -3.483869e-001f }, { 2.174648e-001f, -2.722692e-001f }, { 1.826982e-001f, 2.967172e-001f }, { -1.865300e-001f, 2.943211e-001f },
		{ 2.743725e-002f, -4.790914e-001f }, { 3.060994e-001f, -3.695752e-001f }, { 2.658199e-001f, 3.995315e-001f }, { -2.525588e-001f, 4.080372e-001f },
		{ 4.032567e-002f, -5.951167e-001f }, { 3.852567e-001f, -4.553780e-001f }, { 3.252040e-001f, 5.000277e-001f }, { -3.192065e-001f, 5.038782e-001f },
		{ 6.736310e-002f, -6.232706e-001f }, { 4.150775e-001f, -4.698009e-001f }, { 3.612365e-001f, 5.123598e-001f }, { -3.300617e-001f, 5.329779e-001f },
		{ 7.312765e-002f, -6.219678e-001f }, { 4.190313e-001f, -4.654096e-001f }, { 3.560503e-001f, 5.151882e-001f }, { -3.346938e-001f, 5.293096e-001f },
		{ 1.053660e-001f, -5.428802e-001f }, { 3.851165e-001f, -3.968732e-001f }, { 3.519542e-001f, 4.265482e-001f }, { -2.845256e-001f, 4.741941e-001f },
		{ 1.058137e-001f, -5.209756e-001f }, { 3.735099e-001f, -3.782901e-001f }, { 3.347721e-001f, 4.129659e-001f }, { -2.774621e-001f, 4.534599e-001f },
		{ 1.060933e-001f, -5.014526e-001f }, { 3.630657e-001f, -3.617924e-001f }, { 3.195274e-001f, 4.007634e-001f }, { -2.710531e-001f, 4.350170e-001f },
		{ 1.062705e-001f, -4.839494e-001f }, { 3.536416e-001f, -3.470431e-001f }, { 3.059105e-001f, 3.897700e-001f }, { -2.652380e-001f, 4.185070e-001f },
		{ 1.064057e-001f, -4.681880e-001f }, { 3.451332e-001f, -3.337761e-001f }, { 2.936645e-001f, 3.798376e-001f }, { -2.599742e-001f, 4.036509e-001f },
		{ 1.278991e-001f, -4.282523e-001f }, { 3.342827e-001f, -2.966717e-001f }, { 3.003644e-001f, 3.309631e-001f }, { -2.394783e-001f, 3.773667e-001f },
		{ 1.277201e-001f, -4.169511e-001f }, { 3.281781e-001f, -2.871606e-001f }, { 2.907932e-001f, 3.249661e-001f }, { -2.362351e-001f, 3.665434e-001f },
		{ 1.276363e-001f, -4.066802e-001f }, { 3.226963e-001f, -2.784741e-001f }, { 2.820453e-001f, 3.195774e-001f }, { -2.333613e-001f, 3.566806e-001f },
		{ 1.276606e-001f, -3.973243e-001f }, { 3.177862e-001f, -2.705080e-001f }, { 2.740390e-001f, 3.147513e-001f }, { -2.308416e-001f, 3.476759e-001f },
		{ 1.278078e-001f, -3.888014e-001f }, { 3.134245e-001f, -2.631879e-001f }, { 2.666691e-001f, 3.104659e-001f }, { -2.286639e-001f, 3.394307e-001f },
		{ 1.556491e-001f, -3.611091e-001f }, { 3.221598e-001f, -2.254732e-001f }, { 2.985781e-001f, 2.558829e-001f }, { -2.389144e-001f, 3.123246e-001f },
		{ 1.556980e-001f, -3.551349e-001f }, { 3.190650e-001f, -2.203656e-001f }, { 2.928610e-001f, 2.541565e-001f }, { -2.375070e-001f, 3.065168e-001f },
		{ 1.559486e-001f, -3.496994e-001f }, { 3.164218e-001f, -2.156083e-001f }, { 2.875956e-001f, 2.527806e-001f }, { -2.364270e-001f, 3.011839e-001f },
		{ 1.564068e-001f, -3.447618e-001f }, { 3.142168e-001f, -2.111655e-001f }, { 2.827443e-001f, 2.517520e-001f }, { -2.356712e-001f, 2.962806e-001f },
		{ 1.570784e-001f, -3.402850e-001f }, { 3.124377e-001f, -2.070046e-001f }, { 2.782703e-001f, 2.510636e-001f }, { -2.352339e-001f, 2.917752e-001f },
		{ 1.579693e-001f, -3.362415e-001f }, { 3.110704e-001f, -2.030949e-001f }, { 2.741444e-001f, 2.507131e-001f }, { -2.351137e-001f, 2.876347e-001f },
		{ 1.577273e-001f, -3.375873e-001f }, { 3.133496e-001f, -2.016335e-001f }, { 2.754338e-001f, 2.509565e-001f }, { -2.489586e-001f, 2.772450e-001f },
		{ 1.589250e-001f, -3.342492e-001f }, { 3.125842e-001f, -1.981694e-001f }, { 2.718902e-001f, 2.511074e-001f }, { -2.491349e-001f, 2.736986e-001f },
		{ 1.603666e-001f, -3.312792e-001f }, { 3.122213e-001f, -1.948864e-001f }, { 2.686256e-001f, 2.516014e-001f }, { -2.496561e-001f, 2.704369e-001f },
		{ 1.620646e-001f, -3.286572e-001f }, { 3.122631e-001f, -1.917628e-001f }, { 2.656164e-001f, 2.524432e-001f }, { -2.505203e-001f, 2.674305e-001f },
		{ 1.640249e-001f, -3.263664e-001f }, { 3.127011e-001f, -1.887779e-001f }, { 2.628459e-001f, 2.536345e-001f }, { -2.517357e-001f, 2.646682e-001f },
		{ 1.461180e-001f, -3.457785e-001f }, { 3.261012e-001f, -1.859469e-001f }, { 2.722774e-001f, 2.584151e-001f }, { -2.993930e-001f, 2.264411e-001f },
		{ 1.479305e-001f, -3.437723e-001f }, { 3.263165e-001f, -1.832443e-001f }, { 2.697572e-001f, 2.594059e-001f }, { -2.999723e-001f, 2.237947e-001f },
		{ 1.500312e-001f, -3.420928e-001f }, { 3.269760e-001f, -1.806318e-001f }, { 2.674414e-001f, 2.607881e-001f }, { -3.009584e-001f, 2.212701e-001f },
		{ 1.524160e-001f, -3.407384e-001f }, { 3.280352e-001f, -1.780907e-001f }, { 2.653251e-001f, 2.625496e-001f }, { -3.023708e-001f, 2.188940e-001f },
		{ 1.247100e-001f, -3.597654e-001f }, { 3.356869e-001f, -1.797341e-001f }, { 2.602002e-001f, 2.779735e-001f }, { -3.358132e-001f, 1.794969e-001f },
		{ 1.269426e-001f, -3.585834e-001f }, { 3.365176e-001f, -1.773423e-001f }, { 2.581122e-001f, 2.794108e-001f }, { -3.366607e-001f, 1.771041e-001f },
		{ 1.089072e-001f, -3.682618e-001f }, { 3.369026e-001f, -1.843149e-001f }, { 2.451180e-001f, 2.956074e-001f }, { -3.503818e-001f, 1.572148e-001f },
		{ 1.113345e-001f, -3.674096e-001f }, { 3.380236e-001f, -1.819965e-001f }, { 2.430560e-001f, 2.971636e-001f }, { -3.513231e-001f, 1.548110e-001f },
		{ 9.497956e-002f, -3.730287e-001f }, { 3.351972e-001f, -1.892345e-001f }, { 2.241949e-001f, 3.128881e-001f }, { -3.568244e-001f, 1.443862e-001f },
		{ 9.772790e-002f, -3.725707e-001f }, { 3.367730e-001f, -1.869332e-001f }, { 2.220743e-001f, 3.147176e-001f }, { -3.580989e-001f, 1.418981e-001f },
		{ 1.007840e-001f, -3.724909e-001f }, { 3.388216e-001f, -1.846619e-001f }, { 2.200200e-001f, 3.169982e-001f }, { -3.598368e-001f, 1.393751e-001f },
		{ 7.497845e-002f, -3.770155e-001f }, { 3.329083e-001f, -1.921774e-001f }, { 1.882597e-001f, 3.351344e-001f }, { -3.613686e-001f, 1.310428e-001f },
		{ 7.826335e-002f, -3.772418e-001f }, { 3.352458e-001f, -1.898555e-001f }, { 1.859099e-001f, 3.374566e-001f }, { -3.632759e-001f, 1.283495e-001f },
		{ 8.185930e-002f, -3.778544e-001f }, { 3.380744e-001f, -1.875460e-001f }, { 1.835502e-001f, 3.402565e-001f }, { -3.656532e-001f, 1.255759e-001f },
		{ 4.562896e-002f, -3.784550e-001f }, { 3.311636e-001f, -1.887760e-001f }, { 1.401692e-001f, 3.544849e-001f }, { -3.624367e-001f, 1.181074e-001f },
		{ 4.927889e-002f, -3.793102e-001f }, { 3.340371e-001f, -1.863525e-001f }, { 1.373563e-001f, 3.569930e-001f }, { -3.647566e-001f, 1.151505e-001f },
		{ 5.321481e-002f, -3.805779e-001f }, { 3.373770e-001f, -1.839214e-001f }, { 1.344676e-001f, 3.599617e-001f }, { -3.675598e-001f, 1.121009e-001f },
		{ 7.605376e-003f, -3.742028e-001f }, { 3.326406e-001f, -1.715539e-001f }, { 8.654872e-002f, 3.641305e-001f }, { -3.603152e-001f, 1.012706e-001f },
		{ 1.136290e-002f, -3.756238e-001f }, { 3.356865e-001f, -1.689245e-001f }, { 8.326323e-002f, 3.664607e-001f }, { -3.627704e-001f, 9.808379e-002f },
		{ 1.536884e-002f, -3.774638e-001f }, { 3.392073e-001f, -1.662585e-001f }, { 7.982295e-002f, 3.692335e-001f }, { -3.656873e-001f, 9.476835e-002f },
		{ -4.803895e-002f, -3.538381e-001f }, { 3.361804e-001f, -1.199846e-001f }, { 2.907579e-002f, 3.558880e-001f }, { -3.484603e-001f, 7.742136e-002f },
		{ -7.212564e-002f, -3.392119e-001f }, { 3.354081e-001f, -8.694463e-002f }, { 9.933552e-003f, 3.466344e-001f }, { -3.393007e-001f, 7.012715e-002f },
		{ -8.113058e-002f, -3.325840e-001f }, { 3.348454e-001f, -6.660174e-002f }, { 3.476621e-003f, 3.425004e-001f }, { -3.356354e-001f, 6.360523e-002f },
		{ -1.032427e-001f, -3.188991e-001f }, { 3.307498e-001f, -3.462599e-002f }, { -4.426087e-003f, 3.352810e-001f }, { -3.290959e-001f, 4.992272e-002f },
		{ -1.220131e-001f, -3.108086e-001f }, { 3.237068e-001f, -1.513675e-002f }, { -9.638852e-003f, 3.348696e-001f }, { -3.238970e-001f, 3.418332e-002f },
		{ -1.430994e-001f, -3.036062e-001f }, { 3.145237e-001f, 2.103947e-005f }, { -1.197108e-002f, 3.388680e-001f }, { -3.183950e-001f, 1.198633e-002f },
		{ -1.633105e-001f, -2.959306e-001f }, { 3.049629e-001f, 1.099679e-002f }, { -1.430998e-002f, 3.456661e-001f }, { -3.130688e-001f, -1.165885e-002f },
		{ -1.829381e-001f, -2.875439e-001f }, { 2.961144e-001f, 1.975578e-002f }, { -1.669121e-002f, 3.531373e-001f }, { -3.075063e-001f, -3.650402e-002f },
		{ -2.026554e-001f, -2.817055e-001f }, { 2.868676e-001f, 1.774088e-002f }, { -1.896994e-002f, 3.689701e-001f }, { -3.008728e-001f, -6.806279e-002f },
		{ -2.195161e-001f, -2.716913e-001f }, { 2.805596e-001f, 2.486756e-002f }, { -2.273154e-002f, 3.738571e-001f }, { -2.949506e-001f, -9.061632e-002f },
		{ -2.349814e-001f, -2.613579e-001f }, { 2.755952e-001f, 3.109576e-002f }, { -2.730107e-002f, 3.771844e-001f }, { -2.889324e-001f, -1.118005e-001f },
		{ -2.486562e-001f, -2.498997e-001f }, { 2.717885e-001f, 3.962465e-002f }, { -3.260650e-002f, 3.760711e-001f }, { -2.833825e-001f, -1.288719e-001f },
		{ -2.606150e-001f, -2.376093e-001f }, { 2.692837e-001f, 4.971698e-002f }, { -3.884412e-002f, 3.714949e-001f }, { -2.780615e-001f, -1.427066e-001f },
		{ -2.710257e-001f, -2.247129e-001f }, { 2.679187e-001f, 6.094583e-002f }, { -4.610315e-002f, 3.639267e-001f }, { -2.729507e-001f, -1.536378e-001f },
		{ -2.797117e-001f, -2.117210e-001f }, { 2.671504e-001f, 7.200341e-002f }, { -5.412375e-002f, 3.556784e-001f }, { -2.677541e-001f, -1.628389e-001f },
		{ -2.870389e-001f, -1.981823e-001f }, { 2.666060e-001f, 8.370796e-002f }, { -6.311949e-002f, 3.454026e-001f }, { -2.631051e-001f, -1.694798e-001f },
		{ -2.934162e-001f, -1.855551e-001f }, { 2.664705e-001f, 9.247753e-002f }, { -7.292612e-002f, 3.371505e-001f }, { -2.577556e-001f, -1.768261e-001f },
		{ -2.989220e-001f, -1.729335e-001f }, { 2.667067e-001f, 1.002783e-001f }, { -8.381689e-002f, 3.285794e-001f }, { -2.523337e-001f, -1.833516e-001f },
		{ -3.038432e-001f, -1.607629e-001f }, { 2.673516e-001f, 1.061410e-001f }, { -9.558985e-002f, 3.208696e-001f }, { -2.463389e-001f, -1.901387e-001f },
		{ -3.082166e-001f, -1.486542e-001f }, { 2.682165e-001f, 1.109633e-001f }, { -1.081360e-001f, 3.131645e-001f }, { -2.400384e-001f, -1.966303e-001f },
		{ -3.119617e-001f, -1.362512e-001f }, { 2.687577e-001f, 1.157803e-001f }, { -1.211232e-001f, 3.047604e-001f }, { -2.338470e-001f, -2.021043e-001f },
		{ -3.155511e-001f, -1.240681e-001f }, { 2.693648e-001f, 1.192551e-001f }, { -1.344818e-001f, 2.968047e-001f }, { -2.270598e-001f, -2.078650e-001f },
		{ -3.189703e-001f, -1.117976e-001f }, { 2.698296e-001f, 1.220933e-001f }, { -1.480345e-001f, 2.886965e-001f }, { -2.198880e-001f, -2.134572e-001f },
		{ -3.222355e-001f, -9.931636e-002f }, { 2.699388e-001f, 1.246553e-001f }, { -1.615793e-001f, 2.802763e-001f }, { -2.123860e-001f, -2.186622e-001f },
		{ -3.252342e-001f, -8.644013e-002f }, { 2.692931e-001f, 1.275638e-001f }, { -1.748730e-001f, 2.712832e-001f }, { -2.047849e-001f, -2.230033e-001f },
		{ -3.283462e-001f, -7.351002e-002f }, { 2.688011e-001f, 1.295519e-001f }, { -1.881894e-001f, 2.626573e-001f }, { -1.960746e-001f, -2.276974e-001f },
		{ -3.316589e-001f, -6.036432e-002f }, { 2.686618e-001f, 1.305968e-001f }, { -2.015315e-001f, 2.543490e-001f }, { -1.860016e-001f, -2.328696e-001f },
		{ -3.350811e-001f, -4.678760e-002f }, { 2.687869e-001f, 1.310294e-001f }, { -2.148570e-001f, 2.462620e-001f }, { -1.744652e-001f, -2.382701e-001f },
		{ -3.383425e-001f, -3.253461e-002f }, { 2.685009e-001f, 1.314921e-001f }, { -2.278612e-001f, 2.381776e-001f }, { -1.619746e-001f, -2.433104e-001f },
		{ -3.414128e-001f, -1.775009e-002f }, { 2.689215e-001f, 1.311758e-001f }, { -2.413224e-001f, 2.309492e-001f }, { -1.471359e-001f, -2.486859e-001f },
		{ -3.442956e-001f, -2.336138e-003f }, { 2.703299e-001f, 1.298920e-001f }, { -2.553440e-001f, 2.246525e-001f }, { -1.295614e-001f, -2.545159e-001f },
		{ -3.464455e-001f, 1.386001e-002f }, { 2.714504e-001f, 1.287125e-001f }, { -2.691957e-001f, 2.187336e-001f }, { -1.106878e-001f, -2.598943e-001f },
		{ -3.477421e-001f, 3.063162e-002f }, { 2.726044e-001f, 1.276173e-001f }, { -2.828595e-001f, 2.132691e-001f }, { -9.035255e-002f, -2.648751e-001f },
		{ -3.488162e-001f, 4.801929e-002f }, { 2.750891e-001f, 1.251808e-001f }, { -2.970752e-001f, 2.087464e-001f }, { -6.693473e-002f, -2.702137e-001f },
		{ -3.479812e-001f, 6.531093e-002f }, { 2.755005e-001f, 1.248423e-001f }, { -3.091219e-001f, 2.036596e-001f }, { -4.560681e-002f, -2.740452e-001f },
		{ -3.465208e-001f, 8.271360e-002f }, { 2.759567e-001f, 1.243338e-001f }, { -3.203038e-001f, 1.987838e-001f }, { -2.351860e-002f, -2.775797e-001f },
		{ -3.432192e-001f, 9.943959e-002f }, { 2.738858e-001f, 1.264017e-001f }, { -3.284004e-001f, 1.929994e-001f }, { -4.848991e-003f, -2.797518e-001f },
		{ -3.386476e-001f, 1.156159e-001f }, { 2.704307e-001f, 1.294811e-001f }, { -3.344956e-001f, 1.869593e-001f }, { 1.202580e-002f, -2.815147e-001f },
		{ -3.333130e-001f, 1.313126e-001f }, { 2.665135e-001f, 1.328644e-001f }, { -3.392389e-001f, 1.808558e-001f }, { 2.827953e-002f, -2.830428e-001f },
		{ -3.267250e-001f, 1.462124e-001f }, { 2.608725e-001f, 1.376542e-001f }, { -3.416621e-001f, 1.742606e-001f }, { 4.201114e-002f, -2.842377e-001f },
		{ -3.187638e-001f, 1.601945e-001f }, { 2.538929e-001f, 1.438273e-001f }, { -3.424590e-001f, 1.672174e-001f }, { 5.367216e-002f, -2.850185e-001f },
		{ -3.097907e-001f, 1.733198e-001f }, { 2.460257e-001f, 1.510448e-001f }, { -3.420301e-001f, 1.597886e-001f }, { 6.389349e-002f, -2.853508e-001f },
		{ -2.998360e-001f, 1.855269e-001f }, { 2.373875e-001f, 1.590976e-001f }, { -3.406950e-001f, 1.520735e-001f }, { 7.286201e-002f, -2.853488e-001f },
		{ -2.880608e-001f, 1.967494e-001f }, { 2.251957e-001f, 1.702087e-001f }, { -3.364925e-001f, 1.430934e-001f }, { 7.722252e-002f, -2.849303e-001f },
		{ -2.754462e-001f, 2.071973e-001f }, { 2.120030e-001f, 1.820625e-001f }, { -3.315045e-001f, 1.337139e-001f }, { 8.030700e-002f, -2.843587e-001f },
		{ -2.619719e-001f, 2.167474e-001f }, { 1.981266e-001f, 1.943914e-001f }, { -3.262483e-001f, 1.240504e-001f }, { 8.252346e-002f, -2.836546e-001f },
		{ -2.478510e-001f, 2.254858e-001f }, { 1.837208e-001f, 2.069006e-001f }, { -3.208320e-001f, 1.140878e-001f }, { 8.407338e-002f, -2.828621e-001f },
		{ -2.332915e-001f, 2.334470e-001f }, { 1.691527e-001f, 2.192135e-001f }, { -3.155015e-001f, 1.038705e-001f }, { 8.535044e-002f, -2.820107e-001f },
		{ -2.181133e-001f, 2.404488e-001f }, { 1.539475e-001f, 2.315763e-001f }, { -3.101766e-001f, 9.324803e-002f }, { 8.573028e-002f, -2.811593e-001f },
		{ -2.031111e-001f, 2.467767e-001f }, { 1.400151e-001f, 2.426150e-001f }, { -3.057468e-001f, 8.264656e-002f }, { 8.738608e-002f, -2.802103e-001f },
		{ -1.876692e-001f, 2.520211e-001f }, { 1.257410e-001f, 2.532775e-001f }, { -3.016815e-001f, 7.165083e-002f }, { 8.836706e-002f, -2.793482e-001f },
		{ -1.723877e-001f, 2.565691e-001f }, { 1.123153e-001f, 2.627144e-001f }, { -2.981698e-001f, 6.044890e-002f }, { 9.001269e-002f, -2.785943e-001f },
		{ -1.570543e-001f, 2.600029e-001f }, { 9.954762e-002f, 2.709333e-001f }, { -2.959242e-001f, 4.913048e-002f }, { 9.217763e-002f, -2.777211e-001f },
		{ -1.428586e-001f, 2.629129e-001f }, { 8.862856e-002f, 2.772697e-001f }, { -2.942673e-001f, 3.793234e-002f }, { 9.568698e-002f, -2.767955e-001f },
		{ -1.297306e-001f, 2.651631e-001f }, { 7.838310e-002f, 2.821091e-001f }, { -2.931089e-001f, 2.710264e-002f }, { 9.945312e-002f, -2.758193e-001f },
		{ -1.222326e-001f, 2.665114e-001f }, { 7.097824e-002f, 2.842957e-001f }, { -2.924601e-001f, 1.902054e-002f }, { 1.033144e-001f, -2.742128e-001f },
		{ -1.221025e-001f, 2.659455e-001f }, { 6.690629e-002f, 2.848116e-001f }, { -2.922049e-001f, 1.475650e-002f }, { 1.062170e-001f, -2.726012e-001f },
		{ -1.033738e-001f, 2.726628e-001f }, { 5.407758e-002f, 2.865123e-001f }, { -2.915652e-001f, -1.122932e-004f }, { 1.118737e-001f, -2.692538e-001f },
		{ -1.039245e-001f, 2.721373e-001f }, { 5.034073e-002f, 2.868591e-001f }, { -2.911910e-001f, -4.140033e-003f }, { 1.147536e-001f, -2.676709e-001f },
		{ -7.876952e-002f, 2.795024e-001f }, { 3.662964e-002f, 2.880462e-001f }, { -2.894426e-001f, -2.293511e-002f }, { 1.224649e-001f, -2.632735e-001f },
		{ -7.753028e-002f, 2.795117e-001f }, { 3.237734e-002f, 2.882391e-001f }, { -2.886937e-001f, -2.805049e-002f }, { 1.257900e-001f, -2.613505e-001f },
		{ -5.160611e-002f, 2.849075e-001f }, { 2.049485e-002f, 2.888149e-001f }, { -2.856804e-001f, -4.712567e-002f }, { 1.350059e-001f, -2.561342e-001f },
		{ -5.439288e-002f, 2.841465e-001f }, { 1.759355e-002f, 2.887644e-001f }, { -2.849596e-001f, -4.993928e-002f }, { 1.374484e-001f, -2.545679e-001f },
		{ -1.431573e-002f, 2.890936e-001f }, { 6.530213e-003f, 2.893431e-001f }, { -2.790637e-001f, -7.668653e-002f }, { 1.540330e-001f, -2.449273e-001f },
		{ -1.653807e-002f, 2.884539e-001f }, { 3.515646e-003f, 2.889311e-001f }, { -2.777448e-001f, -7.966054e-002f }, { 1.564877e-001f, -2.428641e-001f },
		{ 1.022629e-002f, 2.890962e-001f }, { -4.107030e-003f, 2.892090e-001f }, { -2.726559e-001f, -9.652495e-002f }, { 1.707234e-001f, -2.334490e-001f },
		{ 3.162037e-002f, 2.882044e-001f }, { -8.228175e-003f, 2.896558e-001f }, { -2.681460e-001f, -1.098366e-001f }, { 1.853669e-001f, -2.225189e-001f },
		{ 3.616638e-002f, 2.873988e-001f }, { -1.209659e-002f, 2.890878e-001f }, { -2.654680e-001f, -1.151340e-001f }, { 1.907552e-001f, -2.173521e-001f },
		{ 4.309714e-002f, 2.862041e-001f }, { -1.678466e-002f, 2.886168e-001f }, { -2.625135e-001f, -1.211624e-001f }, { 1.969166e-001f, -2.114409e-001f },
		{ 6.665335e-002f, 2.821291e-001f }, { -2.328359e-002f, 2.888218e-001f }, { -2.576786e-001f, -1.325476e-001f }, { 2.118137e-001f, -1.976090e-001f },
		{ 7.090154e-002f, 2.808436e-001f }, { -2.757577e-002f, 2.879821e-001f }, { -2.548403e-001f, -1.370376e-001f }, { 2.164427e-001f, -1.917878e-001f },
		{ 7.732730e-002f, 2.788867e-001f }, { -3.282913e-002f, 2.871611e-001f }, { -2.517460e-001f, -1.421121e-001f }, { 2.216692e-001f, -1.853077e-001f },
		{ 8.478491e-002f, 2.765188e-001f }, { -3.865714e-002f, 2.861877e-001f }, { -2.484902e-001f, -1.473305e-001f }, { 2.270613e-001f, -1.784308e-001f },
		{ 9.271883e-002f, 2.737895e-001f }, { -4.493773e-002f, 2.851020e-001f }, { -2.451530e-001f, -1.525218e-001f }, { 2.323272e-001f, -1.712865e-001f },
		{ 1.007678e-001f, 2.707804e-001f }, { -5.158972e-002f, 2.838324e-001f }, { -2.417786e-001f, -1.575769e-001f }, { 2.373407e-001f, -1.640801e-001f },
		{ 1.081581e-001f, 2.675995e-001f }, { -5.845574e-002f, 2.824846e-001f }, { -2.384737e-001f, -1.623772e-001f }, { 2.418365e-001f, -1.572739e-001f },
		{ 1.082950e-001f, 2.673177e-001f }, { -6.257954e-002f, 2.815460e-001f }, { -2.362500e-001f, -1.654026e-001f }, { 2.440242e-001f, -1.536509e-001f },
		{ 1.090034e-001f, 2.670845e-001f }, { -6.705561e-002f, 2.805827e-001f }, { -2.340309e-001f, -1.686329e-001f }, { 2.463334e-001f, -1.500276e-001f },
		{ 1.093119e-001f, 2.672190e-001f }, { -7.143282e-002f, 2.797804e-001f }, { -2.319971e-001f, -1.718537e-001f }, { 2.485965e-001f, -1.467136e-001f },
		{ 1.315545e-001f, 2.567625e-001f }, { -8.745468e-002f, 2.749238e-001f }, { -2.255160e-001f, -1.799279e-001f }, { 2.544757e-001f, -1.359166e-001f },
		{ 1.291371e-001f, 2.584209e-001f }, { -9.034971e-002f, 2.744016e-001f }, { -2.239942e-001f, -1.824430e-001f }, { 2.561832e-001f, -1.335242e-001f },
		{ 1.268196e-001f, 2.603368e-001f }, { -9.334582e-002f, 2.741225e-001f }, { -2.226642e-001f, -1.851417e-001f }, { 2.581354e-001f, -1.312353e-001f },
		{ 1.454090e-001f, 2.503003e-001f }, { -1.093559e-001f, 2.680144e-001f }, { -2.160336e-001f, -1.926377e-001f }, { 2.616566e-001f, -1.237724e-001f },
		{ 1.433551e-001f, 2.524694e-001f }, { -1.124330e-001f, 2.676744e-001f }, { -2.147110e-001f, -1.954208e-001f }, { 2.636949e-001f, -1.214718e-001f },
		{ 1.594376e-001f, 2.427481e-001f }, { -1.267766e-001f, 2.612940e-001f }, { -2.081030e-001f, -2.025831e-001f }, { 2.667870e-001f, -1.147676e-001f },
		{ 1.575740e-001f, 2.452691e-001f }, { -1.298972e-001f, 2.609850e-001f }, { -2.068279e-001f, -2.054479e-001f }, { 2.689454e-001f, -1.124935e-001f },
		{ 1.857960e-001f, 2.258673e-001f }, { -1.623819e-001f, 2.432459e-001f }, { -1.964890e-001f, -2.166321e-001f }, { 2.687342e-001f, -1.154058e-001f },
		{ 1.842874e-001f, 2.286016e-001f }, { -1.654378e-001f, 2.425915e-001f }, { -1.951086e-001f, -2.194336e-001f }, { 2.709382e-001f, -1.131913e-001f },
		{ 1.829298e-001f, 2.315733e-001f }, { -1.686785e-001f, 2.421516e-001f }, { -1.938956e-001f, -2.224717e-001f }, { 2.734155e-001f, -1.110561e-001f },
		{ 1.943755e-001f, 2.227029e-001f }, { -1.772114e-001f, 2.366027e-001f }, { -1.863517e-001f, -2.294603e-001f }, { 2.767285e-001f, -1.039262e-001f },
		{ 2.252150e-001f, 1.894586e-001f }, { -1.908180e-001f, 2.240642e-001f }, { -1.662547e-001f, -2.428504e-001f }, { 2.822004e-001f, -8.354223e-002f },
		{ 2.242445e-001f, 1.923956e-001f }, { -1.937511e-001f, 2.230757e-001f }, { -1.645307e-001f, -2.454191e-001f }, { 2.841166e-001f, -8.111299e-002f },
		{ 2.234834e-001f, 1.955242e-001f }, { -1.968889e-001f, 2.222800e-001f }, { -1.629475e-001f, -2.482500e-001f }, { 2.863140e-001f, -7.873718e-002f },
		{ 2.512470e-001f, 1.565978e-001f }, { -2.107439e-001f, 2.079308e-001f }, { -1.391869e-001f, -2.612849e-001f }, { 2.900373e-001f, -5.937306e-002f },
		{ 2.506934e-001f, 1.595923e-001f }, { -2.135440e-001f, 2.066889e-001f }, { -1.372003e-001f, -2.636221e-001f }, { 2.917036e-001f, -5.680519e-002f },
		{ 2.710637e-001f, 1.214114e-001f }, { -2.241631e-001f, 1.948591e-001f }, { -1.133487e-001f, -2.745297e-001f }, { 2.946676e-001f, -3.723720e-002f },
		{ 2.706863e-001f, 1.243352e-001f }, { -2.266595e-001f, 1.932711e-001f }, { -1.110499e-001f, -2.764006e-001f }, { 2.958673e-001f, -3.452903e-002f },
		{ 2.840145e-001f, 9.046598e-002f }, { -2.346569e-001f, 1.837947e-001f }, { -8.983055e-002f, -2.842108e-001f }, { 2.976725e-001f, -1.542852e-002f },
		{ 2.838212e-001f, 9.336978e-002f }, { -2.369537e-001f, 1.820017e-001f }, { -8.734437e-002f, -2.857292e-001f }, { 2.985153e-001f, -1.264033e-002f },
		{ 2.929966e-001f, 6.011400e-002f }, { -2.438653e-001f, 1.731598e-001f }, { -6.727700e-002f, -2.914168e-001f }, { 2.989991e-001f, 7.474647e-003f },
		{ 2.929944e-001f, 6.297747e-002f }, { -2.459793e-001f, 1.711876e-001f }, { -6.464295e-002f, -2.926205e-001f }, { 2.995028e-001f, 1.032537e-002f },
		{ 2.993305e-001f, 1.989658e-002f }, { -2.524813e-001f, 1.620159e-001f }, { -4.053378e-002f, -2.972362e-001f }, { 2.976444e-001f, 3.741982e-002f },
		{ 2.994001e-001f, 2.275860e-002f }, { -2.542391e-001f, 1.597448e-001f }, { -3.773251e-002f, -2.978797e-001f }, { 2.975467e-001f, 4.029308e-002f },
		{ 2.997556e-001f, 2.560933e-002f }, { -2.562249e-001f, 1.576646e-001f }, { -3.500846e-002f, -2.988009e-001f }, { 2.977327e-001f, 4.316240e-002f },
		{ 3.010522e-001f, -1.326351e-002f }, { -2.632052e-001f, 1.467347e-001f }, { -1.560533e-002f, -3.009003e-001f }, { 2.934970e-001f, 6.823208e-002f },
		{ 3.014356e-001f, -1.204778e-002f }, { -2.649211e-001f, 1.443096e-001f }, { -1.205464e-002f, -3.013579e-001f }, { 2.929005e-001f, 7.210110e-002f },
		{ 2.994265e-001f, -3.426208e-002f }, { -2.665184e-001f, 1.406106e-001f }, { 1.794494e-003f, -3.012740e-001f }, { 2.869989e-001f, 9.165753e-002f },
		{ 2.998420e-001f, -3.360623e-002f }, { -2.682503e-001f, 1.380461e-001f }, { 5.510799e-003f, -3.016119e-001f }, { 2.860279e-001f, 9.580517e-002f },
		{ 2.964915e-001f, -5.606390e-002f }, { -2.696771e-001f, 1.343958e-001f }, { 1.856556e-002f, -3.001179e-001f }, { 2.776973e-001f, 1.159452e-001f },
		{ 2.959045e-001f, -6.259362e-002f }, { -2.712712e-001f, 1.314839e-001f }, { 2.497765e-002f, -2.990272e-001f }, { 2.737353e-001f, 1.249026e-001f },
		{ 2.959401e-001f, -7.050135e-002f }, { -2.720178e-001f, 1.298122e-001f }, { 3.146126e-002f, -2.961418e-001f }, { 2.676799e-001f, 1.356729e-001f },
		{ 2.967133e-001f, -7.470062e-002f }, { -2.734522e-001f, 1.274110e-001f }, { 3.639698e-002f, -2.943474e-001f }, { 2.636116e-001f, 1.427740e-001f },
		{ 2.970903e-001f, -8.040868e-002f }, { -2.740578e-001f, 1.257245e-001f }, { 4.184628e-002f, -2.923085e-001f }, { 2.579120e-001f, 1.513402e-001f },
		{ 2.973203e-001f, -8.566107e-002f }, { -2.753668e-001f, 1.235499e-001f }, { 4.722641e-002f, -2.902128e-001f }, { 2.533628e-001f, 1.590289e-001f },
		{ 2.968285e-001f, -9.079758e-002f }, { -2.763038e-001f, 1.218072e-001f }, { 5.270554e-002f, -2.886703e-001f }, { 2.482954e-001f, 1.670504e-001f },
		{ 2.958212e-001f, -9.619797e-002f }, { -2.765286e-001f, 1.208140e-001f }, { 5.863929e-002f, -2.870823e-001f }, { 2.423166e-001f, 1.757436e-001f },
		{ 2.940707e-001f, -1.019605e-001f }, { -2.770337e-001f, 1.198848e-001f }, { 6.486305e-002f, -2.858087e-001f }, { 2.357959e-001f, 1.843261e-001f },
		{ 2.916547e-001f, -1.080919e-001f }, { -2.774412e-001f, 1.188338e-001f }, { 7.157311e-002f, -2.844795e-001f }, { 2.290136e-001f, 1.932225e-001f },
		{ 2.883171e-001f, -1.147516e-001f }, { -2.775335e-001f, 1.180995e-001f }, { 7.891721e-002f, -2.830489e-001f }, { 2.212303e-001f, 2.025866e-001f },
		{ 2.840505e-001f, -1.220315e-001f }, { -2.775832e-001f, 1.174868e-001f }, { 8.685442e-002f, -2.815782e-001f }, { 2.123616e-001f, 2.119777e-001f },
		{ 2.789783e-001f, -1.297846e-001f }, { -2.778767e-001f, 1.164645e-001f }, { 9.515931e-002f, -2.799989e-001f }, { 2.029442e-001f, 2.212020e-001f },
		{ 2.729669e-001f, -1.379276e-001f }, { -2.781209e-001f, 1.156147e-001f }, { 1.037274e-001f, -2.782167e-001f }, { 1.922058e-001f, 2.303880e-001f },
		{ 2.649815e-001f, -1.475955e-001f }, { -2.780777e-001f, 1.138808e-001f }, { 1.132316e-001f, -2.759401e-001f }, { 1.799460e-001f, 2.403923e-001f },
		{ 2.581790e-001f, -1.560211e-001f }, { -2.779805e-001f, 1.136685e-001f }, { 1.226479e-001f, -2.726919e-001f }, { 1.678257e-001f, 2.485684e-001f },
		{ 2.524584e-001f, -1.630552e-001f }, { -2.785107e-001f, 1.120779e-001f }, { 1.306951e-001f, -2.700490e-001f }, { 1.571939e-001f, 2.557877e-001f },
		{ 2.462399e-001f, -1.715478e-001f }, { -2.789994e-001f, 1.104826e-001f }, { 1.385904e-001f, -2.660938e-001f }, { 1.450135e-001f, 2.626826e-001f },
		{ 2.337359e-001f, -1.861724e-001f }, { -2.778515e-001f, 1.096942e-001f }, { 1.494131e-001f, -2.585078e-001f }, { 1.253043e-001f, 2.711143e-001f },
		{ 2.268597e-001f, -1.944586e-001f }, { -2.781408e-001f, 1.080404e-001f }, { 1.570289e-001f, -2.536627e-001f }, { 1.123713e-001f, 2.765053e-001f },
		{ 2.079576e-001f, -2.117547e-001f }, { -2.765880e-001f, 1.073294e-001f }, { 1.694374e-001f, -2.434837e-001f }, { 8.711800e-002f, 2.836197e-001f },
		{ 1.913689e-001f, -2.254843e-001f }, { -2.756964e-001f, 1.066435e-001f }, { 1.802312e-001f, -2.340913e-001f }, { 6.491684e-002f, 2.883270e-001f },
		{ 1.817541e-001f, -2.330399e-001f }, { -2.761964e-001f, 1.047358e-001f }, { 1.876342e-001f, -2.279001e-001f }, { 5.055880e-002f, 2.909639e-001f },
		{ 1.610155e-001f, -2.466325e-001f }, { -2.758221e-001f, 1.030023e-001f }, { 1.984772e-001f, -2.173775e-001f }, { 2.631461e-002f, 2.932729e-001f },
		{ 1.411013e-001f, -2.589688e-001f }, { -2.753436e-001f, 1.023238e-001f }, { 2.087779e-001f, -2.054647e-001f }, { 3.250981e-003f, 2.936766e-001f },
		{ 1.253818e-001f, -2.687327e-001f }, { -2.754849e-001f, 1.004562e-001f }, { 2.160573e-001f, -1.949570e-001f }, { -1.573931e-002f, 2.929064e-001f },
		{ 1.107846e-001f, -2.782908e-001f }, { -2.752717e-001f, 9.811398e-002f }, { 2.216743e-001f, -1.841441e-001f }, { -3.391012e-002f, 2.912765e-001f },
		{ 9.753639e-002f, -2.871436e-001f }, { -2.750787e-001f, 9.572164e-002f }, { 2.259005e-001f, -1.736521e-001f }, { -5.079273e-002f, 2.884525e-001f },
		{ 8.544732e-002f, -2.943054e-001f }, { -2.749015e-001f, 9.284460e-002f }, { 2.287797e-001f, -1.646308e-001f }, { -6.674595e-002f, 2.853133e-001f },
		{ 7.389367e-002f, -3.009848e-001f }, { -2.748358e-001f, 8.943920e-002f }, { 2.312162e-001f, -1.561295e-001f }, { -8.129340e-002f, 2.813375e-001f },
		{ 6.303813e-002f, -3.064632e-001f }, { -2.748730e-001f, 8.627517e-002f }, { 2.329072e-001f, -1.482946e-001f }, { -9.523614e-002f, 2.769717e-001f },
		{ 5.279075e-002f, -3.114077e-001f }, { -2.746541e-001f, 8.320135e-002f }, { 2.341830e-001f, -1.411486e-001f }, { -1.085997e-001f, 2.718648e-001f },
		{ 4.320165e-002f, -3.152112e-001f }, { -2.746467e-001f, 8.007252e-002f }, { 2.355040e-001f, -1.349005e-001f }, { -1.207851e-001f, 2.664020e-001f },
		{ 3.410566e-002f, -3.182481e-001f }, { -2.748007e-001f, 7.728974e-002f }, { 2.364002e-001f, -1.292160e-001f }, { -1.326192e-001f, 2.604377e-001f },
		{ 2.550310e-002f, -3.203039e-001f }, { -2.751613e-001f, 7.496204e-002f }, { 2.372432e-001f, -1.242732e-001f }, { -1.440764e-001f, 2.538701e-001f },
		{ 1.732509e-002f, -3.215303e-001f }, { -2.755955e-001f, 7.303329e-002f }, { 2.381726e-001f, -1.201255e-001f }, { -1.552873e-001f, 2.465770e-001f },
		{ 9.352972e-003f, -3.222804e-001f }, { -2.762319e-001f, 7.121935e-002f }, { 2.391014e-001f, -1.162443e-001f }, { -1.660188e-001f, 2.388591e-001f },
		{ 1.634023e-003f, -3.219681e-001f }, { -2.770245e-001f, 7.003595e-002f }, { 2.404144e-001f, -1.130425e-001f }, { -1.767635e-001f, 2.302608e-001f },
		{ -6.117420e-003f, -3.216149e-001f }, { -2.780000e-001f, 6.869997e-002f }, { 2.415345e-001f, -1.097636e-001f }, { -1.870331e-001f, 2.213095e-001f },
		{ -1.388734e-002f, -3.207879e-001f }, { -2.791209e-001f, 6.755122e-002f }, { 2.427476e-001f, -1.066795e-001f }, { -1.971266e-001f, 2.116817e-001f },
		{ -2.175828e-002f, -3.193442e-001f }, { -2.804287e-001f, 6.671964e-002f }, { 2.442558e-001f, -1.038396e-001f }, { -2.070435e-001f, 2.010783e-001f },
		{ -2.982131e-002f, -3.174619e-001f }, { -2.816561e-001f, 6.588547e-002f }, { 2.457755e-001f, -1.009311e-001f }, { -2.170090e-001f, 1.899817e-001f },
		{ -3.821600e-002f, -3.148990e-001f }, { -2.830535e-001f, 6.533647e-002f }, { 2.478075e-001f, -9.794402e-002f }, { -2.266090e-001f, 1.777967e-001f },
		{ -4.697070e-002f, -3.121411e-001f }, { -2.842911e-001f, 6.462570e-002f }, { 2.497480e-001f, -9.472666e-002f }, { -2.360225e-001f, 1.649968e-001f },
		{ -5.613546e-002f, -3.091976e-001f }, { -2.856099e-001f, 6.381519e-002f }, { 2.515582e-001f, -9.126889e-002f }, { -2.449260e-001f, 1.513959e-001f },
		{ -6.583410e-002f, -3.053549e-001f }, { -2.867350e-001f, 6.314507e-002f }, { 2.540757e-001f, -8.732872e-002f }, { -2.534298e-001f, 1.368683e-001f },
		{ -7.596256e-002f, -3.017362e-001f }, { -2.879382e-001f, 6.213976e-002f }, { 2.558679e-001f, -8.302830e-002f }, { -2.611777e-001f, 1.218545e-001f },
		{ -8.657513e-002f, -2.974773e-001f }, { -2.891402e-001f, 6.111810e-002f }, { 2.578464e-001f, -7.813581e-002f }, { -2.681648e-001f, 1.061960e-001f },
		{ -9.766626e-002f, -2.925949e-001f }, { -2.899543e-001f, 5.998041e-002f }, { 2.601669e-001f, -7.236330e-002f }, { -2.743917e-001f, 9.026801e-002f },
		{ -1.090903e-001f, -2.873388e-001f }, { -2.907608e-001f, 5.870596e-002f }, { 2.622483e-001f, -6.586575e-002f }, { -2.796468e-001f, 7.417398e-002f },
		{ -1.208230e-001f, -2.815936e-001f }, { -2.913631e-001f, 5.735260e-002f }, { 2.642642e-001f, -5.851731e-002f }, { -2.839541e-001f, 5.802773e-002f },
		{ -1.326492e-001f, -2.752099e-001f }, { -2.918654e-001f, 5.577375e-002f }, { 2.662397e-001f, -5.022398e-002f }, { -2.872945e-001f, 4.229978e-002f },
		{ -1.443558e-001f, -2.683818e-001f }, { -2.922768e-001f, 5.401542e-002f }, { 2.679152e-001f, -4.122310e-002f }, { -2.897731e-001f, 2.705547e-002f },
		{ -1.559189e-001f, -2.609336e-001f }, { -2.924603e-001f, 5.213778e-002f }, { 2.695531e-001f, -3.129109e-002f }, { -2.914288e-001f, 1.240623e-002f },
		{ -1.672268e-001f, -2.533700e-001f }, { -2.927854e-001f, 5.010051e-002f }, { 2.705519e-001f, -2.107826e-002f }, { -2.920948e-001f, -1.761736e-003f },
		{ -1.781118e-001f, -2.451541e-001f }, { -2.928440e-001f, 4.785423e-002f }, { 2.713778e-001f, -1.020823e-002f }, { -2.923729e-001f, -1.520868e-002f },
		{ -1.885283e-001f, -2.365797e-001f }, { -2.928324e-001f, 4.540525e-002f }, { 2.719284e-001f, 1.118816e-003f }, { -2.919818e-001f, -2.788945e-002f },
		{ -1.983261e-001f, -2.276103e-001f }, { -2.926345e-001f, 4.270420e-002f }, { 2.723378e-001f, 1.275236e-002f }, { -2.911386e-001f, -3.983713e-002f },
		{ -2.073881e-001f, -2.182089e-001f }, { -2.923856e-001f, 3.967451e-002f }, { 2.729677e-001f, 2.459855e-002f }, { -2.895612e-001f, -5.102414e-002f },
		{ -2.157762e-001f, -2.086545e-001f }, { -2.921425e-001f, 3.636712e-002f }, { 2.733036e-001f, 3.638462e-002f }, { -2.875463e-001f, -6.160251e-002f },
		{ -2.234854e-001f, -1.990482e-001f }, { -2.919094e-001f, 3.279525e-002f }, { 2.732729e-001f, 4.793523e-002f }, { -2.852081e-001f, -7.168369e-002f },
		{ -2.303399e-001f, -1.891703e-001f }, { -2.917638e-001f, 2.878502e-002f }, { 2.735747e-001f, 5.920086e-002f }, { -2.822007e-001f, -8.126053e-002f },
		{ -2.362736e-001f, -1.789661e-001f }, { -2.914897e-001f, 2.428095e-002f }, { 2.742946e-001f, 7.015077e-002f }, { -2.788318e-001f, -9.049634e-002f },
		{ -2.414086e-001f, -1.690564e-001f }, { -2.911449e-001f, 1.952452e-002f }, { 2.747806e-001f, 8.014599e-002f }, { -2.753034e-001f, -9.977807e-002f },
		{ -2.456585e-001f, -1.599120e-001f }, { -2.912618e-001f, 1.478110e-002f }, { 2.748364e-001f, 8.935692e-002f }, { -2.713644e-001f, -1.085147e-001f },
		{ -2.485299e-001f, -1.532883e-001f }, { -2.915345e-001f, 1.022648e-002f }, { 2.746008e-001f, 9.689397e-002f }, { -2.676868e-001f, -1.159231e-001f },
		{ -2.493194e-001f, -1.520899e-001f }, { -2.919297e-001f, 6.606629e-003f }, { 2.736725e-001f, 1.015772e-001f }, { -2.657656e-001f, -1.209209e-001f },
		{ -2.487253e-001f, -1.542108e-001f }, { -2.926211e-001f, 3.548392e-003f }, { 2.731836e-001f, 1.048997e-001f }, { -2.649392e-001f, -1.243045e-001f },
		{ -2.430396e-001f, -1.513137e-001f }, { -2.862631e-001f, 2.289571e-004f }, { 2.658111e-001f, 1.061825e-001f }, { -2.573534e-001f, -1.254560e-001f },
		{ -2.344279e-001f, -1.234455e-001f }, { -2.648690e-001f, -6.197201e-003f }, { 2.417684e-001f, 1.083300e-001f }, { -2.311521e-001f, -1.294454e-001f },
		{ -2.054311e-001f, -1.107228e-001f }, { -2.332340e-001f, -7.848840e-003f }, { 2.119657e-001f, 9.761556e-002f }, { -2.024172e-001f, -1.161416e-001f },
		{ -1.763579e-001f, -7.534504e-002f }, { -1.913497e-001f, -1.274826e-002f }, { 1.706323e-001f, 8.752158e-002f }, { -1.595315e-001f, -1.064321e-001f },
		{ -1.346273e-001f, -5.913094e-002f }, { -1.466085e-001f, -1.126194e-002f }, { 1.301445e-001f, 6.843054e-002f }, { -1.214809e-001f, -8.284115e-002f },
		{ -9.541175e-002f, -3.458668e-002f }, { -1.009218e-001f, -1.071810e-002f }, { 8.827672e-002f, 4.990018e-002f }, { -8.042023e-002f, -6.165233e-002f },
		{ -5.772991e-002f, -1.824896e-002f }, { -6.004491e-002f, -7.847593e-003f }, { 5.201691e-002f, 3.091379e-002f }, { -4.638547e-002f, -3.877544e-002f },
		{ -2.701589e-002f, -7.588166e-003f }, { -2.773959e-002f, -4.237120e-003f }, { 2.384709e-002f, 1.479026e-002f }, { -2.084051e-002f, -1.879137e-002f },
		{ -6.933768e-003f, -2.023712e-003f }, { -7.128777e-003f, -1.163148e-003f }, { 6.099251e-003f, 3.869213e-003f }, { -5.314863e-003f, -4.891146e-003f },
		{ 0.000000e+000f, 0.000000e+000f }, { 0.000000e+000f, 0.000000e+000f }, { 0.000000e+000f, 0.000000e+000f }, { 0.000000e+000f, 0.000000e+000f },
		{ 0.000000e+000f, 0.000000e+000f }, { 0.000000e+000f, 0.000000e+000f }, { 0.000000e+000f, 0.000000e+000f }, { 0.000000e+000f, 0.000000e+000f },
		{ 0.000000e+000f, 0.000000e+000f }, { 0.000000e+000f, 0.000000e+000f }, { 0.000000e+000f, 0.000000e+000f }, { 0.000000e+000f, 0.000000e+000f },
		{ 0.000000e+000f, 0.000000e+000f }, { 0.000000e+000f, 0.000000e+000f }, { 0.000000e+000f, 0.000000e+000f }, { 0.000000e+000f, 0.000000e+000f },
		{ 0.000000e+000f, 0.000000e+000f }, { 0.000000e+000f, 0.000000e+000f }, { 0.000000e+000f, 0.000000e+000f }, { 0.000000e+000f, 0.000000e+000f },
		{ 0.000000e+000f, 0.000000e+000f }, { 0.000000e+000f, 0.000000e+000f }, { 0.000000e+000f, 0.000000e+000f }, { 0.000000e+000f, 0.000000e+000f },
		{ 0.000000e+000f, 0.000000e+000f }, { 0.000000e+000f, 0.000000e+000f }, { 0.000000e+000f, 0.000000e+000f }, { 0.000000e+000f, 0.000000e+000f },
		{ 0.000000e+000f, 0.000000e+000f }, { 0.000000e+000f, 0.000000e+000f }, { 0.000000e+000f, 0.000000e+000f }, { 0.000000e+000f, 0.000000e+000f },
		{ 0.000000e+000f, 0.000000e+000f }, { 0.000000e+000f, 0.000000e+000f }, { 0.000000e+000f, 0.000000e+000f }, { 0.000000e+000f, 0.000000e+000f },
		{ 0.000000e+000f, 0.000000e+000f }, { 0.000000e+000f, 0.000000e+000f }, { 0.000000e+000f, 0.000000e+000f }, { 0.000000e+000f, 0.000000e+000f },
		{ 0.000000e+000f, 0.000000e+000f }, { 0.000000e+000f, 0.000000e+000f }, { 0.000000e+000f, 0.000000e+000f }, { 0.000000e+000f, 0.000000e+000f },
		{ 0.000000e+000f, 0.000000e+000f }, { 0.000000e+000f, 0.000000e+000f }, { 0.000000e+000f, 0.000000e+000f }, { 0.000000e+000f, 0.000000e+000f },
		{ 0.000000e+000f, 0.000000e+000f }, { 0.000000e+000f, 0.000000e+000f }, { 0.000000e+000f, 0.000000e+000f }, { 0.000000e+000f, 0.000000e+000f },
		{ 0.000000e+000f, 0.000000e+000f }, { 0.000000e+000f, 0.000000e+000f }, { 0.000000e+000f, 0.000000e+000f }, { 0.000000e+000f, 0.000000e+000f },
		{ 0.000000e+000f, 0.000000e+000f }, { 0.000000e+000f, 0.000000e+000f }, { 0.000000e+000f, 0.000000e+000f }, { 0.000000e+000f, 0.000000e+000f },
		{ 0.000000e+000f, 0.000000e+000f }, { 0.000000e+000f, 0.000000e+000f }, { 0.000000e+000f, 0.000000e+000f }, { 0.000000e+000f, 0.000000e+000f },
		{ 0.000000e+000f, 0.000000e+000f }, { 0.000000e+000f, 0.000000e+000f }, { 0.000000e+000f, 0.000000e+000f }, { 0.000000e+000f, 0.000000e+000f },

		{ 0.000000e+000f, 0.000000e+000f }, { 0.000000e+000f, 0.000000e+000f }, { 0.000000e+000f, 0.000000e+000f }, { 0.000000e+000f, 0.000000e+000f },
		{ 0.000000e+000f, 0.000000e+000f }, { 0.000000e+000f, 0.000000e+000f }, { 0.000000e+000f, 0.000000e+000f }, { 0.000000e+000f, 0.000000e+000f },
		{ 0.000000e+000f, 0.000000e+000f }, { 0.000000e+000f, 0.000000e+000f }, { 0.000000e+000f, 0.000000e+000f }, { 0.000000e+000f, 0.000000e+000f },
		{ 0.000000e+000f, 0.000000e+000f }, { 0.000000e+000f, 0.000000e+000f }, { 0.000000e+000f, 0.000000e+000f }, { 0.000000e+000f, 0.000000e+000f },
		{ 0.000000e+000f, 0.000000e+000f }, { 0.000000e+000f, 0.000000e+000f }, { 0.000000e+000f, 0.000000e+000f }, { 0.000000e+000f, 0.000000e+000f },
		{ 0.000000e+000f, 0.000000e+000f }, { 0.000000e+000f, 0.000000e+000f }, { 0.000000e+000f, 0.000000e+000f }, { 0.000000e+000f, 0.000000e+000f },
		{ -2.723051e-003f, -5.549114e-002f }, { 4.143527e-002f, -3.701071e-002f }, { 3.511005e-002f, 4.305768e-002f }, { -3.643801e-002f, 4.193993e-002f },
		{ -6.888175e-003f, -1.927864e-001f }, { 1.455713e-001f, -1.265824e-001f }, { 1.199082e-001f, 1.511158e-001f }, { -1.284485e-001f, 1.439266e-001f },
		{ 1.992262e-002f, -3.204542e-001f }, { 2.450484e-001f, -2.074584e-001f }, { 2.203109e-001f, 2.335618e-001f }, { -2.075958e-001f, 2.449324e-001f },
		{ 3.553758e-002f, -4.729810e-001f }, { 3.659294e-001f, -3.017772e-001f }, { 3.209811e-001f, 3.492065e-001f }, { -3.113202e-001f, 3.578457e-001f },
		{ 5.146577e-002f, -5.933221e-001f }, { 4.638001e-001f, -3.735894e-001f }, { 3.979421e-001f, 4.430818e-001f }, { -3.960489e-001f, 4.447747e-001f },
		{ 1.065260e-001f, -6.027849e-001f }, { 4.783893e-001f, -3.818888e-001f }, { 4.373202e-001f, 4.283083e-001f }, { -3.989554e-001f, 4.642525e-001f },
		{ 1.130445e-001f, -6.065992e-001f }, { 4.858045e-001f, -3.804455e-001f }, { 4.367897e-001f, 4.358408e-001f }, { -4.065071e-001f, 4.642129e-001f },
		{ 1.379960e-001f, -5.252172e-001f }, { 4.314866e-001f, -3.297225e-001f }, { 4.150249e-001f, 3.502174e-001f }, { -3.268288e-001f, 4.336766e-001f },
		{ 1.379208e-001f, -5.068392e-001f }, { 4.201357e-001f, -3.152674e-001f }, { 3.984629e-001f, 3.422485e-001f }, { -3.197883e-001f, 4.167068e-001f },
		{ 1.376158e-001f, -4.902290e-001f }, { 4.096933e-001f, -3.023489e-001f }, { 3.835979e-001f, 3.348381e-001f }, { -3.132041e-001f, 4.014512e-001f },
		{ 1.964803e-001f, -3.786735e-001f }, { 3.413517e-001f, -2.558843e-001f }, { 3.683368e-001f, 2.152334e-001f }, { -1.977563e-001f, 3.780084e-001f },
		{ 1.955341e-001f, -3.692227e-001f }, { 3.363972e-001f, -2.477808e-001f }, { 3.589455e-001f, 2.138146e-001f }, { -1.967782e-001f, 3.685605e-001f },
		{ 1.946148e-001f, -3.605533e-001f }, { 3.318066e-001f, -2.403696e-001f }, { 3.503331e-001f, 2.124614e-001f }, { -1.958298e-001f, 3.598943e-001f },
		{ 1.937435e-001f, -3.525686e-001f }, { 3.275558e-001f, -2.335555e-001f }, { 3.424022e-001f, 2.111904e-001f }, { -1.949316e-001f, 3.519124e-001f },
		{ 1.929364e-001f, -3.451899e-001f }, { 3.236247e-001f, -2.272594e-001f }, { 3.350739e-001f, 2.100134e-001f }, { -1.940994e-001f, 3.445367e-001f },
		{ 1.922063e-001f, -3.383516e-001f }, { 3.199994e-001f, -2.214160e-001f }, { 3.282810e-001f, 2.089409e-001f }, { -1.933460e-001f, 3.377009e-001f },
		{ 2.042984e-001f, -3.206060e-001f }, { 3.097521e-001f, -2.204008e-001f }, { 3.249273e-001f, 1.973532e-001f }, { -1.839791e-001f, 3.326802e-001f },
		{ 2.036957e-001f, -3.150374e-001f }, { 3.071036e-001f, -2.154698e-001f }, { 3.193476e-001f, 1.968680e-001f }, { -1.837219e-001f, 3.270864e-001f },
		{ 2.032111e-001f, -3.098475e-001f }, { 3.047049e-001f, -2.108446e-001f }, { 3.141503e-001f, 1.964934e-001f }, { -1.835602e-001f, 3.218796e-001f },
		{ 2.028506e-001f, -3.050046e-001f }, { 3.025513e-001f, -2.064918e-001f }, { 3.093008e-001f, 1.962367e-001f }, { -1.835007e-001f, 3.170230e-001f },
		{ 2.026182e-001f, -3.004795e-001f }, { 3.006360e-001f, -2.023854e-001f }, { 3.047718e-001f, 1.961016e-001f }, { -1.835498e-001f, 3.124918e-001f },
		{ 2.279010e-001f, -2.842913e-001f }, { 2.928522e-001f, -2.167795e-001f }, { 3.154919e-001f, 1.822793e-001f }, { -1.908744e-001f, 3.103451e-001f },
		{ 2.278039e-001f, -2.806623e-001f }, { 2.918316e-001f, -2.133076e-001f }, { 3.118977e-001f, 1.827180e-001f }, { -1.912248e-001f, 3.067545e-001f },
		{ 2.278740e-001f, -2.772671e-001f }, { 2.910331e-001f, -2.100070e-001f }, { 3.085517e-001f, 1.833000e-001f }, { -1.917155e-001f, 3.033949e-001f },
		{ 2.281150e-001f, -2.740820e-001f }, { 2.904538e-001f, -2.068666e-001f }, { 3.054404e-001f, 1.840199e-001f }, { -1.923498e-001f, 3.002639e-001f },
		{ 2.285286e-001f, -2.710931e-001f }, { 2.900915e-001f, -2.038712e-001f }, { 3.025484e-001f, 1.848807e-001f }, { -1.931311e-001f, 2.973495e-001f },
		{ 2.305061e-001f, -2.680867e-001f }, { 2.899343e-001f, -2.023380e-001f }, { 3.011595e-001f, 1.852148e-001f }, { -1.955587e-001f, 2.945517e-001f },
		{ 2.312675e-001f, -2.654596e-001f }, { 2.900179e-001f, -1.996052e-001f }, { 2.986880e-001f, 1.863814e-001f }, { -1.966379e-001f, 2.920370e-001f },
		{ 2.322110e-001f, -2.629911e-001f }, { 2.903177e-001f, -1.969814e-001f }, { 2.964006e-001f, 1.877020e-001f }, { -1.978814e-001f, 2.897061e-001f },
		{ 2.333417e-001f, -2.606704e-001f }, { 2.908348e-001f, -1.944523e-001f }, { 2.942883e-001f, 1.891851e-001f }, { -1.992902e-001f, 2.875412e-001f },
		{ 2.346625e-001f, -2.584869e-001f }, { 2.915712e-001f, -1.920106e-001f }, { 2.923414e-001f, 1.908336e-001f }, { -2.008734e-001f, 2.855384e-001f },
		{ 2.361788e-001f, -2.564322e-001f }, { 2.925267e-001f, -1.896423e-001f }, { 2.905520e-001f, 1.926555e-001f }, { -2.026326e-001f, 2.836831e-001f },
		{ 2.378936e-001f, -2.544950e-001f }, { 2.937066e-001f, -1.873404e-001f }, { 2.889091e-001f, 1.946542e-001f }, { -2.045774e-001f, 2.819731e-001f },
		{ 2.356037e-001f, -2.791382e-001f }, { 3.040902e-001f, -2.023252e-001f }, { 3.062499e-001f, 1.990375e-001f }, { -2.641367e-001f, 2.522961e-001f },
		{ 2.371344e-001f, -2.774463e-001f }, { 3.051121e-001f, -2.002640e-001f }, { 3.047555e-001f, 2.008011e-001f }, { -2.655214e-001f, 2.504093e-001f },
		{ 2.264163e-001f, -2.904120e-001f }, { 3.077044e-001f, -2.020675e-001f }, { 3.004548e-001f, 2.127478e-001f }, { -2.838746e-001f, 2.345167e-001f },
		{ 2.141222e-001f, -3.024865e-001f }, { 3.072031e-001f, -2.069661e-001f }, { 2.912967e-001f, 2.288208e-001f }, { -2.970439e-001f, 2.215069e-001f },
		{ 2.134539e-001f, -3.030161e-001f }, { 3.071246e-001f, -2.070308e-001f }, { 2.876009e-001f, 2.333822e-001f }, { -2.991658e-001f, 2.186271e-001f },
		{ 2.027267e-001f, -3.110149e-001f }, { 3.033850e-001f, -2.135288e-001f }, { 2.744865e-001f, 2.496399e-001f }, { -3.043276e-001f, 2.125150e-001f },
		{ 1.921295e-001f, -3.179758e-001f }, { 2.998040e-001f, -2.188839e-001f }, { 2.606471e-001f, 2.643069e-001f }, { -3.080330e-001f, 2.073565e-001f },
		{ 1.860732e-001f, -3.210778e-001f }, { 2.981941e-001f, -2.204063e-001f }, { 2.508822e-001f, 2.730601e-001f }, { -3.098395e-001f, 2.038892e-001f },
		{ 1.737551e-001f, -3.264162e-001f }, { 2.951926e-001f, -2.218154e-001f }, { 2.345359e-001f, 2.852733e-001f }, { -3.106099e-001f, 2.001102e-001f },
		{ 1.604830e-001f, -3.316304e-001f }, { 2.922666e-001f, -2.214406e-001f }, { 2.166074e-001f, 2.961002e-001f }, { -3.100096e-001f, 1.966735e-001f },
		{ 1.495477e-001f, -3.355734e-001f }, { 2.900856e-001f, -2.176607e-001f }, { 2.000590e-001f, 3.028368e-001f }, { -3.070777e-001f, 1.942589e-001f },
		{ 1.373489e-001f, -3.403170e-001f }, { 2.873492e-001f, -2.099980e-001f }, { 1.817088e-001f, 3.071532e-001f }, { -3.011478e-001f, 1.922756e-001f },
		{ 1.249961e-001f, -3.445808e-001f }, { 2.852254e-001f, -1.991177e-001f }, { 1.624361e-001f, 3.094423e-001f }, { -2.925572e-001f, 1.906565e-001f },
		{ 1.131447e-001f, -3.483905e-001f }, { 2.845590e-001f, -1.877093e-001f }, { 1.435964e-001f, 3.107823e-001f }, { -2.839957e-001f, 1.881344e-001f },
		{ 1.000772e-001f, -3.511120e-001f }, { 2.835542e-001f, -1.731571e-001f }, { 1.244128e-001f, 3.110795e-001f }, { -2.736850e-001f, 1.864421e-001f },
		{ 8.693787e-002f, -3.530631e-001f }, { 2.836026e-001f, -1.575145e-001f }, { 1.059556e-001f, 3.104328e-001f }, { -2.636591e-001f, 1.841299e-001f },
		{ 7.383940e-002f, -3.542338e-001f }, { 2.839829e-001f, -1.417641e-001f }, { 8.985939e-002f, 3.097776e-001f }, { -2.553495e-001f, 1.804908e-001f },
		{ 6.000031e-002f, -3.543717e-001f }, { 2.838328e-001f, -1.241460e-001f }, { 7.554407e-002f, 3.083487e-001f }, { -2.476692e-001f, 1.767152e-001f },
		{ 4.615276e-002f, -3.539582e-001f }, { 2.834750e-001f, -1.070610e-001f }, { 6.423695e-002f, 3.073310e-001f }, { -2.424308e-001f, 1.711387e-001f },
		{ 3.139874e-002f, -3.524207e-001f }, { 2.821940e-001f, -8.809618e-002f }, { 5.509186e-002f, 3.056110e-001f }, { -2.382031e-001f, 1.652699e-001f },
		{ 1.637961e-002f, -3.504226e-001f }, { 2.803818e-001f, -6.957373e-002f }, { 4.876145e-002f, 3.042685e-001f }, { -2.362454e-001f, 1.575381e-001f },
		{ 8.805931e-004f, -3.478471e-001f }, { 2.779772e-001f, -5.094843e-002f }, { 4.473162e-002f, 3.030208e-001f }, { -2.359458e-001f, 1.482769e-001f },
		{ -1.541550e-002f, -3.444447e-001f }, { 2.744346e-001f, -3.158288e-002f }, { 4.258542e-002f, 3.014709e-001f }, { -2.368650e-001f, 1.383564e-001f },
		{ -3.209133e-002f, -3.407118e-001f }, { 2.700615e-001f, -1.321366e-002f }, { 4.212035e-002f, 3.006271e-001f }, { -2.392099e-001f, 1.268292e-001f },
		{ -4.916739e-002f, -3.365763e-001f }, { 2.650744e-001f, 4.914833e-003f }, { 4.275609e-002f, 2.995476e-001f }, { -2.423679e-001f, 1.144338e-001f },
		{ -6.642710e-002f, -3.318459e-001f }, { 2.595288e-001f, 2.256940e-002f }, { 4.402519e-002f, 2.985105e-001f }, { -2.459767e-001f, 1.014877e-001f },
		{ -8.362628e-002f, -3.261473e-001f }, { 2.535431e-001f, 4.019717e-002f }, { 4.544228e-002f, 2.969551e-001f }, { -2.497737e-001f, 8.898572e-002f },
		{ -1.003656e-001f, -3.201730e-001f }, { 2.476119e-001f, 5.667262e-002f }, { 4.669614e-002f, 2.952723e-001f }, { -2.535790e-001f, 7.633387e-002f },
		{ -1.167024e-001f, -3.138078e-001f }, { 2.413255e-001f, 7.210762e-002f }, { 4.800703e-002f, 2.934578e-001f }, { -2.575927e-001f, 6.382254e-002f },
		{ -1.323620e-001f, -3.073340e-001f }, { 2.352471e-001f, 8.569561e-002f }, { 4.877241e-002f, 2.917214e-001f }, { -2.616791e-001f, 5.130109e-002f },
		{ -1.469452e-001f, -3.002963e-001f }, { 2.295749e-001f, 9.868047e-002f }, { 4.835322e-002f, 2.896212e-001f }, { -2.648094e-001f, 4.001741e-002f },
		{ -1.606738e-001f, -2.932037e-001f }, { 2.239536e-001f, 1.102772e-001f }, { 4.758177e-002f, 2.874543e-001f }, { -2.678593e-001f, 2.913255e-002f },
		{ -1.732694e-001f, -2.858158e-001f }, { 2.191312e-001f, 1.202523e-001f }, { 4.489651e-002f, 2.849140e-001f }, { -2.704498e-001f, 1.961609e-002f },
		{ -1.847093e-001f, -2.784903e-001f }, { 2.150496e-001f, 1.289225e-001f }, { 4.111146e-002f, 2.826484e-001f }, { -2.720943e-001f, 1.051282e-002f },
		{ -1.952480e-001f, -2.709762e-001f }, { 2.113390e-001f, 1.366643e-001f }, { 3.639300e-002f, 2.801884e-001f }, { -2.733552e-001f, 2.253736e-003f },
		{ -2.047848e-001f, -2.630522e-001f }, { 2.082319e-001f, 1.437407e-001f }, { 3.019894e-002f, 2.774106e-001f }, { -2.740313e-001f, -4.741057e-003f },
		{ -2.133732e-001f, -2.551191e-001f }, { 2.058524e-001f, 1.496195e-001f }, { 2.246952e-002f, 2.746743e-001f }, { -2.740177e-001f, -1.093320e-002f },
		{ -2.209917e-001f, -2.470475e-001f }, { 2.045158e-001f, 1.544178e-001f }, { 1.276353e-002f, 2.721329e-001f }, { -2.729802e-001f, -1.635481e-002f },
		{ -2.277592e-001f, -2.386849e-001f }, { 2.041934e-001f, 1.582081e-001f }, { 8.542097e-004f, 2.695408e-001f }, { -2.711416e-001f, -2.079319e-002f },
		{ -2.339153e-001f, -2.300746e-001f }, { 2.042669e-001f, 1.616143e-001f }, { -1.222933e-002f, 2.664641e-001f }, { -2.690047e-001f, -2.428419e-002f },
		{ -2.397765e-001f, -2.214496e-001f }, { 2.045872e-001f, 1.644905e-001f }, { -2.609183e-002f, 2.630688e-001f }, { -2.665671e-001f, -2.741158e-002f },
		{ -2.453628e-001f, -2.127870e-001f }, { 2.048894e-001f, 1.671006e-001f }, { -4.042224e-002f, 2.592692e-001f }, { -2.639389e-001f, -3.004305e-002f },
		{ -2.506604e-001f, -2.040782e-001f }, { 2.052076e-001f, 1.696500e-001f }, { -5.520599e-002f, 2.549511e-001f }, { -2.610470e-001f, -3.205941e-002f },
		{ -2.555223e-001f, -1.953563e-001f }, { 2.049270e-001f, 1.724478e-001f }, { -6.933475e-002f, 2.501118e-001f }, { -2.585690e-001f, -3.348562e-002f },
		{ -2.602926e-001f, -1.868118e-001f }, { 2.050814e-001f, 1.749959e-001f }, { -8.445236e-002f, 2.445641e-001f }, { -2.554483e-001f, -3.422880e-002f },
		{ -2.647299e-001f, -1.784413e-001f }, { 2.049502e-001f, 1.777541e-001f }, { -9.883725e-002f, 2.389381e-001f }, { -2.521962e-001f, -3.493586e-002f },
		{ -2.690325e-001f, -1.697943e-001f }, { 2.039900e-001f, 1.808634e-001f }, { -1.121526e-001f, 2.332216e-001f }, { -2.493905e-001f, -3.577999e-002f },
		{ -2.731325e-001f, -1.611725e-001f }, { 2.024161e-001f, 1.841171e-001f }, { -1.246117e-001f, 2.277118e-001f }, { -2.465704e-001f, -3.676489e-002f },
		{ -2.769762e-001f, -1.528124e-001f }, { 2.009301e-001f, 1.870932e-001f }, { -1.363575e-001f, 2.223436e-001f }, { -2.436683e-001f, -3.832180e-002f },
		{ -2.801944e-001f, -1.443824e-001f }, { 1.988077e-001f, 1.902433e-001f }, { -1.469365e-001f, 2.175490e-001f }, { -2.410831e-001f, -4.021719e-002f },
		{ -2.832241e-001f, -1.359497e-001f }, { 1.964967e-001f, 1.932001e-001f }, { -1.566800e-001f, 2.131761e-001f }, { -2.384631e-001f, -4.294167e-002f },
		{ -2.856981e-001f, -1.273642e-001f }, { 1.936726e-001f, 1.961775e-001f }, { -1.652783e-001f, 2.094971e-001f }, { -2.361360e-001f, -4.645405e-002f },
		{ -2.877858e-001f, -1.185767e-001f }, { 1.904513e-001f, 1.990436e-001f }, { -1.728449e-001f, 2.065223e-001f }, { -2.339328e-001f, -5.104075e-002f },
		{ -2.897040e-001f, -1.095266e-001f }, { 1.870961e-001f, 2.016689e-001f }, { -1.795832e-001f, 2.041758e-001f }, { -2.315276e-001f, -5.698421e-002f },
		{ -2.911937e-001f, -1.000965e-001f }, { 1.833694e-001f, 2.041778e-001f }, { -1.853668e-001f, 2.025521e-001f }, { -2.291580e-001f, -6.421227e-002f },
		{ -2.922913e-001f, -9.020643e-002f }, { 1.793181e-001f, 2.065130e-001f }, { -1.903583e-001f, 2.016177e-001f }, { -2.266843e-001f, -7.279198e-002f },
		{ -2.931491e-001f, -7.989694e-002f }, { 1.750854e-001f, 2.088277e-001f }, { -1.947290e-001f, 2.010458e-001f }, { -2.238134e-001f, -8.246200e-002f },
		{ -2.938874e-001f, -6.910109e-002f }, { 1.707940e-001f, 2.110154e-001f }, { -1.986374e-001f, 2.007442e-001f }, { -2.203232e-001f, -9.328441e-002f },
		{ -2.938867e-001f, -5.801597e-002f }, { 1.658357e-001f, 2.136763e-001f }, { -2.016416e-001f, 2.004822e-001f }, { -2.171191e-001f, -1.043848e-001f },
		{ -2.934771e-001f, -4.668749e-002f }, { 1.604877e-001f, 2.166793e-001f }, { -2.040798e-001f, 2.000402e-001f }, { -2.137607e-001f, -1.156847e-001f },
		{ -2.926780e-001f, -3.520674e-002f }, { 1.547862e-001f, 2.200235e-001f }, { -2.060220e-001f, 1.993003e-001f }, { -2.102491e-001f, -1.269973e-001f },
		{ -2.914108e-001f, -2.373543e-002f }, { 1.485813e-001f, 2.237113e-001f }, { -2.075100e-001f, 1.980931e-001f }, { -2.069276e-001f, -1.379341e-001f },
		{ -2.898321e-001f, -1.224788e-002f }, { 1.421430e-001f, 2.277319e-001f }, { -2.084065e-001f, 1.964526e-001f }, { -2.034658e-001f, -1.488549e-001f },
		{ -2.873793e-001f, -1.086242e-003f }, { 1.352582e-001f, 2.322044e-001f }, { -2.089715e-001f, 1.944704e-001f }, { -2.004674e-001f, -1.590988e-001f },
		{ -2.845312e-001f, 1.000622e-002f }, { 1.280997e-001f, 2.369330e-001f }, { -2.093669e-001f, 1.920632e-001f }, { -1.974031e-001f, -1.689557e-001f },
		{ -2.812227e-001f, 2.046650e-002f }, { 1.205682e-001f, 2.421607e-001f }, { -2.091391e-001f, 1.888440e-001f }, { -1.950603e-001f, -1.779106e-001f },
		{ -2.774700e-001f, 3.023729e-002f }, { 1.127591e-001f, 2.474464e-001f }, { -2.087231e-001f, 1.852489e-001f }, { -1.932069e-001f, -1.861415e-001f },
		{ -2.736507e-001f, 3.863926e-002f }, { 1.053249e-001f, 2.523258e-001f }, { -2.085693e-001f, 1.812724e-001f }, { -1.915664e-001f, -1.932298e-001f },
		{ -2.711121e-001f, 4.260039e-002f }, { 9.993452e-002f, 2.552555e-001f }, { -2.091652e-001f, 1.777093e-001f }, { -1.896415e-001f, -1.976981e-001f },
		{ -2.706266e-001f, 4.101246e-002f }, { 9.704535e-002f, 2.558790e-001f }, { -2.102139e-001f, 1.752779e-001f }, { -1.874855e-001f, -1.993424e-001f },
		{ -2.705193e-001f, 3.862404e-002f }, { 9.460989e-002f, 2.563267e-001f }, { -2.114024e-001f, 1.731263e-001f }, { -1.854225e-001f, -2.006844e-001f },
		{ -2.704496e-001f, 3.702380e-002f }, { 9.183079e-002f, 2.570673e-001f }, { -2.128034e-001f, 1.709577e-001f }, { -1.832896e-001f, -2.023074e-001f },
		{ -2.706368e-001f, 3.472540e-002f }, { 8.947299e-002f, 2.577682e-001f }, { -2.142246e-001f, 1.689931e-001f }, { -1.813875e-001f, -2.038301e-001f },
		{ -2.709766e-001f, 3.235337e-002f }, { 8.720778e-002f, 2.585841e-001f }, { -2.157369e-001f, 1.671224e-001f }, { -1.796153e-001f, -2.054576e-001f },
		{ -2.673946e-001f, 5.443767e-002f }, { 7.128652e-002f, 2.633982e-001f }, { -2.202665e-001f, 1.610722e-001f }, { -1.719114e-001f, -2.119161e-001f },
		{ -2.679044e-001f, 5.209412e-002f }, { 6.897377e-002f, 2.640663e-001f }, { -2.217174e-001f, 1.591529e-001f }, { -1.700642e-001f, -2.134573e-001f },
		{ -2.685645e-001f, 4.977033e-002f }, { 6.669211e-002f, 2.648689e-001f }, { -2.232860e-001f, 1.573123e-001f }, { -1.683064e-001f, -2.151183e-001f },
		{ -2.691438e-001f, 4.798225e-002f }, { 6.416484e-002f, 2.657398e-001f }, { -2.249313e-001f, 1.552521e-001f }, { -1.667788e-001f, -2.172975e-001f },
		{ -2.532407e-001f, 1.013106e-001f }, { 4.495015e-002f, 2.690158e-001f }, { -2.434532e-001f, 1.229811e-001f }, { -1.545911e-001f, -2.247090e-001f },
		{ -2.540320e-001f, 9.903185e-002f }, { 4.255215e-002f, 2.693130e-001f }, { -2.444399e-001f, 1.207779e-001f }, { -1.525412e-001f, -2.259858e-001f },
		{ -2.549594e-001f, 9.680974e-002f }, { 4.018106e-002f, 2.697430e-001f }, { -2.455590e-001f, 1.186447e-001f }, { -1.505773e-001f, -2.273814e-001f },
		{ -2.560220e-001f, 9.463766e-002f }, { 3.783137e-002f, 2.703188e-001f }, { -2.468083e-001f, 1.165733e-001f }, { -1.486926e-001f, -2.288979e-001f },
		{ -2.572249e-001f, 9.250989e-002f }, { 3.549557e-002f, 2.710396e-001f }, { -2.481918e-001f, 1.145578e-001f }, { -1.468815e-001f, -2.305397e-001f },
		{ -2.404626e-001f, 1.295738e-001f }, { 1.869149e-002f, 2.725088e-001f }, { -2.574089e-001f, 9.135905e-002f }, { -1.359979e-001f, -2.368799e-001f },
		{ -2.417125e-001f, 1.275162e-001f }, { 1.629726e-002f, 2.728006e-001f }, { -2.583396e-001f, 8.913575e-002f }, { -1.339752e-001f, -2.381921e-001f },
		{ -2.430959e-001f, 1.255279e-001f }, { 1.391403e-002f, 2.732379e-001f }, { -2.594045e-001f, 8.695933e-002f }, { -1.320245e-001f, -2.396295e-001f },
		{ -2.446118e-001f, 1.236023e-001f }, { 1.153378e-002f, 2.738233e-001f }, { -2.606094e-001f, 8.482454e-002f }, { -1.301400e-001f, -2.411972e-001f },
		{ -2.355780e-001f, 1.396363e-001f }, { 5.447220e-003f, 2.737985e-001f }, { -2.640465e-001f, 7.262078e-002f }, { -1.198979e-001f, -2.462095e-001f },
		{ -2.372246e-001f, 1.378181e-001f }, { 3.052836e-003f, 2.743356e-001f }, { -2.651575e-001f, 7.043250e-002f }, { -1.179508e-001f, -2.477034e-001f },
		{ -2.390058e-001f, 1.360651e-001f }, { 6.497895e-004f, 2.750218e-001f }, { -2.664138e-001f, 6.827207e-002f }, { -1.160579e-001f, -2.493352e-001f },
		{ -2.409256e-001f, 1.343720e-001f }, { -1.769386e-003f, 2.758583e-001f }, { -2.678195e-001f, 6.613294e-002f }, { -1.142135e-001f, -2.511101e-001f },
