#include "KinectConfig.h"

namespace Beam{
	KinectConfig::KinectConfig(){
	
	}

	KinectConfig::~KinectConfig(){
	
	}

	MicArrayWeights KinectConfig::kinect_weights{
		"Kinect",
		4,
		256,
		11,
		0.000f,
		kinect_beams,
		kinect_frequencies,
		kinect_comp_weights,
		(std::complex<float>*)&kinect_dd
	};
	
	MicArrayDescriptor KinectConfig::kinect_descriptor =
	{
		"Microsoft Corporation",
		"Kinect",
		0,
		0.f,
		0.f,
		-50.f,
		50.f,
		100.f,
		7500.f,
		4,
		{
			{ 0, 0.f, -0.113f, 0.f, 2, 0.f, 0.f },
			{ 1, 0.f, 0.035f, 0.f, 2, 0.f, 0.f },
			{ 2, 0.f, 0.075f, 0.f, 2, 0.f, 0.f },
			{ 3, 0.f, 0.113f, 0.f, 2, 0.f, 0.f }
		}
	};

	float KinectConfig::frequency_bands[MAX_GAIN_SUBBANDS][3] = 
	{ { 300.f, 200.f, 450.f },
	{ 600.f, 450.f, 800.f },
	{ 1000.f, 800.f, 1500.f },
	{ 2000.f, 1500.f, 3999.f },
	{ 6000.f, 4000.f, 7999.f }
	};

	RCoords KinectConfig::kinect_beams[11] =
	{
		{ -0.873f, 0.f, 1.f },
		{ -0.698f, 0.f, 1.f },
		{ -0.524f, 0.f, 1.f },
		{ -0.349f, 0.f, 1.f },
		{ -0.175f, 0.f, 1.f },
		{ 0.f, 0.f, 1.f },
		{ 0.175f, 0.f, 1.f },
		{ 0.349f, 0.f, 1.f },
		{ 0.524f, 0.f, 1.f },
		{ 0.698f, 0.f, 1.f },
		{ 0.873f, 0.f, 1.f }
	};

	float KinectConfig::kinect_frequencies[256] =
	{
		0.00f, 31.25f, 62.50f, 93.75f,
		125.00f, 156.25f, 187.50f, 218.75f,
		250.00f, 281.25f, 312.50f, 343.75f,
		375.00f, 406.25f, 437.50f, 468.75f,
		500.00f, 531.25f, 562.50f, 593.75f,
		625.00f, 656.25f, 687.50f, 718.75f,
		750.00f, 781.25f, 812.50f, 843.75f,
		875.00f, 906.25f, 937.50f, 968.75f,
		1000.00f, 1031.25f, 1062.50f, 1093.75f,
		1125.00f, 1156.25f, 1187.50f, 1218.75f,
		1250.00f, 1281.25f, 1312.50f, 1343.75f,
		1375.00f, 1406.25f, 1437.50f, 1468.75f,
		1500.00f, 1531.25f, 1562.50f, 1593.75f,
		1625.00f, 1656.25f, 1687.50f, 1718.75f,
		1750.00f, 1781.25f, 1812.50f, 1843.75f,
		1875.00f, 1906.25f, 1937.50f, 1968.75f,
		2000.00f, 2031.25f, 2062.50f, 2093.75f,
		2125.00f, 2156.25f, 2187.50f, 2218.75f,
		2250.00f, 2281.25f, 2312.50f, 2343.75f,
		2375.00f, 2406.25f, 2437.50f, 2468.75f,
		2500.00f, 2531.25f, 2562.50f, 2593.75f,
		2625.00f, 2656.25f, 2687.50f, 2718.75f,
		2750.00f, 2781.25f, 2812.50f, 2843.75f,
		2875.00f, 2906.25f, 2937.50f, 2968.75f,
		3000.00f, 3031.25f, 3062.50f, 3093.75f,
		3125.00f, 3156.25f, 3187.50f, 3218.75f,
		3250.00f, 3281.25f, 3312.50f, 3343.75f,
		3375.00f, 3406.25f, 3437.50f, 3468.75f,
		3500.00f, 3531.25f, 3562.50f, 3593.75f,
		3625.00f, 3656.25f, 3687.50f, 3718.75f,
		3750.00f, 3781.25f, 3812.50f, 3843.75f,
		3875.00f, 3906.25f, 3937.50f, 3968.75f,
		4000.00f, 4031.25f, 4062.50f, 4093.75f,
		4125.00f, 4156.25f, 4187.50f, 4218.75f,
		4250.00f, 4281.25f, 4312.50f, 4343.75f,
		4375.00f, 4406.25f, 4437.50f, 4468.75f,
		4500.00f, 4531.25f, 4562.50f, 4593.75f,
		4625.00f, 4656.25f, 4687.50f, 4718.75f,
		4750.00f, 4781.25f, 4812.50f, 4843.75f,
		4875.00f, 4906.25f, 4937.50f, 4968.75f,
		5000.00f, 5031.25f, 5062.50f, 5093.75f,
		5125.00f, 5156.25f, 5187.50f, 5218.75f,
		5250.00f, 5281.25f, 5312.50f, 5343.75f,
		5375.00f, 5406.25f, 5437.50f, 5468.75f,
		5500.00f, 5531.25f, 5562.50f, 5593.75f,
		5625.00f, 5656.25f, 5687.50f, 5718.75f,
		5750.00f, 5781.25f, 5812.50f, 5843.75f,
		5875.00f, 5906.25f, 5937.50f, 5968.75f,
		6000.00f, 6031.25f, 6062.50f, 6093.75f,
		6125.00f, 6156.25f, 6187.50f, 6218.75f,
		6250.00f, 6281.25f, 6312.50f, 6343.75f,
		6375.00f, 6406.25f, 6437.50f, 6468.75f,
		6500.00f, 6531.25f, 6562.50f, 6593.75f,
		6625.00f, 6656.25f, 6687.50f, 6718.75f,
		6750.00f, 6781.25f, 6812.50f, 6843.75f,
		6875.00f, 6906.25f, 6937.50f, 6968.75f,
		7000.00f, 7031.25f, 7062.50f, 7093.75f,
		7125.00f, 7156.25f, 7187.50f, 7218.75f,
		7250.00f, 7281.25f, 7312.50f, 7343.75f,
		7375.00f, 7406.25f, 7437.50f, 7468.75f,
		7500.00f, 7531.25f, 7562.50f, 7593.75f,
		7625.00f, 7656.25f, 7687.50f, 7718.75f,
		7750.00f, 7781.25f, 7812.50f, 7843.75f,
		7875.00f, 7906.25f, 7937.50f, 7968.75f
	};

	std::complex<float> KinectConfig::kinect_comp_weights[11264] =
	{ { 0.000000f, 0.000000f }, { 0.000000f, 0.000000f }, { 0.000000f, 0.000000f }, { 0.000000f, 0.000000f }, { 0.238818f, -1.015912f }, { 0.226261f, 0.056660f }, { 0.222693f, 0.346693f }, { 0.219237f, 0.622126f }, { 0.221525f, -1.304063f }, { 0.189415f, 0.072102f }, { 0.180137f, 0.444804f }, { 0.171106f, 0.798368f }, { 0.210372f, -1.226594f }, { 0.165368f, 0.066826f }, { 0.151998f, 0.418029f }, { 0.138885f, 0.750607f }, { 0.204520f, -1.076539f }, { 0.152352f, 0.057419f }, { 0.136244f, 0.366458f }, { 0.120284f, 0.658385f }, { 0.201761f, -0.937032f }, { 0.145712f, 0.048580f }, { 0.127528f, 0.318485f }, { 0.109292f, 0.572639f }, { 0.200802f, -0.822154f }, { 0.142723f, 0.041098f }, { 0.122716f, 0.278919f }, { 0.102377f, 0.502002f }, { 0.200977f, -0.729899f }, { 0.142000f, 0.034852f }, { 0.120197f, 0.247075f }, { 0.097709f, 0.445249f }, { 0.201941f, -0.655702f }, { 0.142832f, 0.029574f }, { 0.119133f, 0.221391f }, { 0.094322f, 0.399592f }, { 0.203503f, -0.595460f }, { 0.144847f, 0.025022f }, { 0.119066f, 0.200468f }, { 0.091672f, 0.362523f }, { 0.205554f, -0.545987f }, { 0.147854f, 0.021004f }, { 0.119739f, 0.183216f }, { 0.089430f, 0.332101f }, { 0.208025f, -0.504897f }, { 0.151757f, 0.017374f }, { 0.120997f, 0.168823f }, { 0.087381f, 0.306875f }, { 0.210871f, -0.470416f }, { 0.156522f, 0.014019f }, { 0.122748f, 0.156683f }, { 0.085366f, 0.285773f }, { 0.214056f, -0.441214f }, { 0.162153f, 0.010849f }, { 0.124934f, 0.146346f }, { 0.083259f, 0.267998f }, { 0.217548f, -0.416280f }, { 0.168680f, 0.007794f }, { 0.127516f, 0.137471f }, { 0.080947f, 0.252952f }, { 0.221313f, -0.394838f }, { 0.176156f, 0.004792f }, { 0.130470f, 0.129798f }, { 0.078319f, 0.240184f }, { 0.225309f, -0.376277f }, { 0.184650f, 0.001793f }, { 0.133776f, 0.123131f }, { 0.075256f, 0.229355f }, { 0.229481f, -0.360112f }, { 0.194243f, -0.001248f }, { 0.137412f, 0.117314f }, { 0.071629f, 0.220206f }, { 0.233758f, -0.345949f }, { 0.205031f, -0.004370f }, { 0.141357f, 0.112233f }, { 0.067292f, 0.212543f }, { 0.238044f, -0.333459f }, { 0.217113f, -0.007607f }, { 0.145580f, 0.107799f }, { 0.062073f, 0.206225f }, { 0.242210f, -0.322362f }, { 0.230593f, -0.010990f }, { 0.150033f, 0.103948f }, { 0.055776f, 0.201149f }, { 0.246083f, -0.312410f }, { 0.245570f, -0.014540f }, { 0.154653f, 0.100638f }, { 0.048172f, 0.197248f }, { 0.249440f, -0.303375f }, { 0.262124f, -0.018269f }, { 0.159346f, 0.097847f }, { 0.039001f, 0.194480f }, { 0.251990f, -0.295041f }, { 0.280304f, -0.022178f }, { 0.163981f, 0.095573f }, { 0.027972f, 0.192827f }, { 0.253365f, -0.287195f }, { 0.300100f, -0.026244f }, { 0.168381f, 0.093834f }, { 0.014768f, 0.192285f }, { 0.253112f, -0.279623f }, { 0.321416f, -0.030422f }, { 0.172309f, 0.092665f }, { -0.000936f, 0.192858f }, { 0.250686f, -0.272103f }, { 0.344026f, -0.034627f }, { 0.175461f, 0.092126f }, { -0.019448f, 0.194547f }, { 0.245467f, -0.264413f }, { 0.367533f, -0.038732f }, { 0.177464f, 0.092291f }, { -0.041016f, 0.197338f }, { 0.236791f, -0.256332f }, { 0.391323f, -0.042552f }, { 0.177881f, 0.093251f }, { -0.065767f, 0.201180f }, { 0.224004f, -0.247663f }, { 0.414535f, -0.045847f }, { 0.176230f, 0.095100f }, { -0.093632f, 0.205971f }, { 0.206570f, -0.238251f }, { 0.436060f, -0.048325f }, { 0.172038f, 0.097926f }, { -0.124262f, 0.211534f }, { 0.184181f, -0.228015f }, { 0.454599f, -0.049660f }, { 0.164901f, 0.101787f }, { -0.156964f, 0.217609f }, { 0.156896f, -0.216976f }, { 0.468785f, -0.049530f }, { 0.154579f, 0.106697f }, { -0.190676f, 0.223851f }, { 0.125238f, -0.205281f }, { 0.477373f, -0.047662f }, { 0.141073f, 0.112603f }, { -0.224024f, 0.229856f }, { 0.090214f, -0.193193f }, { 0.479458f, -0.043892f }, { 0.124682f, 0.119384f }, { -0.255464f, 0.235202f }, { 0.053228f, -0.181070f }, { 0.474672f, -0.038196f }, { 0.106000f, 0.126853f }, { -0.283495f, 0.239510f }, { 0.015897f, -0.169304f }, { 0.463270f, -0.030705f }, { 0.085846f, 0.134788f }, { -0.306898f, 0.242500f }, { -0.020194f, -0.158261f }, { 0.446088f, -0.021681f }, { 0.065136f, 0.142962f }, { -0.324905f, 0.244026f }, { -0.053714f, -0.148227f }, { 0.424381f, -0.011466f }, { 0.044751f, 0.151176f }, { -0.337280f, 0.244082f }, { -0.083725f, -0.139375f }, { 0.399592f, -0.000424f }, { 0.025420f, 0.159286f }, { -0.344269f, 0.242777f }, { -0.109727f, -0.131762f }, { 0.373140f, 0.011116f }, { 0.007662f, 0.167209f }, { -0.346479f, 0.240298f }, { -0.131607f, -0.125348f }, { 0.346259f, 0.022889f }, { -0.008226f, 0.174918f }, { -0.344720f, 0.236860f }, { -0.149548f, -0.120018f }, { 0.319918f, 0.034709f }, { -0.022141f, 0.182432f }, { -0.339861f, 0.232672f }, { -0.163920f, -0.115613f }, { 0.294805f, 0.046467f }, { -0.034120f, 0.189799f }, { -0.332732f, 0.227911f }, { -0.175188f, -0.111956f }, { 0.271357f, 0.058120f }, { -0.044299f, 0.197081f }, { -0.324055f, 0.222712f }, { -0.183840f, -0.108863f }, { 0.249808f, 0.069671f }, { -0.052864f, 0.204346f }, { -0.314427f, 0.217159f }, { -0.190341f, -0.106155f }, { 0.230244f, 0.081160f }, { -0.060018f, 0.211654f }, { -0.304315f, 0.211295f }, { -0.195111f, -0.103663f }, { 0.212648f, 0.092642f }, { -0.065967f, 0.219053f }, { -0.294071f, 0.205120f }, { -0.198512f, -0.101227f }, { 0.196940f, 0.104186f }, { -0.070900f, 0.226579f }, { -0.283954f, 0.198601f }, { -0.200847f, -0.098697f }, { 0.183002f, 0.115856f }, { -0.074988f, 0.234244f }, { -0.274144f, 0.191675f }, { -0.202363f, -0.095929f }, { 0.170703f, 0.127714f }, { -0.078379f, 0.242043f }, { -0.264765f, 0.184259f }, { -0.203260f, -0.092785f }, { 0.159905f, 0.139806f }, { -0.081202f, 0.249943f }, { -0.255898f, 0.176249f }, { -0.203693f, -0.089129f }, { 0.150476f, 0.152161f }, { -0.083567f, 0.257884f }, { -0.247594f, 0.167529f }, { -0.203783f, -0.084831f }, { 0.142294f, 0.164783f }, { -0.085570f, 0.265778f }, { -0.239884f, 0.157974f }, { -0.203621f, -0.079764f }, { 0.135243f, 0.177650f }, { -0.087295f, 0.273502f }, { -0.232785f, 0.147461f }, { -0.203271f, -0.073811f }, { 0.129221f, 0.190704f }, { -0.088815f, 0.280901f }, { -0.226306f, 0.135870f }, { -0.202780f, -0.066868f }, { 0.124133f, 0.203850f }, { -0.090199f, 0.287785f }, { -0.220452f, 0.123102f }, { -0.202176f, -0.058849f }, { 0.119894f, 0.216948f }, { -0.091514f, 0.293933f }, { -0.215223f, 0.109082f }, { -0.201476f, -0.049701f }, { 0.116421f, 0.229821f }, { -0.092825f, 0.299100f }, { -0.210618f, 0.093778f }, { -0.200687f, -0.039407f }, { 0.113639f, 0.242249f }, { -0.094198f, 0.303026f }, { -0.206633f, 0.077209f }, { -0.199810f, -0.027997f }, { 0.111470f, 0.253982f }, { -0.095704f, 0.305451f }, { -0.203260f, 0.059459f }, { -0.198842f, -0.015556f }, { 0.109840f, 0.264748f }, { -0.097414f, 0.306136f }, { -0.200487f, 0.040684f }, { -0.197783f, -0.002226f }, { 0.108674f, 0.274274f }, { -0.099401f, 0.304882f }, { -0.198295f, 0.021111f }, { -0.196632f, 0.011795f }, { 0.107896f, 0.282305f }, { -0.101742f, 0.301551f }, { -0.196656f, 0.001036f }, { -0.195395f, 0.026261f }, { 0.107432f, 0.288629f }, { -0.104508f, 0.296088f }, { -0.195534f, -0.019193f }, { -0.194083f, 0.040895f }, { 0.107211f, 0.293090f }, { -0.107770f, 0.288529f }, { -0.194881f, -0.039196f }, { -0.192711f, 0.055407f }, { 0.107168f, 0.295613f }, { -0.111592f, 0.279000f }, { -0.194643f, -0.058589f }, { -0.191300f, 0.069513f }, { 0.107244f, 0.296205f }, { -0.116030f, 0.267718f }, { -0.194755f, -0.077013f }, { -0.189873f, 0.082958f }, { 0.107390f, 0.294952f }, { -0.121133f, 0.254964f }, { -0.195150f, -0.094157f }, { -0.188450f, 0.095532f }, { 0.107567f, 0.292013f }, { -0.126942f, 0.241066f }, { -0.195758f, -0.109781f }, { -0.187050f, 0.107079f }, { 0.107746f, 0.287603f }, { -0.133492f, 0.226370f }, { -0.196506f, -0.123723f }, { -0.185687f, 0.117504f }, { 0.107906f, 0.281969f }, { -0.140814f, 0.211218f }, { -0.197323f, -0.135899f }, { -0.184364f, 0.126765f }, { 0.108033f, 0.275375f }, { -0.148937f, 0.195925f }, { -0.198139f, -0.146304f }, { -0.183077f, 0.134872f }, { 0.108119f, 0.268078f }, { -0.157891f, 0.180767f }, { -0.198883f, -0.154991f }, { -0.181807f, 0.141874f }, { 0.108157f, 0.260323f }, { -0.167706f, 0.165973f }, { -0.199484f, -0.162063f }, { -0.180527f, 0.147847f }, { 0.108142f, 0.252325f }, { -0.178417f, 0.151723f }, { -0.199870f, -0.167656f }, { -0.179191f, 0.152889f }, { 0.108065f, 0.244269f }, { -0.190060f, 0.138148f }, { -0.199958f, -0.171925f }, { -0.177744f, 0.157105f }, { 0.107914f, 0.236310f }, { -0.202673f, 0.125339f }, { -0.199661f, -0.175031f }, { -0.176112f, 0.160603f }, { 0.107670f, 0.228569f }, { -0.216293f, 0.113351f }, { -0.198877f, -0.177137f }, { -0.174205f, 0.163489f }, { 0.107307f, 0.221139f }, { -0.230953f, 0.102211f }, { -0.197491f, -0.178396f }, { -0.171917f, 0.165860f }, { 0.106789f, 0.214090f }, { -0.246675f, 0.091925f }, { -0.195369f, -0.178955f }, { -0.169122f, 0.167802f }, { 0.106071f, 0.207472f }, { -0.263467f, 0.082483f }, { -0.192357f, -0.178944f }, { -0.165675f, 0.169392f }, { 0.105096f, 0.201317f }, { -0.281307f, 0.073865f }, { -0.188281f, -0.178485f }, { -0.161414f, 0.170693f }, { 0.103795f, 0.195648f }, { -0.300139f, 0.066044f }, { -0.182946f, -0.177686f }, { -0.156160f, 0.171754f }, { 0.102087f, 0.190475f }, { -0.319857f, 0.058986f }, { -0.176139f, -0.176645f }, { -0.149723f, 0.172612f }, { 0.099881f, 0.185808f }, { -0.340290f, 0.052656f }, { -0.167638f, -0.175454f }, { -0.141909f, 0.173291f }, { 0.097078f, 0.181647f }, { -0.361190f, 0.047015f }, { -0.157219f, -0.174195f }, { -0.132532f, 0.173802f }, { 0.093576f, 0.177996f }, { -0.382215f, 0.042019f }, { -0.144674f, -0.172948f }, { -0.121432f, 0.174145f }, { 0.089276f, 0.174857f }, { -0.402927f, 0.037618f }, { -0.129834f, -0.171786f }, { -0.108490f, 0.174307f }, { 0.084092f, 0.172232f }, { -0.422787f, 0.033751f }, { -0.112594f, -0.170778f }, { -0.093660f, 0.174273f }, { 0.077962f, 0.170125f }, { -0.441170f, 0.030349f }, { -0.092942f, -0.169990f }, { -0.076983f, 0.174017f }, { 0.070862f, 0.168542f }, { -0.457397f, 0.027327f }, { -0.070987f, -0.169476f }, { -0.058611f, 0.173518f }, { 0.062815f, 0.167488f }, { -0.470776f, 0.024587f }, { -0.046981f, -0.169282f }, { -0.038814f, 0.172755f }, { 0.053899f, 0.166968f }, { -0.480665f, 0.022017f }, { -0.021326f, -0.169438f }, { -0.017971f, 0.171715f }, { 0.044251f, 0.166987f }, { -0.486543f, 0.019496f }, { 0.005439f, -0.169958f }, { 0.003446f, 0.170398f }, { 0.034058f, 0.167544f }, { -0.488067f, 0.016900f }, { 0.032670f, -0.170836f }, { 0.024916f, 0.168814f }, { 0.023548f, 0.168637f }, { -0.485120f, 0.014106f }, { 0.059672f, -0.172046f }, { 0.045914f, 0.166985f }, { 0.012966f, 0.170260f }, { -0.477832f, 0.011003f }, { 0.085757f, -0.173544f }, { 0.065954f, 0.164940f }, { 0.002551f, 0.172403f }, { -0.466555f, 0.007494f }, { 0.110308f, -0.175270f }, { 0.084638f, 0.162714f }, { -0.007479f, 0.175057f }, { -0.451830f, 0.003502f }, { 0.132829f, -0.177155f }, { 0.101674f, 0.160341f }, { -0.016950f, 0.178209f }, { -0.434313f, -0.001029f }, { 0.152972f, -0.179127f }, { 0.116890f, 0.157849f }, { -0.025735f, 0.181849f }, { -0.414713f, -0.006138f }, { 0.170547f, -0.181108f }, { 0.130225f, 0.155257f }, { -0.033759f, 0.185967f }, { -0.393729f, -0.011849f }, { 0.185508f, -0.183026f }, { 0.141714f, 0.152572f }, { -0.040992f, 0.190555f }, { -0.371998f, -0.018175f }, { 0.197929f, -0.184809f }, { 0.151465f, 0.149789f }, { -0.047442f, 0.195604f }, { -0.350068f, -0.025124f }, { 0.207971f, -0.186388f }, { 0.159635f, 0.146888f }, { -0.053146f, 0.201107f }, { -0.328384f, -0.032700f }, { 0.215855f, -0.187693f }, { 0.166411f, 0.143837f }, { -0.058159f, 0.207055f }, { -0.307288f, -0.040907f }, { 0.221827f, -0.188655f }, { 0.171987f, 0.140591f }, { -0.062543f, 0.213433f }, { -0.287025f, -0.049748f }, { 0.226145f, -0.189198f }, { 0.176557f, 0.137094f }, { -0.066368f, 0.220223f }, { -0.267762f, -0.059230f }, { 0.229056f, -0.189243f }, { 0.180303f, 0.133282f }, { -0.069699f, 0.227395f }, { -0.249596f, -0.069353f }, { 0.230788f, -0.188700f }, { 0.183393f, 0.129079f }, { -0.072597f, 0.234908f }, { -0.232579f, -0.080115f }, { 0.231548f, -0.187469f }, { 0.185974f, 0.124405f }, { -0.075114f, 0.242704f }, { -0.216721f, -0.091508f }, { 0.231516f, -0.185441f }, { 0.188172f, 0.119177f }, { -0.077297f, 0.250708f }, { -0.202009f, -0.103508f }, { 0.230850f, -0.182497f }, { 0.190096f, 0.113309f }, { -0.079181f, 0.258819f }, { -0.188415f, -0.116075f }, { 0.229683f, -0.178512f }, { 0.191834f, 0.106720f }, { -0.080796f, 0.266914f }, { -0.175900f, -0.129146f }, { 0.228133f, -0.173354f }, { 0.193457f, 0.099339f }, { -0.082165f, 0.274840f }, { -0.164423f, -0.142629f }, { 0.226299f, -0.166896f }, { 0.195018f, 0.091108f }, { -0.083305f, 0.282418f }, { -0.153943f, -0.156399f }, { 0.224272f, -0.159022f }, { 0.196558f, 0.081993f }, { -0.084231f, 0.289445f }, { -0.144419f, -0.170296f }, { 0.222133f, -0.149636f }, { 0.198099f, 0.071989f }, { -0.084955f, 0.295699f }, { -0.135813f, -0.184122f }, { 0.219960f, -0.138673f }, { 0.199654f, 0.061130f }, { -0.085493f, 0.300947f }, { -0.128092f, -0.197647f }, { 0.217830f, -0.126115f }, { 0.201224f, 0.049491f }, { -0.085864f, 0.304959f }, { -0.121221f, -0.210614f }, { 0.215818f, -0.111997f }, { 0.202802f, 0.037194f }, { -0.086094f, 0.307526f }, { -0.115164f, -0.222754f }, { 0.214002f, -0.096420f }, { 0.204375f, 0.024403f }, { -0.086217f, 0.308471f }, { -0.109884f, -0.233797f }, { 0.212462f, -0.079548f }, { 0.205927f, 0.011321f }, { -0.086278f, 0.307670f }, { -0.105336f, -0.243496f }, { 0.211274f, -0.061614f }, { 0.207443f, -0.001822f }, { -0.086329f, 0.305064f }, { -0.101472f, -0.251643f }, { 0.210517f, -0.042902f }, { 0.208909f, -0.014783f }, { -0.086435f, 0.300666f }, { -0.098234f, -0.258086f }, { 0.210262f, -0.023734f }, { 0.210315f, -0.027325f }, { -0.086666f, 0.294560f }, { -0.095558f, -0.262740f }, { 0.210575f, -0.004448f }, { 0.211658f, -0.039227f }, { -0.087098f, 0.286897f }, { -0.093376f, -0.265595f }, { 0.211515f, 0.014625f }, { 0.212942f, -0.050305f }, { -0.087813f, 0.277881f }, { -0.091615f, -0.266711f }, { 0.213130f, 0.033183f }, { 0.214173f, -0.060415f }, { -0.088890f, 0.267750f }, { -0.090199f, -0.266208f }, { 0.215461f, 0.050971f }, { 0.215362f, -0.069464f }, { -0.090412f, 0.256759f }, { -0.089055f, -0.264257f }, { 0.218541f, 0.067793f }, { 0.216521f, -0.077404f }, { -0.092458f, 0.245159f }, { -0.088111f, -0.261060f }, { 0.222398f, 0.083516f }, { 0.217661f, -0.084231f }, { -0.095111f, 0.233187f }, { -0.087295f, -0.256835f }, { 0.227056f, 0.098072f }, { 0.218787f, -0.089980f }, { -0.098452f, 0.221049f }, { -0.086543f, -0.251798f }, { 0.232538f, 0.111447f }, { 0.219899f, -0.094712f }, { -0.102569f, 0.208919f }, { -0.085788f, -0.246159f }, { 0.238869f, 0.123680f }, { 0.220982f, -0.098511f }, { -0.107555f, 0.196929f }, { -0.084965f, -0.240105f }, { 0.246077f, 0.134843f }, { 0.222009f, -0.101473f }, { -0.113513f, 0.185176f }, { -0.084007f, -0.233801f }, { 0.254192f, 0.145041f }, { 0.222934f, -0.103704f }, { -0.120562f, 0.173716f }, { -0.082842f, -0.227382f }, { 0.263248f, 0.154394f }, { 0.223684f, -0.105314f }, { -0.128834f, 0.162576f }, { -0.081389f, -0.220958f }, { 0.273283f, 0.163037f }, { 0.224158f, -0.106414f }, { -0.138485f, 0.151750f }, { -0.079552f, -0.214609f }, { 0.284333f, 0.171106f }, { 0.224212f, -0.107120f }, { -0.149694f, 0.141206f }, { -0.077220f, -0.208392f }, { 0.296427f, 0.178738f }, { 0.223656f, -0.107549f }, { -0.162664f, 0.130887f }, { -0.074257f, -0.202335f }, { 0.309581f, 0.186067f }, { 0.222230f, -0.107825f }, { -0.177625f, 0.120718f }, { -0.070495f, -0.196448f }, { 0.323784f, 0.193214f }, { 0.219600f, -0.108082f }, { -0.194826f, 0.110602f }, { -0.065731f, -0.190713f }, { 0.338984f, 0.200288f }, { 0.215330f, -0.108474f }, { -0.214529f, 0.100430f }, { -0.059719f, -0.185093f }, { 0.355054f, 0.207381f }, { 0.208866f, -0.109177f }, { -0.236984f, 0.090080f }, { -0.052167f, -0.179524f }, { 0.371765f, 0.214553f }, { 0.199523f, -0.110397f }, { -0.262396f, 0.079427f }, { -0.042733f, -0.173920f }, { 0.388736f, 0.221827f }, { 0.186477f, -0.112381f }, { -0.290868f, 0.068355f }, { -0.031043f, -0.168173f }, { 0.405373f, 0.229172f }, { 0.168787f, -0.115412f }, { -0.322309f, 0.056773f }, { -0.016713f, -0.162153f }, { 0.420813f, 0.236478f }, { 0.145457f, -0.119809f }, { -0.356323f, 0.044649f }, { 0.000598f, -0.155720f }, { 0.433861f, 0.243542f }, { 0.115570f, -0.125896f }, { -0.392067f, 0.032041f }, { 0.021099f, -0.148740f }, { 0.442975f, 0.250044f }, { 0.078502f, -0.133965f }, { -0.428121f, 0.019148f }, { 0.044751f, -0.141115f }, { 0.446327f, 0.255546f }, { 0.034215f, -0.144197f }, { -0.462434f, 0.006338f }, { 0.071127f, -0.132819f }, { 0.441993f, 0.259518f }, { -0.016431f, -0.156581f }, { -0.492424f, -0.005844f }, { 0.099299f, -0.123940f }, { 0.428307f, 0.261413f }, { -0.071493f, -0.170838f }, { -0.515316f, -0.016719f }, { 0.127835f, -0.114711f }, { 0.404331f, 0.260783f }, { -0.128018f, -0.186407f }, { -0.528692f, -0.025594f }, { 0.154948f, -0.105497f }, { 0.370299f, 0.257420f }, { -0.182489f, -0.202508f }, { -0.531102f, -0.031911f }, { 0.178818f, -0.096746f }, { 0.327810f, 0.251455f }, { -0.231532f, -0.218302f }, { -0.522473f, -0.035383f }, { 0.197983f, -0.088895f }, { 0.279619f, 0.243372f }, { -0.272607f, -0.233068f }, { -0.504109f, -0.036055f }, { 0.211637f, -0.082281f }, { 0.229053f, 0.233909f }, { -0.304423f, -0.246339f }, { -0.478291f, -0.034260f }, { 0.219718f, -0.077084f }, { 0.179306f, 0.223889f }, { -0.326928f, -0.257942f }, { -0.447685f, -0.030503f }, { 0.222780f, -0.073322f }, { 0.132889f, 0.214062f }, { -0.341007f, -0.267961f }, { -0.414799f, -0.025334f }, { 0.221744f, -0.070895f }, { 0.091387f, 0.205001f }, { -0.348064f, -0.276654f }, { -0.381660f, -0.019250f }, { 0.217648f, -0.069629f }, { 0.055507f, 0.197077f }, { -0.349650f, -0.284364f }, { -0.349704f, -0.012644f }, { 0.211465f, -0.069331f }, { 0.025287f, 0.190481f }, { -0.347223f, -0.291457f }, { -0.319818f, -0.005790f }, { 0.204010f, -0.069821f }, { 0.000333f, 0.185270f }, { -0.342022f, -0.298282f }, { -0.292458f, 0.001141f }, { 0.195914f, -0.070944f }, { -0.019960f, 0.181416f }, { -0.335037f, -0.305155f }, { -0.267776f, 0.008069f }, { 0.187631f, -0.072581f }, { -0.036272f, 0.178851f }, { -0.327020f, -0.312356f }, { -0.245729f, 0.014973f }, { 0.179475f, -0.074645f }, { -0.049265f, 0.177488f }, { -0.318522f, -0.320136f }, { -0.226163f, 0.021884f }, { 0.171647f, -0.077076f }, { -0.059533f, 0.177244f }, { -0.309938f, -0.328728f }, { -0.208865f, 0.028866f }, { 0.164271f, -0.079841f }, { -0.067595f, 0.178047f }, { -0.301540f, -0.338355f }, { -0.193603f, 0.036016f }, { 0.157414f, -0.082923f }, { -0.073884f, 0.179843f }, { -0.293516f, -0.349247f }, { -0.180147f, 0.043455f }, { 0.151106f, -0.086323f }, { -0.078759f, 0.182595f }, { -0.285990f, -0.361646f }, { -0.168279f, 0.051332f }, { 0.145356f, -0.090052f }, { -0.082515f, 0.186286f }, { -0.279043f, -0.375827f }, { -0.157797f, 0.059832f }, { 0.140157f, -0.094134f }, { -0.085392f, 0.190917f }, { -0.272731f, -0.392105f }, { -0.148520f, 0.069185f }, { 0.135496f, -0.098601f }, { -0.087589f, 0.196507f }, { -0.267088f, -0.410857f }, { -0.140285f, 0.079679f }, { 0.131359f, -0.103490f }, { -0.089271f, 0.203085f }, { -0.262142f, -0.432538f }, { -0.132945f, 0.091687f }, { 0.127736f, -0.108843f }, { -0.090579f, 0.210693f }, { -0.257919f, -0.457708f }, { -0.126367f, 0.105703f }, { 0.124622f, -0.114704f }, { -0.091639f, 0.219373f }, { -0.254445f, -0.487062f }, { -0.120426f, 0.122391f }, { 0.122024f, -0.121107f }, { -0.092571f, 0.229151f }, { -0.251754f, -0.521461f }, { -0.115006f, 0.142671f }, { 0.119967f, -0.128062f }, { -0.093502f, 0.240012f }, { -0.249890f, -0.561975f }, { -0.109990f, 0.167847f }, { 0.118501f, -0.135528f }, { -0.094576f, 0.251840f }, { -0.248910f, -0.609900f }, { -0.105263f, 0.199802f }, { 0.117717f, -0.143350f }, { -0.095980f, 0.264311f }, { -0.248877f, -0.666732f }, { -0.100700f, 0.241324f }, { 0.117770f, -0.151140f }, { -0.097976f, 0.276670f }, { -0.249843f, -0.733964f }, { -0.096173f, 0.296614f }, { 0.118921f, -0.158035f }, { -0.100961f, 0.287290f }, { -0.251801f, -0.812416f }, { -0.091564f, 0.372052f }, { 0.121600f, -0.162187f }, { -0.105561f, 0.292748f }, { -0.254541f, -0.900286f }, { -0.086813f, 0.477171f }, { 0.126516f, -0.159725f }, { -0.112789f, 0.285953f }, { -0.257284f, -0.987957f }, { -0.082083f, 0.625057f }, { 0.134775f, -0.142716f }, { -0.124230f, 0.252499f }, { -0.257862f, -1.045759f }, { -0.078183f, 0.828483f }, { 0.147816f, -0.095989f }, { -0.142017f, 0.165054f }, { -0.251450f, -1.003633f }, { -0.077402f, 1.080375f }, { 0.166358f, 0.003728f }, { -0.167477f, -0.017832f }, { -0.231194f, -0.755307f }, { -0.083813f, 1.306395f }, { 0.186887f, 0.170274f }, { -0.196308f, -0.319590f }, { -0.196826f, -0.281318f }, { -0.099442f, 1.355598f }, { 0.198808f, 0.359850f }, { -0.214092f, -0.659341f }, { -0.162762f, 0.216510f }, { -0.118387f, 1.170688f }, { 0.194397f, 0.479197f }, { -0.209302f, -0.869505f }, { -0.142265f, 0.532917f }, { -0.132844f, 0.887031f }, { 0.179824f, 0.498801f }, { -0.189430f, -0.899732f }, { -0.134683f, 0.663347f }, { -0.141438f, 0.637251f }, { 0.164614f, 0.461732f }, { -0.167498f, -0.829287f }, { -0.134239f, 0.687208f }, { -0.146385f, 0.456457f }, { 0.152713f, 0.408918f }, { -0.149277f, -0.731896f }, { -0.136851f, 0.664361f }, { -0.149715f, 0.333268f }, { 0.144354f, 0.358442f }, { -0.135354f, -0.639666f }, { -0.140540f, 0.625044f }, { -0.152577f, 0.249789f }, { 0.138775f, 0.315338f }, { -0.124814f, -0.561284f }, { -0.144481f, 0.582439f }, { -0.155543f, 0.192375f }, { 0.135223f, 0.279829f }, { -0.116664f, -0.496912f }, { -0.148363f, 0.541793f }, { -0.158890f, 0.152063f }, { 0.133140f, 0.250810f }, { -0.110143f, -0.444426f }, { -0.152088f, 0.504911f }, { -0.162761f, 0.123171f }, { 0.132148f, 0.227023f }, { -0.104712f, -0.401486f }, { -0.155643f, 0.472163f }, { -0.167237f, 0.102087f }, { 0.131992f, 0.207382f }, { -0.099991f, -0.366097f }, { -0.159039f, 0.443349f }, { -0.172374f, 0.086480f }, { 0.132500f, 0.191028f }, { -0.095704f, -0.336689f }, { -0.162291f, 0.418071f }, { -0.178219f, 0.074812f }, { 0.133550f, 0.177296f }, { -0.091640f, -0.312054f }, { -0.165408f, 0.395891f }, { -0.184818f, 0.066050f }, { 0.135057f, 0.165677f }, { -0.087630f, -0.291275f }, { -0.168386f, 0.376394f }, { -0.192219f, 0.059481f }, { 0.136955f, 0.155782f }, { -0.083529f, -0.273651f }, { -0.171206f, 0.359208f }, { -0.200474f, 0.054610f }, { 0.139190f, 0.147311f }, { -0.079200f, -0.258649f }, { -0.173834f, 0.344005f }, { -0.209634f, 0.051082f }, { 0.141713f, 0.140034f }, { -0.074512f, -0.245856f }, { -0.176215f, 0.330500f }, { -0.219754f, 0.048643f }, { 0.144477f, 0.133773f }, { -0.069329f, -0.234958f }, { -0.178272f, 0.318447f }, { -0.230886f, 0.047103f }, { 0.147428f, 0.128389f }, { -0.063509f, -0.225711f }, { -0.179902f, 0.307624f }, { -0.243076f, 0.046324f }, { 0.150503f, 0.123779f }, { -0.056897f, -0.217931f }, { -0.180972f, 0.297835f }, { -0.256355f, 0.046196f }, { 0.153625f, 0.119866f }, { -0.049327f, -0.211477f }, { -0.181314f, 0.288897f }, { -0.270735f, 0.046629f }, { 0.156697f, 0.116598f }, { -0.040618f, -0.206245f }, { -0.180724f, 0.280640f }, { -0.286191f, 0.047545f }, { 0.159597f, 0.113943f }, { -0.030580f, -0.202159f }, { -0.178958f, 0.272901f }, { -0.302653f, 0.048867f }, { 0.162175f, 0.111887f }, { -0.019019f, -0.199163f }, { -0.175732f, 0.265519f }, { -0.319981f, 0.050513f }, { 0.164242f, 0.110436f }, { -0.005745f, -0.197219f }, { -0.170732f, 0.258336f }, { -0.337951f, 0.052385f }, { 0.165578f, 0.109611f }, { 0.009409f, -0.196290f }, { -0.163621f, 0.251199f }, { -0.356229f, 0.054368f }, { 0.165922f, 0.109451f }, { 0.026561f, -0.196343f }, { -0.154068f, 0.243962f }, { -0.374358f, 0.056316f }, { 0.164991f, 0.110002f }, { 0.045757f, -0.197329f }, { -0.141780f, 0.236495f }, { -0.391748f, 0.058058f }, { 0.162488f, 0.111320f }, { 0.066927f, -0.199180f }, { -0.126549f, 0.228692f }, { -0.407689f, 0.059392f }, { 0.158131f, 0.113458f }, { 0.089854f, -0.201793f }, { -0.108305f, 0.220486f }, { -0.421384f, 0.060099f }, { 0.151689f, 0.116463f }, { 0.114145f, -0.205027f }, { -0.087169f, 0.211863f }, { -0.432012f, 0.059953f }, { 0.143025f, 0.120358f }, { 0.139221f, -0.208696f }, { -0.063487f, 0.202868f }, { -0.438821f, 0.058746f }, { 0.132132f, 0.125137f }, { 0.164336f, -0.212578f }, { -0.037835f, 0.193606f }, { -0.441232f, 0.056314f }, { 0.119165f, 0.130760f }, { 0.188635f, -0.216424f }, { -0.010986f, 0.184238f }, { -0.438932f, 0.052556f }, { 0.104444f, 0.137147f }, { 0.211239f, -0.219984f }, { 0.016169f, 0.174958f }, { -0.431940f, 0.047454f }, { 0.088429f, 0.144189f }, { 0.231349f, -0.223030f }, { 0.042721f, 0.165971f }, { -0.420607f, 0.041071f }, { 0.071670f, 0.151758f }, { 0.248344f, -0.225381f }, { 0.067848f, 0.157459f }, { -0.405570f, 0.033537f }, { 0.054741f, 0.159725f }, { 0.261846f, -0.226916f }, { 0.090899f, 0.149566f }, { -0.387658f, 0.025030f }, { 0.038177f, 0.167974f }, { 0.271740f, -0.227582f }, { 0.111436f, 0.142380f }, { -0.367775f, 0.015746f }, { 0.022417f, 0.176413f }, { 0.278153f, -0.227381f }, { 0.129245f, 0.135930f }, { -0.346804f, 0.005870f }, { 0.007785f, 0.184982f }, { 0.281397f, -0.226360f }, { 0.144304f, 0.130193f }, { -0.325526f, -0.004437f }, { -0.005522f, 0.193651f }, { 0.281902f, -0.224589f }, { 0.156742f, 0.125106f }, { -0.304579f, -0.015052f }, { -0.017417f, 0.202417f }, { 0.280152f, -0.222146f }, { 0.166786f, 0.120569f }, { -0.284442f, -0.025894f }, { -0.027903f, 0.211296f }, { 0.276630f, -0.219100f }, { 0.174718f, 0.116466f }, { -0.265449f, -0.036918f }, { -0.037046f, 0.220316f }, { 0.271784f, -0.215505f }, { 0.180837f, 0.112666f }, { -0.247806f, -0.048113f }, { -0.044951f, 0.229511f }, { 0.266005f, -0.211388f }, { 0.185435f, 0.109031f }, { -0.231619f, -0.059490f }, { -0.051746f, 0.238910f }, { 0.259622f, -0.206753f }, { 0.188782f, 0.105420f }, { -0.216919f, -0.071082f }, { -0.057565f, 0.248538f }, { 0.252901f, -0.201576f }, { 0.191117f, 0.101686f }, { -0.203686f, -0.082928f }, { -0.062541f, 0.258403f }, { 0.246052f, -0.195804f }, { 0.192643f, 0.097684f }, { -0.191866f, -0.095070f }, { -0.066797f, 0.268497f }, { 0.239236f, -0.189365f }, { 0.193532f, 0.093265f }, { -0.181384f, -0.107547f }, { -0.070448f, 0.278787f }, { 0.232578f, -0.182161f }, { 0.193922f, 0.088275f }, { -0.172157f, -0.120389f }, { -0.073597f, 0.289211f }, { 0.226168f, -0.174076f }, { 0.193924f, 0.082562f }, { -0.164097f, -0.133605f }, { -0.076336f, 0.299672f }, { 0.220074f, -0.164982f }, { 0.193623f, 0.075975f }, { -0.157117f, -0.147181f }, { -0.078748f, 0.310033f }, { 0.214347f, -0.154740f }, { 0.193083f, 0.068366f }, { -0.151134f, -0.161072f }, { -0.080911f, 0.320112f }, { 0.209023f, -0.143213f }, { 0.192349f, 0.059602f }, { -0.146068f, -0.175191f }, { -0.082897f, 0.329680f }, { 0.204132f, -0.130277f }, { 0.191453f, 0.049571f }, { -0.141843f, -0.189405f }, { -0.084776f, 0.338460f }, { 0.199692f, -0.115830f }, { 0.190411f, 0.038194f }, { -0.138385f, -0.203534f }, { -0.086616f, 0.346133f }, { 0.195718f, -0.099813f }, { 0.189235f, 0.025441f }, { -0.135623f, -0.217342f }, { -0.088490f, 0.352348f }, { 0.192219f, -0.082227f }, { 0.187929f, 0.011344f }, { -0.133485f, -0.230550f }, { -0.090471f, 0.356741f }, { 0.189196f, -0.063148f }, { 0.186495f, -0.003993f }, { -0.131899f, -0.242843f }, { -0.092635f, 0.358961f }, { 0.186642f, -0.042743f }, { 0.184938f, -0.020384f }, { -0.130792f, -0.253888f }, { -0.095058f, 0.358703f }, { 0.184543f, -0.021275f }, { 0.183266f, -0.037564f }, { -0.130093f, -0.263365f }, { -0.097819f, 0.355739f }, { 0.182871f, 0.000895f }, { 0.181491f, -0.055200f }, { -0.129730f, -0.270991f }, { -0.100990f, 0.349953f }, { 0.181590f, 0.023333f }, { 0.179636f, -0.072908f }, { -0.129637f, -0.276550f }, { -0.104640f, 0.341364f }, { 0.180651f, 0.045551f }, { 0.177725f, -0.090288f }, { -0.129752f, -0.279919f }, { -0.108826f, 0.330130f }, { 0.179995f, 0.067050f }, { 0.000000f, 0.000000f }, { 0.000000f, 0.000000f }, { 0.000000f, 0.000000f }, { 0.000000f, 0.000000f }, { 0.248009f, -0.876127f }, { 0.228961f, 0.048853f }, { 0.227708f, 0.298974f }, { 0.228054f, 0.536549f }, { 0.246025f, -1.176103f }, { 0.190793f, 0.064953f }, { 0.189530f, 0.401054f }, { 0.193722f, 0.720204f }, { 0.247555f, -1.140148f }, { 0.157323f, 0.061894f }, { 0.160580f, 0.388252f }, { 0.174564f, 0.698237f }, { 0.252684f, -1.017269f }, { 0.128836f, 0.053770f }, { 0.141187f, 0.345588f }, { 0.170907f, 0.623304f }, { 0.260905f, -0.892549f }, { 0.101811f, 0.045376f }, { 0.127306f, 0.302079f }, { 0.178253f, 0.547629f }, { 0.271915f, -0.785279f }, { 0.073932f, 0.037774f }, { 0.116263f, 0.264273f }, { 0.193584f, 0.483120f }, { 0.285598f, -0.696517f }, { 0.044006f, 0.031002f }, { 0.106662f, 0.232490f }, { 0.215247f, 0.430514f }, { 0.301944f, -0.623274f }, { 0.011490f, 0.024874f }, { 0.097830f, 0.205679f }, { 0.242337f, 0.388060f }, { 0.321005f, -0.562250f }, { -0.023781f, 0.019200f }, { 0.089485f, 0.182691f }, { 0.274316f, 0.353809f }, { 0.342860f, -0.510671f }, { -0.061735f, 0.013833f }, { 0.081572f, 0.162568f }, { 0.310819f, 0.326120f }, { 0.367600f, -0.466368f }, { -0.102116f, 0.008677f }, { 0.074177f, 0.144571f }, { 0.351543f, 0.303711f }, { 0.395313f, -0.427681f }, { -0.144511f, 0.003682f }, { 0.067479f, 0.128150f }, { 0.396178f, 0.285585f }, { 0.426073f, -0.393340f }, { -0.188352f, -0.001158f }, { 0.061732f, 0.112902f }, { 0.444365f, 0.270962f }, { 0.459923f, -0.362375f }, { -0.232917f, -0.005811f }, { 0.057245f, 0.098545f }, { 0.495661f, 0.259209f }, { 0.496866f, -0.334045f }, { -0.277327f, -0.010210f }, { 0.054368f, 0.084889f }, { 0.549512f, 0.249797f }, { 0.536847f, -0.307792f }, { -0.320543f, -0.014256f }, { 0.053478f, 0.071820f }, { 0.605230f, 0.242262f }, { 0.579737f, -0.283204f }, { -0.361377f, -0.017825f }, { 0.054965f, 0.059285f }, { 0.661983f, 0.236179f }, { 0.625327f, -0.259999f }, { -0.398511f, -0.020771f }, { 0.059210f, 0.047278f }, { 0.718783f, 0.231150f }, { 0.673310f, -0.238005f }, { -0.430531f, -0.022938f }, { 0.066563f, 0.035829f }, { 0.774497f, 0.226787f }, { 0.723278f, -0.217154f }, { -0.455972f, -0.024171f }, { 0.077318f, 0.024987f }, { 0.827864f, 0.222719f }, { 0.774723f, -0.197470f }, { -0.473384f, -0.024328f }, { 0.091683f, 0.014809f }, { 0.877528f, 0.218585f }, { 0.827043f, -0.179063f }, { -0.481407f, -0.023299f }, { 0.109758f, 0.005339f }, { 0.922086f, 0.214053f }, { 0.879558f, -0.162122f }, { -0.478854f, -0.021023f }, { 0.131506f, -0.003401f }, { 0.960150f, 0.208823f }, { 0.931535f, -0.146900f }, { -0.464795f, -0.017501f }, { 0.156743f, -0.011435f }, { 0.990416f, 0.202653f }, { 0.982216f, -0.133705f }, { -0.438628f, -0.012813f }, { 0.185127f, -0.018840f }, { 1.011736f, 0.195366f }, { 1.030853f, -0.122883f }, { -0.400140f, -0.007128f }, { 0.216164f, -0.025760f }, { 1.023178f, 0.186874f }, { 1.076739f, -0.114802f }, { -0.349536f, -0.000709f }, { 0.249221f, -0.032408f }, { 1.024086f, 0.177190f }, { 1.119237f, -0.109840f }, { -0.287442f, 0.006088f }, { 0.283552f, -0.039069f }, { 1.014104f, 0.166433f }, { 1.157799f, -0.108369f }, { -0.214882f, 0.012822f }, { 0.318330f, -0.046086f }, { 0.993193f, 0.154835f }, { 1.191975f, -0.110743f }, { -0.133230f, 0.018978f }, { 0.352682f, -0.053854f }, { 0.961614f, 0.142741f }, { 1.221411f, -0.117293f }, { -0.044146f, 0.023981f }, { 0.385722f, -0.062801f }, { 0.919902f, 0.130599f }, { 1.245839f, -0.128316f }, { 0.050498f, 0.027220f }, { 0.416582f, -0.073362f }, { 0.868821f, 0.118955f }, { 1.265054f, -0.144075f }, { 0.148681f, 0.028066f }, { 0.444440f, -0.085958f }, { 0.809317f, 0.108437f }, { 1.278886f, -0.164789f }, { 0.248300f, 0.025897f }, { 0.468535f, -0.100971f }, { 0.742469f, 0.099739f }, { 1.287177f, -0.190630f }, { 0.347215f, 0.020120f }, { 0.488180f, -0.118708f }, { 0.669453f, 0.093610f }, { 1.289758f, -0.221707f }, { 0.443289f, 0.010201f }, { 0.502775f, -0.139378f }, { 0.591509f, 0.090827f }, { 1.286423f, -0.258053f }, { 0.534413f, -0.004304f }, { 0.511811f, -0.163052f }, { 0.509930f, 0.092175f }, { 1.276932f, -0.299599f }, { 0.618531f, -0.023713f }, { 0.514881f, -0.189637f }, { 0.426050f, 0.098416f }, { 1.261005f, -0.346148f }, { 0.693670f, -0.048181f }, { 0.511698f, -0.218837f }, { 0.341246f, 0.110251f }, { 1.238350f, -0.397341f }, { 0.757979f, -0.077652f }, { 0.502110f, -0.250129f }, { 0.256945f, 0.128269f }, { 1.208693f, -0.452622f }, { 0.809785f, -0.111818f }, { 0.486128f, -0.282739f }, { 0.174615f, 0.152894f }, { 1.171830f, -0.511215f }, { 0.847671f, -0.150080f }, { 0.463953f, -0.315646f }, { 0.095753f, 0.184320f }, { 1.127688f, -0.572109f }, { 0.870573f, -0.191531f }, { 0.436003f, -0.347593f }, { 0.021855f, 0.222450f }, { 1.076388f, -0.634067f }, { 0.877889f, -0.234953f }, { 0.402933f, -0.377142f }, { -0.045642f, 0.266845f }, { 1.018302f, -0.695665f }, { 0.869573f, -0.278856f }, { 0.365634f, -0.402755f }, { -0.105430f, 0.316694f }, { 0.954094f, -0.755364f }, { 0.846214f, -0.321552f }, { 0.325210f, -0.422901f }, { -0.156423f, 0.370818f }, { 0.884720f, -0.811606f }, { 0.809050f, -0.361264f }, { 0.282934f, -0.436190f }, { -0.197840f, 0.427725f }, { 0.811404f, -0.862937f }, { 0.759931f, -0.396264f }, { 0.240168f, -0.441497f }, { -0.229281f, 0.485691f }, { 0.735564f, -0.908118f }, { 0.701202f, -0.425015f }, { 0.198276f, -0.438075f }, { -0.250766f, 0.542898f }, { 0.658711f, -0.946227f }, { 0.635525f, -0.446292f }, { 0.158523f, -0.425621f }, { -0.262737f, 0.597570f }, { 0.582339f, -0.976718f }, { 0.565674f, -0.459278f }, { 0.121996f, -0.404294f }, { -0.266008f, 0.648109f }, { 0.507815f, -0.999444f }, { 0.494324f, -0.463593f }, { 0.089540f, -0.374675f }, { -0.261684f, 0.693211f }, { 0.436294f, -1.014620f }, { 0.423873f, -0.459288f }, { 0.061730f, -0.337690f }, { -0.251053f, 0.731928f }, { 0.368661f, -1.022770f }, { 0.356310f, -0.446783f }, { 0.038875f, -0.294498f }, { -0.235482f, 0.763688f }, { 0.305514f, -1.024636f }, { 0.293158f, -0.426784f }, { 0.021046f, -0.246384f }, { -0.216311f, 0.788276f }, { 0.247172f, -1.021093f }, { 0.235460f, -0.400184f }, { 0.008124f, -0.194653f }, { -0.194784f, 0.805782f }, { 0.193711f, -1.013067f }, { 0.183819f, -0.367974f }, { -0.000146f, -0.140550f }, { -0.171995f, 0.816527f }, { 0.145008f, -1.001469f }, { 0.138465f, -0.331164f }, { -0.004106f, -0.085203f }, { -0.148866f, 0.820996f }, { 0.100787f, -0.987144f }, { 0.099336f, -0.290728f }, { -0.004136f, -0.029596f }, { -0.126144f, 0.819767f }, { 0.060671f, -0.970844f }, { 0.066153f, -0.247559f }, { -0.000620f, 0.025444f }, { -0.104415f, 0.813454f }, { 0.024218f, -0.953210f }, { 0.038497f, -0.202455f }, { 0.006080f, 0.079242f }, { -0.084124f, 0.802669f }, { -0.009046f, -0.934770f }, { 0.015867f, -0.156111f }, { 0.015638f, 0.131252f }, { -0.065602f, 0.787985f }, { -0.039601f, -0.915937f }, { -0.002272f, -0.109118f }, { 0.027773f, 0.181047f }, { -0.049091f, 0.769922f }, { -0.067919f, -0.897025f }, { -0.016456f, -0.061982f }, { 0.042250f, 0.228285f }, { -0.034767f, 0.748939f }, { -0.094452f, -0.878253f }, { -0.027195f, -0.015126f }, { 0.058876f, 0.272691f }, { -0.022766f, 0.725426f }, { -0.119624f, -0.859758f }, { -0.034961f, 0.031084f }, { 0.077491f, 0.314039f }, { -0.013197f, 0.699712f }, { -0.143829f, -0.841604f }, { -0.040177f, 0.076327f }, { 0.097963f, 0.352125f }, { -0.006160f, 0.672069f }, { -0.167428f, -0.823790f }, { -0.043213f, 0.120316f }, { 0.120171f, 0.386760f }, { -0.001751f, 0.642719f }, { -0.190747f, -0.806262f }, { -0.044388f, 0.162775f }, { 0.143994f, 0.417752f }, { -0.000075f, 0.611847f }, { -0.214078f, -0.788913f }, { -0.043966f, 0.203436f }, { 0.169296f, 0.444901f }, { -0.001245f, 0.579610f }, { -0.237673f, -0.771595f }, { -0.042165f, 0.242022f }, { 0.195907f, 0.467991f }, { -0.005384f, 0.546148f }, { -0.261744f, -0.754118f }, { -0.039156f, 0.278244f }, { 0.223609f, 0.486790f }, { -0.012618f, 0.511601f }, { -0.286458f, -0.736263f }, { -0.035073f, 0.311791f }, { 0.252115f, 0.501055f }, { -0.023074f, 0.476116f }, { -0.311928f, -0.717783f }, { -0.030012f, 0.342335f }, { 0.281055f, 0.510541f }, { -0.036861f, 0.439868f }, { -0.338207f, -0.698415f }, { -0.024045f, 0.369532f }, { 0.309955f, 0.515013f }, { -0.054062f, 0.403068f }, { -0.365281f, -0.677890f }, { -0.017219f, 0.393031f }, { 0.338234f, 0.514271f }, { -0.074707f, 0.365974f }, { -0.393063f, -0.655948f }, { -0.009572f, 0.412486f }, { 0.365195f, 0.508174f }, { -0.098756f, 0.328904f }, { -0.421384f, -0.632352f }, { -0.001135f, 0.427585f }, { 0.390032f, 0.496670f }, { -0.126075f, 0.292238f }, { -0.449995f, -0.606912f }, { 0.008054f, 0.438065f }, { 0.411852f, 0.479830f }, { -0.156412f, 0.256417f }, { -0.478569f, -0.579500f }, { 0.017944f, 0.443750f }, { 0.429707f, 0.457881f }, { -0.189385f, 0.221933f }, { -0.506717f, -0.550068f }, { 0.028460f, 0.444572f }, { 0.442644f, 0.431222f }, { -0.224473f, 0.189310f }, { -0.534003f, -0.518664f }, { 0.039500f, 0.440598f }, { 0.449766f, 0.400442f }, { -0.261021f, 0.159079f }, { -0.559972f, -0.485437f }, { 0.050929f, 0.432046f }, { 0.450297f, 0.366313f }, { -0.298261f, 0.131744f }, { -0.584186f, -0.450630f }, { 0.062581f, 0.419283f }, { 0.443650f, 0.329763f }, { -0.335346f, 0.107745f }, { -0.606250f, -0.414572f }, { 0.074262f, 0.402813f }, { 0.429480f, 0.291834f }, { -0.371398f, 0.087424f }, { -0.625848f, -0.377652f }, { 0.085761f, 0.383250f }, { 0.407713f, 0.253626f }, { -0.405560f, 0.070995f }, { -0.642763f, -0.340287f }, { 0.096856f, 0.361272f }, { 0.378562f, 0.216232f }, { -0.437045f, 0.058532f }, { -0.656888f, -0.302890f }, { 0.107327f, 0.337579f }, { 0.342499f, 0.180674f }, { -0.465187f, 0.049959f }, { -0.668228f, -0.265838f }, { 0.116966f, 0.312846f }, { 0.300219f, 0.147854f }, { -0.489465f, 0.045064f }, { -0.676888f, -0.229448f }, { 0.125587f, 0.287675f }, { 0.252579f, 0.118513f }, { -0.509520f, 0.043517f }, { -0.683053f, -0.193955f }, { 0.133027f, 0.262571f }, { 0.200535f, 0.093219f }, { -0.525154f, 0.044895f }, { -0.686962f, -0.159507f }, { 0.139151f, 0.237921f }, { 0.145083f, 0.072360f }, { -0.536309f, 0.048716f }, { -0.688886f, -0.126160f }, { 0.143849f, 0.213992f }, { 0.087205f, 0.056167f }, { -0.543049f, 0.054460f }, { -0.689098f, -0.093887f }, { 0.147034f, 0.190931f }, { 0.027832f, 0.044729f }, { -0.545522f, 0.061596f }, { -0.687853f, -0.062589f }, { 0.148638f, 0.168782f }, { -0.032175f, 0.038030f }, { -0.543938f, 0.069595f }, { -0.685370f, -0.032108f }, { 0.148603f, 0.147504f }, { -0.092033f, 0.035971f }, { -0.538536f, 0.077942f }, { -0.681822f, -0.002240f }, { 0.146883f, 0.126994f }, { -0.151034f, 0.038392f }, { -0.529568f, 0.086138f }, { -0.677321f, 0.027244f }, { 0.143438f, 0.107107f }, { -0.208533f, 0.045099f }, { -0.517279f, 0.093701f }, { -0.671918f, 0.056590f }, { 0.138230f, 0.087680f }, { -0.263926f, 0.055864f }, { -0.501902f, 0.100162f }, { -0.665595f, 0.086038f }, { 0.131230f, 0.068553f }, { -0.316634f, 0.070436f }, { -0.483656f, 0.105062f }, { -0.658272f, 0.115811f }, { 0.122417f, 0.049590f }, { -0.366080f, 0.088532f }, { -0.462747f, 0.107947f }, { -0.649805f, 0.146097f }, { 0.111785f, 0.030703f }, { -0.411677f, 0.109828f }, { -0.439379f, 0.108373f }, { -0.639992f, 0.177029f }, { 0.099353f, 0.011865f }, { -0.452816f, 0.133943f }, { -0.413767f, 0.105909f }, { -0.628591f, 0.208672f }, { 0.085175f, -0.006866f }, { -0.488873f, 0.160419f }, { -0.386152f, 0.100150f }, { -0.615330f, 0.240997f }, { 0.069353f, -0.025335f }, { -0.519214f, 0.188703f }, { -0.356820f, 0.090735f }, { -0.599932f, 0.273873f }, { 0.052047f, -0.043279f }, { -0.543233f, 0.218130f }, { -0.326118f, 0.077378f }, { -0.582144f, 0.307051f }, { 0.033491f, -0.060330f }, { -0.560388f, 0.247919f }, { -0.294467f, 0.059900f }, { -0.561768f, 0.340161f }, { 0.013996f, -0.076019f }, { -0.570257f, 0.277182f }, { -0.262365f, 0.038267f }, { -0.538698f, 0.372726f }, { -0.006053f, -0.089804f }, { -0.572604f, 0.304948f }, { -0.230387f, 0.012620f }, { -0.512946f, 0.404182f }, { -0.026204f, -0.101108f }, { -0.567433f, 0.330208f }, { -0.199159f, -0.016697f }, { -0.484671f, 0.433920f }, { -0.045965f, -0.109367f }, { -0.555036f, 0.351982f }, { -0.169331f, -0.049133f }, { -0.454178f, 0.461335f }, { -0.064829f, -0.114088f }, { -0.536012f, 0.369393f }, { -0.141531f, -0.083950f }, { -0.421911f, 0.485884f }, { -0.082318f, -0.114902f }, { -0.511249f, 0.381736f }, { -0.116322f, -0.120263f }, { -0.388420f, 0.507138f }, { -0.098017f, -0.111604f }, { -0.481874f, 0.388545f }, { -0.094150f, -0.157105f }, { -0.354318f, 0.524822f }, { -0.111606f, -0.104179f }, { -0.449166f, 0.389620f }, { -0.075317f, -0.193501f }, { -0.320231f, 0.538833f }, { -0.122877f, -0.092799f }, { -0.414458f, 0.385035f }, { -0.059961f, -0.228545f }, { -0.286741f, 0.549244f }, { -0.131745f, -0.077800f }, { -0.379040f, 0.375108f }, { -0.048061f, -0.261459f }, { -0.254352f, 0.556279f }, { -0.138230f, -0.059643f }, { -0.344065f, 0.360355f }, { -0.039456f, -0.291640f }, { -0.223460f, 0.560282f }, { -0.142449f, -0.038866f }, { -0.310498f, 0.341418f }, { -0.033873f, -0.318668f }, { -0.194339f, 0.561673f }, { -0.144582f, -0.016042f }, { -0.279082f, 0.319005f }, { -0.030970f, -0.342312f }, { -0.167149f, 0.560913f }, { -0.144847f, 0.008270f }, { -0.250337f, 0.293831f }, { -0.030366f, -0.362496f }, { -0.141939f, 0.558466f }, { -0.143480f, 0.033547f }, { -0.224577f, 0.266573f }, { -0.031676f, -0.379280f }, { -0.118674f, 0.554774f }, { -0.140707f, 0.059326f }, { -0.201942f, 0.237837f }, { -0.034533f, -0.392812f }, { -0.097246f, 0.550240f }, { -0.136740f, 0.085210f }, { -0.182435f, 0.208147f }, { -0.038602f, -0.403303f }, { -0.077499f, 0.545217f }, { -0.131756f, 0.110872f }, { -0.165962f, 0.177933f }, { -0.043590f, -0.410995f }, { -0.059239f, 0.540006f }, { -0.125901f, 0.136045f }, { -0.152360f, 0.147542f }, { -0.049249f, -0.416137f }, { -0.042253f, 0.534856f }, { -0.119284f, 0.160520f }, { -0.141430f, 0.117240f }, { -0.055372f, -0.418967f }, { -0.026314f, 0.529966f }, { -0.111980f, 0.184129f }, { -0.132958f, 0.087225f }, { -0.061792f, -0.419700f }, { -0.011187f, 0.525489f }, { -0.104029f, 0.206740f }, { -0.126729f, 0.057642f }, { -0.068373f, -0.418524f }, { 0.003366f, 0.521542f }, { -0.095440f, 0.228243f }, { -0.122540f, 0.028591f }, { -0.075003f, -0.415587f }, { 0.017586f, 0.518203f }, { -0.086197f, 0.248539f }, { -0.120212f, 0.000141f }, { -0.081591f, -0.411002f }, { 0.031714f, 0.515518f }, { -0.076259f, 0.267535f }, { -0.119586f, -0.027657f }, { -0.088054f, -0.404845f }, { 0.045998f, 0.513499f }, { -0.065563f, 0.285127f }, { -0.120534f, -0.054766f }, { -0.094314f, -0.397150f }, { 0.060691f, 0.512129f }, { -0.054033f, 0.301200f }, { -0.122952f, -0.081148f }, { -0.100284f, -0.387915f }, { 0.076055f, 0.511354f }, { -0.041581f, 0.315610f }, { -0.126768f, -0.106756f }, { -0.105867f, -0.377102f }, { 0.092362f, 0.511081f }, { -0.028114f, 0.328184f }, { -0.131929f, -0.131525f }, { -0.110937f, -0.364638f }, { 0.109891f, 0.511168f }, { -0.013547f, 0.338702f }, { -0.138405f, -0.155358f }, { -0.115337f, -0.350420f }, { 0.128933f, 0.511417f }, { 0.002190f, 0.346898f }, { -0.146182f, -0.178122f }, { -0.118860f, -0.334321f }, { 0.149777f, 0.511557f }, { 0.019130f, 0.352449f }, { -0.155249f, -0.199625f }, { -0.121238f, -0.316195f }, { 0.172699f, 0.511232f }, { 0.037246f, 0.354971f }, { -0.165591f, -0.219613f }, { -0.122127f, -0.295898f }, { 0.197943f, 0.509987f }, { 0.056419f, 0.354026f }, { -0.177169f, -0.237751f }, { -0.121096f, -0.273306f }, { 0.225686f, 0.507250f }, { 0.076400f, 0.349134f }, { -0.189899f, -0.253619f }, { -0.117619f, -0.248347f }, { 0.255986f, 0.502332f }, { 0.096761f, 0.339805f }, { -0.203619f, -0.266709f }, { -0.111074f, -0.221048f }, { 0.288729f, 0.494439f }, { 0.116848f, 0.325594f }, { -0.218064f, -0.276441f }, { -0.100764f, -0.191585f }, { 0.323547f, 0.482710f }, { 0.135743f, 0.306177f }, { -0.232826f, -0.282197f }, { -0.085964f, -0.160351f }, { 0.359754f, 0.466291f }, { 0.152254f, 0.281462f }, { -0.247331f, -0.283388f }, { -0.066001f, -0.128014f }, { 0.396295f, 0.444461f }, { 0.164951f, 0.251710f }, { -0.260834f, -0.279556f }, { -0.040369f, -0.095554f }, { 0.431755f, 0.416780f }, { 0.172282f, 0.217645f }, { -0.272455f, -0.270494f }, { -0.008873f, -0.064249f }, { 0.464451f, 0.383256f }, { 0.172765f, 0.180511f }, { -0.281257f, -0.256370f }, { 0.028229f, -0.035592f }, { 0.492615f, 0.344463f }, { 0.165232f, 0.142027f }, { -0.286370f, -0.237814f }, { 0.070144f, -0.011119f }, { 0.514660f, 0.301573f }, { 0.149082f, 0.104220f }, { -0.287140f, -0.215910f }, { 0.115554f, 0.007821f }, { 0.529449f, 0.256237f }, { 0.124445f, 0.069149f }, { -0.283253f, -0.192099f }, { 0.162755f, 0.020301f }, { 0.536491f, 0.210364f }, { 0.092198f, 0.038598f }, { -0.274801f, -0.167970f }, { 0.209901f, 0.025972f }, { 0.535995f, 0.165825f }, { 0.053813f, 0.013819f }, { -0.262252f, -0.145033f }, { 0.255272f, 0.025107f }, { 0.528777f, 0.124200f }, { 0.011099f, -0.004591f }, { -0.246352f, -0.124514f }, { 0.297513f, 0.018496f }, { 0.516056f, 0.086607f }, { -0.034093f, -0.016666f }, { -0.227979f, -0.107242f }, { 0.335750f, 0.007271f }, { 0.499219f, 0.053664f }, { -0.080104f, -0.022939f }, { -0.208010f, -0.093629f }, { 0.369600f, -0.007307f }, { 0.479624f, 0.025538f }, { -0.125609f, -0.024259f }, { -0.187220f, -0.083734f }, { 0.399097f, -0.024023f }, { 0.458462f, 0.002055f }, { -0.169662f, -0.021614f }, { -0.166229f, -0.077354f }, { 0.424569f, -0.041814f }, { 0.436694f, -0.017177f }, { -0.211671f, -0.015995f }, { -0.145490f, -0.074128f }, { 0.446516f, -0.059827f }, { 0.415036f, -0.032670f }, { -0.251333f, -0.008318f }, { -0.125305f, -0.073625f }, { 0.465514f, -0.077421f }, { 0.393987f, -0.044970f }, { -0.288559f, 0.000629f }, { -0.105850f, -0.075402f }, { 0.482143f, -0.094139f }, { 0.373863f, -0.054608f }, { -0.323404f, 0.010185f }, { -0.087206f, -0.079046f }, { 0.496941f, -0.109675f }, { 0.354839f, -0.062073f }, { -0.356012f, 0.019815f }, { -0.069390f, -0.084193f }, { 0.510381f, -0.123835f }, { 0.336982f, -0.067798f }, { -0.386566f, 0.029085f }, { -0.052375f, -0.090538f }, { 0.522868f, -0.136497f }, { 0.320287f, -0.072161f }, { -0.415261f, 0.037644f }, { -0.036109f, -0.097832f }, { 0.534735f, -0.147588f }, { 0.304693f, -0.075486f }, { -0.442282f, 0.045200f }, { -0.020526f, -0.105881f }, { 0.546246f, -0.157053f }, { 0.290103f, -0.078057f }, { -0.467785f, 0.051499f }, { -0.005559f, -0.114541f }, { 0.557600f, -0.164838f }, { 0.276393f, -0.080124f }, { -0.491883f, 0.056308f }, { 0.008857f, -0.123709f }, { 0.568939f, -0.170876f }, { 0.263421f, -0.081914f }, { -0.514637f, 0.059395f }, { 0.022778f, -0.133320f }, { 0.580338f, -0.175065f }, { 0.251025f, -0.083648f }, { -0.536040f, 0.060521f }, { 0.036248f, -0.143338f }, { 0.591810f, -0.177261f }, { 0.239028f, -0.085548f }, { -0.555999f, 0.059423f }, { 0.049293f, -0.153758f }, { 0.603287f, -0.177256f }, { 0.227232f, -0.087858f }, { -0.574310f, 0.055806f }, { 0.061918f, -0.164591f }, { 0.614606f, -0.174767f }, { 0.215422f, -0.090859f }, { -0.590629f, 0.049336f }, { 0.074096f, -0.175867f }, { 0.625475f, -0.169414f }, { 0.203356f, -0.094887f }, { -0.604427f, 0.039645f }, { 0.085761f, -0.187620f }, { 0.635434f, -0.160701f }, { 0.190771f, -0.100363f }, { -0.614932f, 0.026340f }, { 0.096796f, -0.199875f }, { 0.643790f, -0.148001f }, { 0.177385f, -0.107816f }, { -0.621068f, 0.009048f }, { 0.107011f, -0.212625f }, { 0.649543f, -0.130545f }, { 0.162916f, -0.117908f }, { -0.621387f, -0.012508f }, { 0.116130f, -0.225797f }, { 0.651292f, -0.107449f }, { 0.147126f, -0.131446f }, { -0.614029f, -0.038361f }, { 0.123762f, -0.239192f }, { 0.647151f, -0.077780f }, { 0.129890f, -0.149353f }, { -0.596764f, -0.068061f }, { 0.129400f, -0.252408f }, { 0.634717f, -0.040729f }, { 0.111331f, -0.172570f }, { -0.567211f, -0.100320f }, { 0.132438f, -0.264743f }, { 0.611185f, 0.004056f }, { 0.091987f, -0.201825f }, { -0.523377f, -0.132601f }, { 0.132260f, -0.275114f }, { 0.573766f, 0.055956f }, { 0.073000f, -0.237255f }, { -0.464606f, -0.160797f }, { 0.128420f, -0.282051f }, { 0.520552f, 0.112722f }, { 0.056185f, -0.277927f }, { -0.392823f, -0.179375f }, { 0.120928f, -0.283883f }, { 0.451820f, 0.169972f }, { 0.043810f, -0.321525f }, { -0.313482f, -0.182367f }, { 0.110532f, -0.279190f }, { 0.371306f, 0.221359f }, { 0.038004f, -0.364559f }, { -0.235270f, -0.165244f }, { 0.098799f, -0.267402f }, { 0.286479f, 0.259905f }, { 0.039968f, -0.403294f }, { -0.167981f, -0.126836f }, { 0.087800f, -0.249224f }, { 0.206979f, 0.280231f }, { 0.049483f, -0.435009f }, { -0.119365f, -0.069991f }, { 0.079467f, -0.226505f }, { 0.141631f, 0.280481f }, { 0.065068f, -0.458813f }, { -0.092877f, -0.000366f }, { 0.075016f, -0.201579f }, { 0.095796f, 0.262639f }, { 0.084627f, -0.475589f }, { -0.087545f, 0.075786f }, { 0.074748f, -0.176483f }, { 0.070554f, 0.231190f }, { 0.106144f, -0.487307f }, { -0.099517f, 0.153439f }, { 0.078247f, -0.152511f }, { 0.063721f, 0.191229f }, { 0.128068f, -0.496260f }, { -0.123935f, 0.229542f }, { 0.084737f, -0.130162f }, { 0.071526f, 0.147079f }, { 0.149374f, -0.504568f }, { -0.156233f, 0.302892f }, { 0.093379f, -0.109324f }, { 0.089976f, 0.101748f }, { 0.169435f, -0.513995f }, { -0.192675f, 0.373631f }, { 0.103432f, -0.089505f }, { 0.115564f, 0.056981f }, { 0.187831f, -0.525961f }, { -0.230377f, 0.442736f }, { 0.114302f, -0.070000f }, { 0.145462f, 0.013547f }, { 0.204157f, -0.541632f }, { -0.267065f, 0.511654f }, { 0.125528f, -0.049977f }, { 0.177401f, -0.028438f }, { 0.217845f, -0.562024f }, { -0.300739f, 0.582059f }, { 0.136734f, -0.028506f }, { 0.209415f, -0.069259f }, { 0.227961f, -0.588062f }, { -0.329315f, 0.655701f }, { 0.147578f, -0.004544f }, { 0.239513f, -0.109414f }, { 0.232975f, -0.620579f }, { -0.350219f, 0.734239f }, { 0.157685f, 0.023088f }, { 0.265284f, -0.149468f }, { 0.230441f, -0.660196f }, { -0.359947f, 0.818969f }, { 0.166573f, 0.055722f }, { 0.283419f, -0.189896f }, { 0.216605f, -0.706998f }, { -0.353574f, 0.910299f }, { 0.173571f, 0.094778f }, { 0.289125f, -0.230867f }, { 0.186014f, -0.759879f }, { -0.324364f, 1.006731f }, { 0.177729f, 0.141525f }, { 0.275508f, -0.271873f }, { 0.131437f, -0.815391f }, { -0.263884f, 1.103183f }, { 0.177774f, 0.196479f }, { 0.233287f, -0.311155f }, { 0.044867f, -0.866180f }, { -0.163579f, 1.188734f }, { 0.172235f, 0.258240f }, { 0.151742f, -0.344970f }, { -0.079176f, -0.899833f }, { -0.019165f, 1.245130f }, { 0.159955f, 0.321829f }, { 0.022494f, -0.367173f }, { -0.237522f, -0.900402f }, { 0.161964f, 1.249383f }, { 0.141117f, 0.377612f }, { -0.152934f, -0.370248f }, { -0.412619f, -0.855117f }, { 0.354939f, 1.183944f }, { 0.118317f, 0.413184f }, { -0.355299f, -0.348858f }, { -0.575079f, -0.763978f }, { 0.522642f, 1.050664f }, { 0.096342f, 0.419407f }, { -0.549322f, -0.304460f }, { -0.697575f, -0.642867f }, { 0.633896f, 0.874575f }, { 0.079974f, 0.396462f }, { -0.699916f, -0.246205f }, { -0.768686f, -0.514851f }, { 0.679101f, 0.690335f }, { 0.071550f, 0.353421f }, { -0.790050f, -0.186049f }, { -0.793919f, -0.398222f }, { 0.669008f, 0.524618f }, { 0.070554f, 0.302028f }, { -0.823677f, -0.132830f }, { -0.786911f, -0.301584f }, { 0.622583f, 0.389401f }, { 0.074940f, 0.251266f }, { -0.815889f, -0.090248f }, { -0.761188f, -0.225913f }, { 0.557042f, 0.285450f }, { 0.082525f, 0.205907f }, { -0.782730f, -0.058248f }, { -0.726679f, -0.168431f }, { 0.484276f, 0.208214f }, { 0.091632f, 0.167540f }, { -0.736467f, -0.035087f }, { -0.689569f, -0.125343f }, { 0.411238f, 0.151856f }, { 0.101172f, 0.136026f }, { -0.685020f, -0.018680f }, { -0.653294f, -0.093125f }, { 0.341473f, 0.111088f }, { 0.110509f, 0.110509f }, { -0.632971f, -0.007198f }, { -0.619564f, -0.068929f }, { 0.276486f, 0.081712f }, { 0.119299f, 0.089961f }, { -0.582730f, 0.000783f }, { -0.589095f, -0.050592f }, { 0.216672f, 0.060587f }, { 0.127373f, 0.073414f }, { -0.535420f, 0.006308f }, { -0.562067f, -0.036515f }, { 0.161874f, 0.045434f }, { 0.134659f, 0.060040f }, { -0.491436f, 0.010119f }, { -0.538392f, -0.025528f }, { 0.111681f, 0.034625f }, { 0.141136f, 0.049157f }, { -0.450791f, 0.012736f }, { -0.517862f, -0.016775f }, { 0.065595f, 0.026999f }, { 0.146803f, 0.040217f }, { -0.413302f, 0.014518f }, { -0.500223f, -0.009621f }, { 0.023114f, 0.021733f }, { 0.151670f, 0.032777f }, { -0.378706f, 0.015709f }, { -0.485223f, -0.003593f }, { -0.016235f, 0.018245f }, { 0.155746f, 0.026478f }, { -0.346709f, 0.016468f }, { -0.472626f, 0.001676f }, { -0.052880f, 0.016125f }, { 0.159033f, 0.021029f }, { -0.317022f, 0.016897f }, { -0.462218f, 0.006473f }, { -0.087198f, 0.015089f }, { 0.161525f, 0.016185f }, { -0.289374f, 0.017051f }, { -0.453814f, 0.011034f }, { -0.119517f, 0.014943f }, { 0.163206f, 0.011741f }, { -0.263516f, 0.016948f }, { -0.447255f, 0.015563f }, { -0.150123f, 0.015563f }, { 0.164047f, 0.007518f }, { -0.239227f, 0.016579f }, { -0.442400f, 0.020242f }, { -0.179258f, 0.016876f }, { 0.164006f, 0.003359f }, { -0.216310f, 0.015906f }, { -0.439127f, 0.025245f }, { -0.207127f, 0.018850f }, { 0.163026f, -0.000876f }, { -0.194593f, 0.014867f }, { -0.437324f, 0.030747f }, { -0.233898f, 0.021488f }, { 0.161031f, -0.005317f }, { -0.173928f, 0.013374f }, { -0.436884f, 0.036932f }, { -0.259700f, 0.024818f }, { 0.157929f, -0.010080f }, { -0.154191f, 0.011307f }, { -0.437696f, 0.043997f }, { -0.284625f, 0.028891f }, { 0.153606f, -0.015274f }, { -0.135284f, 0.008520f }, { -0.439638f, 0.052164f }, { -0.308718f, 0.033777f }, { 0.147925f, -0.020991f }, { -0.117133f, 0.004827f }, { -0.442560f, 0.061678f }, { -0.331972f, 0.039557f }, { 0.140728f, -0.027311f }, { -0.099697f, 0.000002f }, { -0.446273f, 0.072816f }, { -0.354317f, 0.046323f }, { 0.131834f, -0.034287f }, { -0.082971f, -0.006223f }, { -0.450526f, 0.085885f }, { -0.375604f, 0.054162f }, { 0.121046f, -0.041936f }, { -0.066993f, -0.014167f }, { -0.454987f, 0.101216f }, { -0.395585f, 0.063147f }, { 0.108158f, -0.050226f }, { -0.051859f, -0.024195f }, { -0.459209f, 0.119153f }, { -0.413893f, 0.073317f }, { 0.092974f, -0.059046f }, { -0.037727f, -0.036711f }, { -0.462612f, 0.140025f }, { -0.430025f, 0.084647f }, { 0.075333f, -0.068187f }, { -0.024840f, -0.052135f }, { -0.464451f, 0.164100f }, { -0.443323f, 0.097012f }, { 0.055156f, -0.077301f }, { -0.013526f, -0.070874f }, { -0.463815f, 0.191522f }, { -0.452982f, 0.110144f }, { 0.032504f, -0.085874f }, { -0.004204f, -0.093249f }, { -0.459644f, 0.222215f }, { -0.458086f, 0.123585f }, { 0.007648f, -0.093207f }, { 0.002629f, -0.119411f }, { -0.450808f, 0.255786f }, { -0.457691f, 0.136651f }, { -0.018849f, -0.098415f }, { 0.006441f, -0.149227f }, { -0.436237f, 0.291423f }, { -0.450967f, 0.148425f }, { -0.046079f, -0.100489f }, { 0.006741f, -0.182154f }, { -0.415127f, 0.327853f }, { -0.437398f, 0.157814f }, { -0.072782f, -0.098405f }, { 0.003180f, -0.217154f }, { -0.387171f, 0.363391f }, { -0.416994f, 0.163667f }, { -0.097435f, -0.091306f }, { -0.004325f, -0.252693f }, { -0.352755f, 0.396121f }, { -0.390444f, 0.164965f }, { -0.118442f, -0.078701f }, { -0.015494f, -0.286865f }, { -0.313025f, 0.424196f }, { -0.359140f, 0.161029f }, { -0.134402f, -0.060631f }, { -0.029654f, -0.317662f }, { -0.269762f, 0.446168f }, { -0.325010f, 0.151678f }, { -0.144374f, -0.037728f }, { -0.045812f, -0.343315f }, { -0.225090f, 0.461252f }, { -0.290203f, 0.137269f }, { -0.148045f, -0.011115f }, { -0.062811f, -0.362605f }, { -0.181106f, 0.469410f }, { -0.256729f, 0.118608f }, { -0.145740f, 0.017796f }, { -0.079523f, -0.375028f }, { -0.139550f, 0.471261f }, { -0.226169f, 0.096762f }, { -0.138284f, 0.047564f }, { -0.095019f, -0.380780f }, { -0.101628f, 0.467861f }, { -0.199533f, 0.072856f }, { -0.126779f, 0.076926f }, { -0.108656f, -0.380586f }, { -0.067976f, 0.460458f }, { -0.177271f, 0.047906f }, { -0.112384f, 0.104919f }, { -0.120086f, -0.375479f }, { -0.038745f, 0.450279f }, { -0.159379f, 0.022728f }, { -0.096159f, 0.130906f }, { -0.129211f, -0.366580f }, { 0.000000f, 0.000000f }, { 0.000000f, 0.000000f }, { 0.000000f, 0.000000f }, { 0.000000f, 0.000000f }, { 0.257081f, -0.700566f }, { 0.231627f, 0.039056f }, { 0.232658f, 0.239054f }, { 0.236756f, 0.429052f }, { 0.272513f, -0.984947f }, { 0.192292f, 0.054338f }, { 0.199689f, 0.335787f }, { 0.218171f, 0.603283f }, { 0.290406f, -0.987586f }, { 0.148082f, 0.053432f }, { 0.170475f, 0.336045f }, { 0.215676f, 0.605235f }, { 0.310177f, -0.898255f }, { 0.100801f, 0.047078f }, { 0.147077f, 0.304584f }, { 0.231332f, 0.551345f }, { 0.332646f, -0.795495f }, { 0.048530f, 0.039696f }, { 0.126961f, 0.268162f }, { 0.261942f, 0.489888f }, { 0.358440f, -0.701693f }, { -0.010046f, 0.032522f }, { 0.108174f, 0.234362f }, { 0.304749f, 0.434724f }, { 0.387849f, -0.620765f }, { -0.075264f, 0.025758f }, { 0.089743f, 0.204472f }, { 0.357810f, 0.388369f }, { 0.420893f, -0.551506f }, { -0.146687f, 0.019343f }, { 0.071361f, 0.178057f }, { 0.419576f, 0.350171f }, { 0.457373f, -0.491688f }, { -0.223260f, 0.013184f }, { 0.053136f, 0.154362f }, { 0.488552f, 0.318807f }, { 0.496881f, -0.439216f }, { -0.303391f, 0.007232f }, { 0.035446f, 0.132713f }, { 0.563086f, 0.292979f }, { 0.538812f, -0.392405f }, { -0.385007f, 0.001495f }, { 0.018852f, 0.112614f }, { 0.641267f, 0.271576f }, { 0.582362f, -0.349992f }, { -0.465631f, -0.003963f }, { 0.004023f, 0.093752f }, { 0.720891f, 0.253667f }, { 0.626562f, -0.311084f }, { -0.542498f, -0.009027f }, { -0.008327f, 0.075976f }, { 0.799499f, 0.238474f }, { 0.670319f, -0.275094f }, { -0.612723f, -0.013550f }, { -0.017512f, 0.059259f }, { 0.874483f, 0.225333f }, { 0.712487f, -0.241680f }, { -0.673516f, -0.017368f }, { -0.022941f, 0.043674f }, { 0.943240f, 0.213676f }, { 0.751952f, -0.210684f }, { -0.722411f, -0.020324f }, { -0.024187f, 0.029342f }, { 1.003369f, 0.203020f }, { 0.787725f, -0.182081f }, { -0.757483f, -0.022286f }, { -0.021031f, 0.016407f }, { 1.052858f, 0.192961f }, { 0.819024f, -0.155922f }, { -0.777509f, -0.023166f }, { -0.013491f, 0.004991f }, { 1.090248f, 0.183175f }, { 0.845330f, -0.132292f }, { -0.782049f, -0.022932f }, { -0.001814f, -0.004829f }, { 1.114727f, 0.173421f }, { 0.866415f, -0.111270f }, { -0.771433f, -0.021613f }, { 0.013551f, -0.013040f }, { 1.126152f, 0.163535f }, { 0.882332f, -0.092908f }, { -0.746661f, -0.019293f }, { 0.032009f, -0.019699f }, { 1.124994f, 0.153427f }, { 0.893377f, -0.077214f }, { -0.709246f, -0.016109f }, { 0.052873f, -0.024932f }, { 1.112221f, 0.143071f }, { 0.900031f, -0.064153f }, { -0.661026f, -0.012233f }, { 0.075432f, -0.028925f }, { 1.089154f, 0.132491f }, { 0.902898f, -0.053653f }, { -0.603985f, -0.007861f }, { 0.098993f, -0.031903f }, { 1.057305f, 0.121752f }, { 0.902636f, -0.045614f }, { -0.540096f, -0.003206f }, { 0.122926f, -0.034121f }, { 1.018247f, 0.110948f }, { 0.899914f, -0.039922f }, { -0.471204f, 0.001519f }, { 0.146678f, -0.035849f }, { 0.973499f, 0.100189f }, { 0.895362f, -0.036464f }, { -0.398954f, 0.006101f }, { 0.169790f, -0.037357f }, { 0.924450f, 0.089601f }, { 0.889553f, -0.035133f }, { -0.324758f, 0.010333f }, { 0.191887f, -0.038909f }, { 0.872312f, 0.079315f }, { 0.882979f, -0.035847f }, { -0.249781f, 0.014014f }, { 0.212675f, -0.040761f }, { 0.818105f, 0.069471f }, { 0.876051f, -0.038545f }, { -0.174965f, 0.016949f }, { 0.231924f, -0.043152f }, { 0.762652f, 0.060216f }, { 0.869090f, -0.043199f }, { -0.101048f, 0.018944f }, { 0.249455f, -0.046309f }, { 0.706596f, 0.051708f }, { 0.862336f, -0.049814f }, { -0.028606f, 0.019807f }, { 0.265124f, -0.050443f }, { 0.650422f, 0.044118f }, { 0.855946f, -0.058431f }, { 0.041913f, 0.019346f }, { 0.278810f, -0.055750f }, { 0.594477f, 0.037635f }, { 0.850000f, -0.069122f }, { 0.110150f, 0.017361f }, { 0.290400f, -0.062411f }, { 0.539003f, 0.032474f }, { 0.844497f, -0.081994f }, { 0.175796f, 0.013650f }, { 0.299778f, -0.070587f }, { 0.484156f, 0.028873f }, { 0.839360f, -0.097186f }, { 0.238562f, 0.008007f }, { 0.306820f, -0.080417f }, { 0.430037f, 0.027104f }, { 0.834428f, -0.114856f }, { 0.298140f, 0.000225f }, { 0.311383f, -0.092007f }, { 0.376714f, 0.027476f }, { 0.829455f, -0.135178f }, { 0.354177f, -0.009892f }, { 0.313305f, -0.105422f }, { 0.324248f, 0.030329f }, { 0.824101f, -0.158327f }, { 0.406246f, -0.022523f }, { 0.312405f, -0.120668f }, { 0.272720f, 0.036036f }, { 0.817929f, -0.184458f }, { 0.453821f, -0.037805f }, { 0.308487f, -0.137670f }, { 0.222251f, 0.044991f }, { 0.810398f, -0.213678f }, { 0.496268f, -0.055813f }, { 0.301353f, -0.156249f }, { 0.173033f, 0.057591f }, { 0.800874f, -0.246012f }, { 0.532836f, -0.076521f }, { 0.290822f, -0.176091f }, { 0.125354f, 0.074207f }, { 0.788637f, -0.281359f }, { 0.562677f, -0.099770f }, { 0.276758f, -0.196721f }, { 0.079612f, 0.095141f }, { 0.772922f, -0.319446f }, { 0.584883f, -0.125218f }, { 0.259110f, -0.217479f }, { 0.036333f, 0.120574f }, { 0.752966f, -0.359781f }, { 0.598560f, -0.152306f }, { 0.237955f, -0.237510f }, { -0.003833f, 0.150494f }, { 0.728085f, -0.401620f }, { 0.602933f, -0.180235f }, { 0.213545f, -0.255783f }, { -0.040141f, 0.184633f }, { 0.697771f, -0.443955f }, { 0.597472f, -0.207965f }, { 0.186344f, -0.271137f }, { -0.071800f, 0.222406f }, { 0.661793f, -0.485551f }, { 0.582036f, -0.234259f }, { 0.157050f, -0.282371f }, { -0.098052f, 0.262885f }, { 0.620284f, -0.525021f }, { 0.556989f, -0.257771f }, { 0.126578f, -0.288365f }, { -0.118273f, 0.304814f }, { 0.573794f, -0.560952f }, { 0.523271f, -0.277174f }, { 0.096005f, -0.288221f }, { -0.132075f, 0.346688f }, { 0.523278f, -0.592058f }, { 0.482376f, -0.291309f }, { 0.066480f, -0.281393f }, { -0.139391f, 0.386887f }, { 0.470018f, -0.617331f }, { 0.436237f, -0.299326f }, { 0.039106f, -0.267774f }, { -0.140509f, 0.423846f }, { 0.415487f, -0.636160f }, { 0.387038f, -0.300782f }, { 0.014825f, -0.247719f }, { -0.136062f, 0.456224f }, { 0.361180f, -0.648375f }, { 0.336979f, -0.295674f }, { -0.005674f, -0.221986f }, { -0.126950f, 0.483036f }, { 0.308462f, -0.654232f }, { 0.288056f, -0.284399f }, { -0.021994f, -0.191634f }, { -0.114238f, 0.503727f }, { 0.258444f, -0.654332f }, { 0.241906f, -0.267665f }, { -0.034030f, -0.157877f }, { -0.099034f, 0.518163f }, { 0.211924f, -0.649508f }, { 0.199712f, -0.246375f }, { -0.041926f, -0.121948f }, { -0.082384f, 0.526575f }, { 0.169374f, -0.640704f }, { 0.162206f, -0.221505f }, { -0.046006f, -0.084991f }, { -0.065204f, 0.529464f }, { 0.130979f, -0.628874f }, { 0.129710f, -0.194009f }, { -0.046705f, -0.047989f }, { -0.048234f, 0.527493f }, { 0.096685f, -0.614905f }, { 0.102222f, -0.164755f }, { -0.044502f, -0.011733f }, { -0.032036f, 0.521400f }, { 0.066273f, -0.599573f }, { 0.079507f, -0.134482f }, { -0.039874f, 0.023182f }, { -0.017006f, 0.511920f }, { 0.039411f, -0.583524f }, { 0.061178f, -0.103792f }, { -0.033259f, 0.056334f }, { -0.003399f, 0.499737f }, { 0.015709f, -0.567267f }, { 0.046772f, -0.073154f }, { -0.025042f, 0.087449f }, { 0.008640f, 0.485458f }, { -0.005248f, -0.551192f }, { 0.035797f, -0.042917f }, { -0.015544f, 0.116364f }, { 0.019045f, 0.469598f }, { -0.023871f, -0.535581f }, { 0.027770f, -0.013332f }, { -0.005025f, 0.143002f }, { 0.027803f, 0.452582f }, { -0.040552f, -0.520623f }, { 0.022241f, 0.015429f }, { 0.006311f, 0.167340f }, { 0.034933f, 0.434752f }, { -0.055655f, -0.506438f }, { 0.018803f, 0.043254f }, { 0.018310f, 0.189393f }, { 0.040471f, 0.416374f }, { -0.069514f, -0.493085f }, { 0.017099f, 0.070073f }, { 0.030853f, 0.209190f }, { 0.044455f, 0.397654f }, { -0.082430f, -0.480580f }, { 0.016819f, 0.095844f }, { 0.043856f, 0.226768f }, { 0.046918f, 0.378746f }, { -0.094676f, -0.468899f }, { 0.017704f, 0.120543f }, { 0.057250f, 0.242159f }, { 0.047881f, 0.359764f }, { -0.106495f, -0.457989f }, { 0.019536f, 0.144152f }, { 0.070981f, 0.255383f }, { 0.047352f, 0.340793f }, { -0.118107f, -0.447775f }, { 0.022136f, 0.166654f }, { 0.084997f, 0.266444f }, { 0.045322f, 0.321893f }, { -0.129709f, -0.438156f }, { 0.025360f, 0.188022f }, { 0.099238f, 0.275331f }, { 0.041764f, 0.303115f }, { -0.141475f, -0.429015f }, { 0.029093f, 0.208217f }, { 0.113630f, 0.282012f }, { 0.036637f, 0.284501f }, { -0.153561f, -0.420215f }, { 0.033247f, 0.227183f }, { 0.128075f, 0.286441f }, { 0.029888f, 0.266092f }, { -0.166099f, -0.411600f }, { 0.037751f, 0.244844f }, { 0.142441f, 0.288555f }, { 0.021456f, 0.247939f }, { -0.179197f, -0.402999f }, { 0.042555f, 0.261101f }, { 0.156552f, 0.288284f }, { 0.011276f, 0.230103f }, { -0.192936f, -0.394223f }, { 0.047620f, 0.275832f }, { 0.170182f, 0.285559f }, { -0.000705f, 0.212663f }, { -0.207363f, -0.385071f }, { 0.052914f, 0.288893f }, { 0.183045f, 0.280321f }, { -0.014523f, 0.195722f }, { -0.222486f, -0.375332f }, { 0.058414f, 0.300124f }, { 0.194792f, 0.272535f }, { -0.030181f, 0.179407f }, { -0.238265f, -0.364795f }, { 0.064092f, 0.309353f }, { 0.205012f, 0.262210f }, { -0.047631f, 0.163875f }, { -0.254607f, -0.353257f }, { 0.069919f, 0.316412f }, { 0.213241f, 0.249414f }, { -0.066762f, 0.149309f }, { -0.271362f, -0.340536f }, { 0.075855f, 0.321148f }, { 0.218975f, 0.234298f }, { -0.087380f, 0.135913f }, { -0.288319f, -0.326487f }, { 0.081848f, 0.323443f }, { 0.221694f, 0.217108f }, { -0.109198f, 0.123905f }, { -0.305215f, -0.311019f }, { 0.087829f, 0.323234f }, { 0.220906f, 0.198199f }, { -0.131832f, 0.113502f }, { -0.321740f, -0.294109f }, { 0.093713f, 0.320530f }, { 0.216179f, 0.178034f }, { -0.154805f, 0.104900f }, { -0.337561f, -0.275811f }, { 0.099398f, 0.315429f }, { 0.207195f, 0.157175f }, { -0.177564f, 0.098259f }, { -0.352344f, -0.256265f }, { 0.104770f, 0.308123f }, { 0.193789f, 0.136257f }, { -0.199511f, 0.093682f }, { -0.365782f, -0.235686f }, { 0.109706f, 0.298894f }, { 0.175977f, 0.115950f }, { -0.220045f, 0.091196f }, { -0.377620f, -0.214353f }, { 0.114087f, 0.288099f }, { 0.153972f, 0.096913f }, { -0.238603f, 0.090748f }, { -0.387682f, -0.192583f }, { 0.117796f, 0.276148f }, { 0.128168f, 0.079748f }, { -0.254702f, 0.092203f }, { -0.395880f, -0.170706f }, { 0.120735f, 0.263467f }, { 0.099117f, 0.064961f }, { -0.267979f, 0.095351f }, { -0.402218f, -0.149034f }, { 0.122821f, 0.250471f }, { 0.067474f, 0.052929f }, { -0.278205f, 0.099928f }, { -0.406785f, -0.127836f }, { 0.123993f, 0.237533f }, { 0.033950f, 0.043892f }, { -0.285290f, 0.105632f }, { -0.409739f, -0.107325f }, { 0.124210f, 0.224961f }, { -0.000745f, 0.037957f }, { -0.289272f, 0.112148f }, { -0.411285f, -0.087639f }, { 0.123446f, 0.212991f }, { -0.035946f, 0.035109f }, { -0.290297f, 0.119166f }, { -0.411654f, -0.068848f }, { 0.121689f, 0.201777f }, { -0.071063f, 0.035245f }, { -0.288588f, 0.126391f }, { -0.411082f, -0.050954f }, { 0.118934f, 0.191403f }, { -0.105598f, 0.038192f }, { -0.284416f, 0.133559f }, { -0.409794f, -0.033899f }, { 0.115177f, 0.181888f }, { -0.139150f, 0.043742f }, { -0.278076f, 0.140431f }, { -0.407989f, -0.017576f }, { 0.110412f, 0.173203f }, { -0.171408f, 0.051673f }, { -0.269864f, 0.146799f }, { -0.405832f, -0.001841f }, { 0.104628f, 0.165278f }, { -0.202136f, 0.061762f }, { -0.260063f, 0.152475f }, { -0.403450f, 0.013481f }, { 0.097809f, 0.158025f }, { -0.231161f, 0.073801f }, { -0.248934f, 0.157285f }, { -0.400926f, 0.028582f }, { 0.089927f, 0.151338f }, { -0.258349f, 0.087600f }, { -0.236710f, 0.161062f }, { -0.398296f, 0.043667f }, { 0.080949f, 0.145114f }, { -0.283588f, 0.102988f }, { -0.223600f, 0.163638f }, { -0.395554f, 0.058947f }, { 0.070839f, 0.139256f }, { -0.306775f, 0.119803f }, { -0.209791f, 0.164834f }, { -0.392643f, 0.074631f }, { 0.059556f, 0.133683f }, { -0.327796f, 0.137891f }, { -0.195453f, 0.164456f }, { -0.389457f, 0.090918f }, { 0.047070f, 0.128337f }, { -0.346517f, 0.157084f }, { -0.180749f, 0.162291f }, { -0.385846f, 0.107991f }, { 0.033361f, 0.123191f }, { -0.362776f, 0.177194f }, { -0.165842f, 0.158109f }, { -0.381608f, 0.126001f }, { 0.018438f, 0.118255f }, { -0.376378f, 0.197984f }, { -0.150904f, 0.151665f }, { -0.376500f, 0.145056f }, { 0.002348f, 0.113584f }, { -0.387099f, 0.219157f }, { -0.136129f, 0.142711f }, { -0.370243f, 0.165200f }, { -0.014808f, 0.109283f }, { -0.394695f, 0.240335f }, { -0.121734f, 0.131017f }, { -0.362533f, 0.186398f }, { -0.032854f, 0.105507f }, { -0.398920f, 0.261042f }, { -0.107967f, 0.116394f }, { -0.353069f, 0.208512f }, { -0.051533f, 0.102460f }, { -0.399555f, 0.280705f }, { -0.095103f, 0.098732f }, { -0.341577f, 0.231287f }, { -0.070492f, 0.100390f }, { -0.396449f, 0.298657f }, { -0.083441f, 0.078039f }, { -0.327849f, 0.254347f }, { -0.089286f, 0.099563f }, { -0.389557f, 0.314169f }, { -0.073279f, 0.054482f }, { -0.311779f, 0.277201f }, { -0.107398f, 0.100248f }, { -0.378990f, 0.326500f }, { -0.064898f, 0.028416f }, { -0.293404f, 0.299273f }, { -0.124268f, 0.102676f }, { -0.365042f, 0.334963f }, { -0.058525f, 0.000396f }, { -0.272919f, 0.319949f }, { -0.139347f, 0.107011f }, { -0.348204f, 0.339006f }, { -0.054304f, -0.028839f }, { -0.250680f, 0.338642f }, { -0.152147f, 0.113314f }, { -0.329148f, 0.338285f }, { -0.052269f, -0.058414f }, { -0.227182f, 0.354852f }, { -0.162304f, 0.121534f }, { -0.308676f, 0.332720f }, { -0.052333f, -0.087393f }, { -0.203010f, 0.368232f }, { -0.169614f, 0.131496f }, { -0.287647f, 0.322506f }, { -0.054293f, -0.114875f }, { -0.178777f, 0.378614f }, { -0.174050f, 0.142930f }, { -0.266897f, 0.308094f }, { -0.057851f, -0.140072f }, { -0.155062f, 0.386022f }, { -0.175752f, 0.155492f }, { -0.247166f, 0.290130f }, { -0.062648f, -0.162384f }, { -0.132358f, 0.390647f }, { -0.174996f, 0.168808f }, { -0.229036f, 0.269371f }, { -0.068305f, -0.181424f }, { -0.111044f, 0.392811f }, { -0.172152f, 0.182507f }, { -0.212915f, 0.246608f }, { -0.074457f, -0.197024f }, { -0.091366f, 0.392918f }, { -0.167628f, 0.196254f }, { -0.199028f, 0.222591f }, { -0.080783f, -0.209204f }, { -0.073449f, 0.391405f }, { -0.161836f, 0.209762f }, { -0.187448f, 0.197980f }, { -0.087019f, -0.218127f }, { -0.057310f, 0.388707f }, { -0.155157f, 0.222806f }, { -0.178126f, 0.173317f }, { -0.092965f, -0.224056f }, { -0.042887f, 0.385226f }, { -0.147922f, 0.235218f }, { -0.170925f, 0.149019f }, { -0.098484f, -0.227304f }, { -0.030058f, 0.381323f }, { -0.140406f, 0.246882f }, { -0.165659f, 0.125389f }, { -0.103489f, -0.228197f }, { -0.018666f, 0.377301f }, { -0.132821f, 0.257727f }, { -0.162119f, 0.102622f }, { -0.107939f, -0.227050f }, { -0.008531f, 0.373416f }, { -0.125327f, 0.267713f }, { -0.160093f, 0.080834f }, { -0.111824f, -0.224147f }, { 0.000534f, 0.369876f }, { -0.118037f, 0.276821f }, { -0.159383f, 0.060072f }, { -0.115158f, -0.219733f }, { 0.008715f, 0.366847f }, { -0.111022f, 0.285051f }, { -0.159815f, 0.040340f }, { -0.117968f, -0.214010f }, { 0.016196f, 0.364465f }, { -0.104325f, 0.292405f }, { -0.161241f, 0.021606f }, { -0.120292f, -0.207132f }, { 0.023158f, 0.362838f }, { -0.097963f, 0.298889f }, { -0.163545f, 0.003816f }, { -0.122168f, -0.199214f }, { 0.029776f, 0.362057f }, { -0.091937f, 0.304504f }, { -0.166646f, -0.013096f }, { -0.123636f, -0.190326f }, { 0.036226f, 0.362198f }, { -0.086235f, 0.309241f }, { -0.170494f, -0.029200f }, { -0.124727f, -0.180504f }, { 0.042686f, 0.363326f }, { -0.080841f, 0.313079f }, { -0.175076f, -0.044568f }, { -0.125469f, -0.169744f }, { 0.049344f, 0.365497f }, { -0.075735f, 0.315978f }, { -0.180417f, -0.059267f }, { -0.125875f, -0.158013f }, { 0.056408f, 0.368762f }, { -0.070903f, 0.317878f }, { -0.186580f, -0.073357f }, { -0.125944f, -0.145244f }, { 0.064107f, 0.373156f }, { -0.066339f, 0.318687f }, { -0.193677f, -0.086884f }, { -0.125653f, -0.131340f }, { 0.072713f, 0.378702f }, { -0.062056f, 0.318277f }, { -0.201870f, -0.099880f }, { -0.124951f, -0.116179f }, { 0.082547f, 0.385389f }, { -0.058094f, 0.316476f }, { -0.211385f, -0.112348f }, { -0.123748f, -0.099616f }, { 0.093997f, 0.393154f }, { -0.054540f, 0.313051f }, { -0.222520f, -0.124262f }, { -0.121895f, -0.081493f }, { 0.107543f, 0.401849f }, { -0.051549f, 0.307699f }, { -0.235664f, -0.135542f }, { -0.119168f, -0.061661f }, { 0.123767f, 0.411177f }, { -0.049381f, 0.300032f }, { -0.251304f, -0.146038f }, { -0.115227f, -0.040009f }, { 0.143371f, 0.420604f }, { -0.048449f, 0.289562f }, { -0.270034f, -0.155497f }, { -0.109582f, -0.016533f }, { 0.167170f, 0.429222f }, { -0.049391f, 0.275712f }, { -0.292534f, -0.163514f }, { -0.101529f, 0.008552f }, { 0.196026f, 0.435548f }, { -0.053157f, 0.257844f }, { -0.319508f, -0.169484f }, { -0.090099f, 0.034634f }, { 0.230687f, 0.437288f }, { -0.061091f, 0.235382f }, { -0.351512f, -0.172544f }, { -0.074018f, 0.060411f }, { 0.271436f, 0.431114f }, { -0.074964f, 0.208054f }, { -0.388616f, -0.171559f }, { -0.051766f, 0.083524f }, { 0.317464f, 0.412677f }, { -0.096810f, 0.176338f }, { -0.429821f, -0.165233f }, { -0.021841f, 0.100192f }, { 0.366035f, 0.377256f }, { -0.128390f, 0.142090f }, { -0.472315f, -0.152462f }, { 0.016615f, 0.105208f }, { 0.411838f, 0.321498f }, { -0.170127f, 0.109048f }, { -0.510967f, -0.133026f }, { 0.062800f, 0.092883f }, { 0.447468f, 0.246081f }, { -0.219849f, 0.082558f }, { -0.538921f, -0.108397f }, { 0.113326f, 0.059352f }, { 0.465816f, 0.157659f }, { -0.272354f, 0.067914f }, { -0.549922f, -0.081993f }, { 0.162378f, 0.005475f }, { 0.463480f, 0.067632f }, { -0.320889f, 0.067867f }, { -0.541433f, -0.058195f }, { 0.203675f, -0.062088f }, { 0.442519f, -0.012450f }, { -0.359954f, 0.081252f }, { -0.516006f, -0.040527f }, { 0.233153f, -0.133327f }, { 0.408954f, -0.075392f }, { -0.387274f, 0.103935f }, { -0.479649f, -0.030398f }, { 0.250264f, -0.199199f }, { 0.369604f, -0.119577f }, { -0.403666f, 0.131061f }, { -0.438808f, -0.027215f }, { 0.257172f, -0.254433f }, { 0.329772f, -0.147268f }, { -0.411585f, 0.158760f }, { -0.398304f, -0.029346f }, { 0.257063f, -0.297607f }, { 0.292603f, -0.162246f }, { -0.413755f, 0.184670f }, { -0.360872f, -0.035003f }, { 0.252872f, -0.329735f }, { 0.259491f, -0.168236f }, { -0.412439f, 0.207688f }, { -0.327616f, -0.042714f }, { 0.246776f, -0.352824f }, { 0.230734f, -0.168244f }, { -0.409266f, 0.227516f }, { -0.298666f, -0.051422f }, { 0.240193f, -0.368987f }, { 0.206069f, -0.164457f }, { -0.405302f, 0.244277f }, { -0.273670f, -0.060441f }, { 0.233959f, -0.380047f }, { 0.185001f, -0.158372f }, { -0.401201f, 0.258281f }, { -0.252106f, -0.069350f }, { 0.228523f, -0.387443f }, { 0.166981f, -0.150975f }, { -0.397343f, 0.269884f }, { -0.233431f, -0.077908f }, { 0.224096f, -0.392258f }, { 0.151493f, -0.142894f }, { -0.393929f, 0.279427f }, { -0.217152f, -0.085985f }, { 0.220756f, -0.395287f }, { 0.138078f, -0.134517f }, { -0.391052f, 0.287215f }, { -0.202849f, -0.093525f }, { 0.218506f, -0.397111f }, { 0.126343f, -0.126070f }, { -0.388742f, 0.293503f }, { -0.190175f, -0.100511f }, { 0.217315f, -0.398156f }, { 0.115958f, -0.117674f }, { -0.386992f, 0.298501f }, { -0.178851f, -0.106952f }, { 0.217141f, -0.398734f }, { 0.106640f, -0.109381f }, { -0.385772f, 0.302381f }, { -0.168654f, -0.112871f }, { 0.217938f, -0.399082f }, { 0.098150f, -0.101193f }, { -0.385044f, 0.305278f }, { -0.159409f, -0.118300f }, { 0.219672f, -0.399387f }, { 0.090275f, -0.093080f }, { -0.384763f, 0.307297f }, { -0.150977f, -0.123282f }, { 0.222319f, -0.399801f }, { 0.082829f, -0.084990f }, { -0.384882f, 0.308519f }, { -0.143250f, -0.127863f }, { 0.225869f, -0.400457f }, { 0.075638f, -0.076847f }, { -0.385356f, 0.308998f }, { -0.136144f, -0.132105f }, { 0.230330f, -0.401484f }, { 0.068536f, -0.068561f }, { -0.386134f, 0.308765f }, { -0.129594f, -0.136081f }, { 0.235727f, -0.403014f }, { 0.061363f, -0.060027f }, { -0.387168f, 0.307825f }, { -0.123543f, -0.139895f }, { 0.242107f, -0.405191f }, { 0.053968f, -0.051130f }, { -0.388399f, 0.306150f }, { -0.117939f, -0.143689f }, { 0.249534f, -0.408183f }, { 0.046215f, -0.041759f }, { -0.389760f, 0.303668f }, { -0.112714f, -0.147681f }, { 0.258089f, -0.412186f }, { 0.038026f, -0.031836f }, { -0.391161f, 0.300243f }, { -0.107757f, -0.152206f }, { 0.267845f, -0.417419f }, { 0.029471f, -0.021400f }, { -0.392474f, 0.295638f }, { -0.102856f, -0.157814f }, { 0.278820f, -0.424102f }, { 0.021003f, -0.010807f }, { -0.393493f, 0.289453f }, { -0.097575f, -0.165417f }, { 0.290833f, -0.432339f }, { 0.014025f, -0.001223f }, { -0.393877f, 0.281030f }, { -0.090989f, -0.176562f }, { 0.303135f, -0.441800f }, { 0.012204f, 0.004216f }, { -0.393057f, 0.269371f }, { -0.081159f, -0.193768f }, { 0.313513f, -0.450806f }, { 0.024039f, -0.001897f }, { -0.390184f, 0.253335f }, { -0.064320f, -0.220464f }, { 0.316374f, -0.454156f }, { 0.065059f, -0.033365f }, { -0.384576f, 0.233117f }, { -0.034965f, -0.258305f }, { 0.300569f, -0.439782f }, { 0.147816f, -0.101948f }, { -0.377619f, 0.214127f }, { 0.008221f, -0.298058f }, { 0.254927f, -0.392024f }, { 0.248912f, -0.188059f }, { -0.374276f, 0.206897f }, { 0.050479f, -0.315479f }, { 0.191768f, -0.316883f }, { 0.316764f, -0.246081f }, { -0.377634f, 0.213313f }, { 0.072004f, -0.300049f }, { 0.147062f, -0.251585f }, { 0.338239f, -0.263229f }, { -0.384753f, 0.223820f }, { 0.073722f, -0.269285f }, { 0.134112f, -0.216881f }, { 0.333928f, -0.256980f }, { -0.392114f, 0.231573f }, { 0.067146f, -0.239648f }, { 0.141088f, -0.204759f }, { 0.321380f, -0.242754f }, { -0.398414f, 0.235339f }, { 0.059338f, -0.215911f }, { 0.156012f, -0.203216f }, { 0.308394f, -0.227536f }, { -0.403542f, 0.235882f }, { 0.052633f, -0.197549f }, { 0.173035f, -0.205441f }, { 0.297530f, -0.213674f }, { -0.407685f, 0.234110f }, { 0.047382f, -0.183062f }, { 0.189980f, -0.208459f }, { 0.289334f, -0.201688f }, { -0.411030f, 0.230684f }, { 0.043348f, -0.171188f }, { 0.206214f, -0.211115f }, { 0.283697f, -0.191491f }, { -0.413709f, 0.226033f }, { 0.040191f, -0.161040f }, { 0.221670f, -0.213010f }, { 0.280352f, -0.182829f }, { -0.415798f, 0.220430f }, { 0.037601f, -0.152028f }, { 0.236464f, -0.214046f }, { 0.279035f, -0.175432f }, { -0.417334f, 0.214050f }, { 0.035323f, -0.143759f }, { 0.250755f, -0.214235f }, { 0.279532f, -0.169062f }, { -0.418323f, 0.207007f }, { 0.033149f, -0.135971f }, { 0.264698f, -0.213624f }, { 0.281687f, -0.163516f }, { -0.418751f, 0.199374f }, { 0.030911f, -0.128490f }, { 0.278433f, -0.212263f }, { 0.285397f, -0.158626f }, { -0.418586f, 0.191205f }, { 0.028465f, -0.121199f }, { 0.292081f, -0.210192f }, { 0.290604f, -0.154249f }, { -0.417778f, 0.182535f }, { 0.025684f, -0.114022f }, { 0.305745f, -0.207442f }, { 0.297291f, -0.150261f }, { -0.416265f, 0.173391f }, { 0.022456f, -0.106912f }, { 0.319518f, -0.204028f }, { 0.305476f, -0.146551f }, { -0.413970f, 0.163795f }, { 0.018672f, -0.099844f }, { 0.333484f, -0.199954f }, { 0.315213f, -0.143016f }, { -0.410800f, 0.153770f }, { 0.014228f, -0.092812f }, { 0.347720f, -0.195210f }, { 0.326586f, -0.139554f }, { -0.406645f, 0.143336f }, { 0.009017f, -0.085823f }, { 0.362301f, -0.189776f }, { 0.339716f, -0.136060f }, { -0.401375f, 0.132520f }, { 0.002931f, -0.078901f }, { 0.377304f, -0.183614f }, { 0.354757f, -0.132422f }, { -0.394837f, 0.121357f }, { -0.004142f, -0.072081f }, { 0.392805f, -0.176676f }, { 0.371905f, -0.128514f }, { -0.386851f, 0.109892f }, { -0.012323f, -0.065412f }, { 0.408887f, -0.168894f }, { 0.391401f, -0.124188f }, { -0.377202f, 0.098188f }, { -0.021741f, -0.058955f }, { 0.425642f, -0.160179f }, { 0.413539f, -0.119271f }, { -0.365634f, 0.086331f }, { -0.032535f, -0.052789f }, { 0.443170f, -0.150419f }, { 0.438676f, -0.113548f }, { -0.351843f, 0.074440f }, { -0.044853f, -0.047006f }, { 0.461588f, -0.139467f }, { 0.467238f, -0.106749f }, { -0.335459f, 0.062683f }, { -0.058857f, -0.041718f }, { 0.481028f, -0.127131f }, { 0.499742f, -0.098534f }, { -0.316035f, 0.051294f }, { -0.074716f, -0.037051f }, { 0.501649f, -0.113161f }, { 0.536800f, -0.088462f }, { -0.293022f, 0.040605f }, { -0.092603f, -0.033151f }, { 0.523634f, -0.097219f }, { 0.579136f, -0.075952f }, { -0.265749f, 0.031092f }, { -0.112684f, -0.030174f }, { 0.547196f, -0.078849f }, { 0.627591f, -0.060237f }, { -0.233385f, 0.023443f }, { -0.135093f, -0.028278f }, { 0.572582f, -0.057418f }, { 0.683094f, -0.040283f }, { -0.194913f, 0.018665f }, { -0.159886f, -0.027596f }, { 0.600062f, -0.032036f }, { 0.746595f, -0.014692f }, { -0.149093f, 0.018260f }, { -0.186950f, -0.028189f }, { 0.629903f, -0.001418f }, { 0.818856f, 0.018435f }, { -0.094471f, 0.024488f }, { -0.215827f, -0.029936f }, { 0.662300f, 0.036310f }, { 0.899953f, 0.061654f }, { -0.029475f, 0.040801f }, { -0.245363f, -0.032321f }, { 0.697204f, 0.083924f }, { 0.988161f, 0.118290f }, { 0.047216f, 0.072470f }, { -0.273046f, -0.034008f }, { 0.733942f, 0.145537f }, { 1.077501f, 0.192261f }, { 0.135629f, 0.127424f }, { -0.293746f, -0.032006f }, { 0.770371f, 0.227103f }, { 1.152758f, 0.286914f }, { 0.231923f, 0.216843f }, { -0.297541f, -0.020187f }, { 0.801172f, 0.336566f }, { 1.180839f, 0.401155f }, { 0.322848f, 0.353704f }, { -0.266849f, 0.012839f }, { 0.814885f, 0.482110f }, { 1.101994f, 0.520215f }, { 0.377086f, 0.544181f }, { -0.176030f, 0.084557f }, { 0.790878f, 0.664644f }, { 0.842219f, 0.603165f }, { 0.342837f, 0.765461f }, { -0.004153f, 0.211005f }, { 0.703578f, 0.860735f }, { 0.384280f, 0.590187f }, { 0.179196f, 0.944681f }, { 0.229639f, 0.383226f }, { 0.546821f, 1.010324f }, { -0.150433f, 0.457214f }, { -0.081140f, 0.996856f }, { 0.447495f, 0.551653f }, { 0.362001f, 1.052715f }, { -0.579924f, 0.255331f }, { -0.339164f, 0.911749f }, { 0.574388f, 0.663792f }, { 0.211419f, 0.991441f }, { -0.826081f, 0.057213f }, { -0.523326f, 0.753279f }, { 0.602474f, 0.709625f }, { 0.121826f, 0.882894f }, { -0.921846f, -0.100950f }, { -0.625595f, 0.584523f }, { 0.567223f, 0.709697f }, { 0.081863f, 0.775399f }, { -0.927627f, -0.216410f }, { -0.667695f, 0.435504f }, { 0.503152f, 0.686035f }, { 0.070714f, 0.688779f }, { -0.888169f, -0.298424f }, { -0.672277f, 0.313287f }, { 0.430489f, 0.652097f }, { 0.072927f, 0.625350f }, { -0.828972f, -0.356822f }, { -0.654998f, 0.215785f }, { 0.358676f, 0.614350f }, { 0.079670f, 0.581302f }, { -0.762999f, -0.398993f }, { -0.625357f, 0.138732f }, { 0.291481f, 0.575425f }, { 0.086450f, 0.551878f }, { -0.696422f, -0.429918f }, { -0.588910f, 0.078120f }, { 0.230118f, 0.536176f }, { 0.091145f, 0.532981f }, { -0.631987f, -0.452828f }, { -0.548943f, 0.030777f }, { 0.174767f, 0.496723f }, { 0.092857f, 0.521424f }, { -0.570789f, -0.469806f }, { -0.507472f, -0.005680f }, { 0.125243f, 0.456947f }, { 0.091310f, 0.514802f }, { -0.513147f, -0.482200f }, { -0.465818f, -0.033015f }, { 0.081280f, 0.416703f }, { 0.086546f, 0.511306f }, { -0.459044f, -0.490894f }, { -0.424911f, -0.052557f }, { 0.042617f, 0.375917f }, { 0.078774f, 0.509570f }, { -0.408335f, -0.496489f }, { -0.385458f, -0.065337f }, { 0.009031f, 0.334611f }, { 0.068293f, 0.508555f }, { -0.360846f, -0.499404f }, { -0.348026f, -0.072193f }, { -0.019678f, 0.292906f }, { 0.055454f, 0.507479f }, { -0.316412f, -0.499955f }, { -0.313086f, -0.073840f }, { -0.043698f, 0.251013f }, { 0.040633f, 0.505756f }, { -0.274894f, -0.498395f }, { -0.281028f, -0.070917f }, { -0.063227f, 0.209214f }, { 0.024214f, 0.502965f }, { -0.236181f, -0.494943f }, { -0.252170f, -0.064016f }, { -0.078485f, 0.167840f }, { 0.006579f, 0.498820f }, { -0.200180f, -0.489799f }, { -0.226757f, -0.053699f }, { -0.089723f, 0.127247f }, { -0.011908f, 0.493150f }, { -0.166813f, -0.483156f }, { -0.204961f, -0.040504f }, { -0.097226f, 0.087801f }, { -0.030905f, 0.485879f }, { -0.136010f, -0.475199f }, { -0.186882f, -0.024948f }, { -0.101317f, 0.049854f }, { -0.050104f, 0.477010f }, { -0.107703f, -0.466112f }, { -0.172551f, -0.007521f }, { -0.102345f, 0.013732f }, { -0.069238f, 0.466608f }, { -0.081823f, -0.456068f }, { -0.161933f, 0.011313f }, { -0.100685f, -0.020278f }, { -0.088081f, 0.454790f }, { -0.058299f, -0.445234f }, { -0.154938f, 0.031124f }, { -0.096728f, -0.051934f }, { -0.106455f, 0.441702f }, { -0.037058f, -0.433763f }, { -0.151426f, 0.051518f }, { -0.090871f, -0.081042f }, { -0.124226f, 0.427518f }, { 0.000000f, 0.000000f }, { 0.000000f, 0.000000f }, { 0.000000f, 0.000000f }, { 0.000000f, 0.000000f }, { 0.264895f, -0.489676f }, { 0.233924f, 0.027294f }, { 0.236923f, 0.167085f }, { 0.244252f, 0.299906f }, { 0.297429f, -0.717728f }, { 0.193710f, 0.039562f }, { 0.209247f, 0.244638f }, { 0.241169f, 0.439692f }, { 0.333488f, -0.743657f }, { 0.138814f, 0.040123f }, { 0.180428f, 0.252885f }, { 0.257005f, 0.456009f }, { 0.370243f, -0.689812f }, { 0.071540f, 0.035901f }, { 0.153222f, 0.233544f }, { 0.294459f, 0.424009f }, { 0.408930f, -0.616761f }, { -0.008152f, 0.030305f }, { 0.126533f, 0.207231f }, { 0.350967f, 0.380966f }, { 0.450662f, -0.545183f }, { -0.099786f, 0.024486f }, { 0.099356f, 0.180955f }, { 0.423391f, 0.339686f }, { 0.495706f, -0.480390f }, { -0.201785f, 0.018750f }, { 0.071430f, 0.156501f }, { 0.508631f, 0.303508f }, { 0.543565f, -0.422716f }, { -0.311433f, 0.013156f }, { 0.043131f, 0.134001f }, { 0.603342f, 0.272662f }, { 0.593122f, -0.371177f }, { -0.424953f, 0.007727f }, { 0.015292f, 0.113179f }, { 0.703685f, 0.246487f }, { 0.642787f, -0.324669f }, { -0.537696f, 0.002522f }, { -0.010957f, 0.093773f }, { 0.805276f, 0.224159f }, { 0.690663f, -0.282337f }, { -0.644485f, -0.002356f }, { -0.034344f, 0.075652f }, { 0.903354f, 0.204914f }, { 0.734760f, -0.243634f }, { -0.740100f, -0.006765f }, { -0.053638f, 0.058823f }, { 0.993132f, 0.188101f }, { 0.773232f, -0.208282f }, { -0.819869f, -0.010551f }, { -0.067814f, 0.043392f }, { 1.070271f, 0.173185f }, { 0.804611f, -0.176189f }, { -0.880221f, -0.013576f }, { -0.076201f, 0.029516f }, { 1.131352f, 0.159738f }, { 0.827979f, -0.147354f }, { -0.919076f, -0.015737f }, { -0.078562f, 0.017343f }, { 1.174238f, 0.147428f }, { 0.843040f, -0.121796f }, { -0.935990f, -0.016987f }, { -0.075105f, 0.006966f }, { 1.198216f, 0.136005f }, { 0.850094f, -0.099490f }, { -0.932024f, -0.017338f }, { -0.066413f, -0.001596f }, { 1.203912f, 0.125291f }, { 0.849914f, -0.080344f }, { -0.909413f, -0.016853f }, { -0.053335f, -0.008410f }, { 1.193027f, 0.115159f }, { 0.843589f, -0.064191f }, { -0.871122f, -0.015638f }, { -0.036850f, -0.013616f }, { 1.167960f, 0.105530f }, { 0.832353f, -0.050807f }, { -0.820419f, -0.013823f }, { -0.017955f, -0.017407f }, { 1.131437f, 0.096353f }, { 0.817452f, -0.039931f }, { -0.760519f, -0.011550f }, { 0.002424f, -0.020008f }, { 1.086195f, 0.087598f }, { 0.800035f, -0.031287f }, { -0.694341f, -0.008960f }, { 0.023488f, -0.021652f }, { 1.034758f, 0.079249f }, { 0.781105f, -0.024605f }, { -0.624380f, -0.006187f }, { 0.044583f, -0.022570f }, { 0.979313f, 0.071298f }, { 0.761492f, -0.019635f }, { -0.552654f, -0.003351f }, { 0.065203f, -0.022976f }, { 0.921657f, 0.063746f }, { 0.741853f, -0.016155f }, { -0.480730f, -0.000560f }, { 0.084974f, -0.023064f }, { 0.863201f, 0.056593f }, { 0.722692f, -0.013978f }, { -0.409767f, 0.002089f }, { 0.103632f, -0.023005f }, { 0.805005f, 0.049847f }, { 0.704378f, -0.012947f }, { -0.340582f, 0.004513f }, { 0.121002f, -0.022951f }, { 0.747834f, 0.043519f }, { 0.687171f, -0.012944f }, { -0.273720f, 0.006635f }, { 0.136976f, -0.023034f }, { 0.692205f, 0.037623f }, { 0.671246f, -0.013878f }, { -0.209511f, 0.008384f }, { 0.151492f, -0.023370f }, { 0.638446f, 0.032181f }, { 0.656708f, -0.015689f }, { -0.148129f, 0.009692f }, { 0.164521f, -0.024061f }, { 0.586736f, 0.027222f }, { 0.643615f, -0.018342f }, { -0.089633f, 0.010494f }, { 0.176053f, -0.025202f }, { 0.537146f, 0.022782f }, { 0.631984f, -0.021831f }, { -0.034002f, 0.010721f }, { 0.186089f, -0.026877f }, { 0.489668f, 0.018909f }, { 0.621801f, -0.026169f }, { 0.018833f, 0.010304f }, { 0.194629f, -0.029165f }, { 0.444236f, 0.015663f }, { 0.613032f, -0.031393f }, { 0.068970f, 0.009167f }, { 0.201669f, -0.032141f }, { 0.400753f, 0.013116f }, { 0.605622f, -0.037565f }, { 0.116519f, 0.007231f }, { 0.207198f, -0.035876f }, { 0.359095f, 0.011360f }, { 0.599497f, -0.044764f }, { 0.161582f, 0.004408f }, { 0.211190f, -0.040436f }, { 0.319131f, 0.010502f }, { 0.594564f, -0.053094f }, { 0.204246f, 0.000606f }, { 0.213602f, -0.045884f }, { 0.280730f, 0.010674f }, { 0.590709f, -0.062679f }, { 0.244570f, -0.004274f }, { 0.214376f, -0.052273f }, { 0.243766f, 0.012031f }, { 0.587792f, -0.073666f }, { 0.282574f, -0.010334f }, { 0.213432f, -0.059646f }, { 0.208133f, 0.014754f }, { 0.585636f, -0.086219f }, { 0.318226f, -0.017679f }, { 0.210670f, -0.068029f }, { 0.173746f, 0.019055f }, { 0.584026f, -0.100522f }, { 0.351433f, -0.026407f }, { 0.205972f, -0.077425f }, { 0.140553f, 0.025172f }, { 0.582692f, -0.116764f }, { 0.382028f, -0.036605f }, { 0.199203f, -0.087798f }, { 0.108547f, 0.033372f }, { 0.581301f, -0.135140f }, { 0.409762f, -0.048336f }, { 0.190222f, -0.099066f }, { 0.077775f, 0.043944f }, { 0.579444f, -0.155828f }, { 0.434288f, -0.061618f }, { 0.178885f, -0.111079f }, { 0.048349f, 0.057185f }, { 0.576627f, -0.178967f }, { 0.455164f, -0.076411f }, { 0.165072f, -0.123604f }, { 0.020462f, 0.073385f }, { 0.572270f, -0.204631f }, { 0.471850f, -0.092583f }, { 0.148705f, -0.136299f }, { -0.005603f, 0.092791f }, { 0.565710f, -0.232787f }, { 0.483733f, -0.109882f }, { 0.129780f, -0.148700f }, { -0.029469f, 0.115574f }, { 0.556229f, -0.263247f }, { 0.490159f, -0.127907f }, { 0.108409f, -0.160206f }, { -0.050664f, 0.141768f }, { 0.543090f, -0.295625f }, { 0.490501f, -0.146084f }, { 0.084861f, -0.170087f }, { -0.068649f, 0.171212f }, { 0.525619f, -0.329299f }, { 0.484246f, -0.163657f }, { 0.059597f, -0.177512f }, { -0.082850f, 0.203485f }, { 0.503290f, -0.363394f }, { 0.471112f, -0.179716f }, { 0.033296f, -0.181604f }, { -0.092728f, 0.237865f }, { 0.475836f, -0.396811f }, { 0.451156f, -0.193246f }, { 0.006840f, -0.181536f }, { -0.097857f, 0.273316f }, { 0.443343f, -0.428297f }, { 0.424875f, -0.203232f }, { -0.018733f, -0.176645f }, { -0.098020f, 0.308530f }, { 0.406313f, -0.456575f }, { 0.393238f, -0.208782f }, { -0.042327f, -0.166547f }, { -0.093284f, 0.342038f }, { 0.365653f, -0.480499f }, { 0.357641f, -0.209255f }, { -0.062907f, -0.151226f }, { -0.084037f, 0.372368f }, { 0.322595f, -0.499207f }, { 0.319773f, -0.204362f }, { -0.079638f, -0.131071f }, { -0.070976f, 0.398226f }, { 0.278546f, -0.512232f }, { 0.281425f, -0.194206f }, { -0.091983f, -0.106829f }, { -0.055027f, 0.418658f }, { 0.234917f, -0.519539f }, { 0.244279f, -0.179252f }, { -0.099752f, -0.079512f }, { -0.037237f, 0.433148f }, { 0.192956f, -0.521490f }, { 0.209730f, -0.160241f }, { -0.103089f, -0.050250f }, { -0.018647f, 0.441631f }, { 0.153639f, -0.518747f }, { 0.178786f, -0.138070f }, { -0.102405f, -0.020161f }, { -0.000182f, 0.444437f }, { 0.117622f, -0.512150f }, { 0.152038f, -0.113670f }, { -0.098286f, 0.009762f }, { 0.017414f, 0.442182f }, { 0.085241f, -0.502598f }, { 0.129703f, -0.087911f }, { -0.091398f, 0.038715f }, { 0.033604f, 0.435648f }, { 0.056570f, -0.490954f }, { 0.111701f, -0.061540f }, { -0.082403f, 0.066103f }, { 0.048056f, 0.425670f }, { 0.031478f, -0.477987f }, { 0.097740f, -0.035152f }, { -0.071909f, 0.091532f }, { 0.060605f, 0.413053f }, { 0.009699f, -0.464341f }, { 0.087410f, -0.009191f }, { -0.060436f, 0.114776f }, { 0.071217f, 0.398522f }, { -0.009108f, -0.450523f }, { 0.080242f, 0.016038f }, { -0.048406f, 0.135739f }, { 0.079950f, 0.382695f }, { -0.025319f, -0.436922f }, { 0.075764f, 0.040343f }, { -0.036148f, 0.154420f }, { 0.086916f, 0.366077f }, { -0.039309f, -0.423816f }, { 0.073529f, 0.063624f }, { -0.023903f, 0.170878f }, { 0.092255f, 0.349066f }, { -0.051439f, -0.411395f }, { 0.073132f, 0.085846f }, { -0.011843f, 0.185207f }, { 0.096117f, 0.331967f }, { -0.062039f, -0.399778f }, { 0.074221f, 0.107020f }, { -0.000085f, 0.197518f }, { 0.098648f, 0.315008f }, { -0.071409f, -0.389032f }, { 0.076496f, 0.127190f }, { 0.011300f, 0.207922f }, { 0.099980f, 0.298358f }, { -0.079816f, -0.379182f }, { 0.079707f, 0.146417f }, { 0.022271f, 0.216524f }, { 0.100228f, 0.282135f }, { -0.087497f, -0.370222f }, { 0.083650f, 0.164775f }, { 0.032807f, 0.223417f }, { 0.099486f, 0.266427f }, { -0.094660f, -0.362124f }, { 0.088160f, 0.182338f }, { 0.042903f, 0.228678f }, { 0.097829f, 0.251295f }, { -0.101494f, -0.354841f }, { 0.093108f, 0.199181f }, { 0.052556f, 0.232365f }, { 0.095313f, 0.236788f }, { -0.108165f, -0.348314f }, { 0.098394f, 0.215373f }, { 0.061765f, 0.234520f }, { 0.091971f, 0.222947f }, { -0.114823f, -0.342467f }, { 0.103942f, 0.230975f }, { 0.070525f, 0.235167f }, { 0.087823f, 0.209811f }, { -0.121608f, -0.337216f }, { 0.109698f, 0.246039f }, { 0.078817f, 0.234317f }, { 0.082870f, 0.197426f }, { -0.128643f, -0.332461f }, { 0.115623f, 0.260604f }, { 0.086608f, 0.231967f }, { 0.077102f, 0.185845f }, { -0.136045f, -0.328088f }, { 0.121692f, 0.274695f }, { 0.093844f, 0.228105f }, { 0.070497f, 0.175137f }, { -0.143916f, -0.323968f }, { 0.127889f, 0.288320f }, { 0.100443f, 0.222718f }, { 0.063030f, 0.165388f }, { -0.152346f, -0.319951f }, { 0.134204f, 0.301469f }, { 0.106295f, 0.215794f }, { 0.054670f, 0.156705f }, { -0.161409f, -0.315867f }, { 0.140629f, 0.314108f }, { 0.111252f, 0.207337f }, { 0.045397f, 0.149214f }, { -0.171154f, -0.311528f }, { 0.147155f, 0.326183f }, { 0.115127f, 0.197374f }, { 0.035202f, 0.143069f }, { -0.181603f, -0.306721f }, { 0.153761f, 0.337612f }, { 0.117697f, 0.185970f }, { 0.024105f, 0.138438f }, { -0.192736f, -0.301224f }, { 0.160419f, 0.348292f }, { 0.118699f, 0.173246f }, { 0.012162f, 0.135505f }, { -0.204484f, -0.294803f }, { 0.167076f, 0.358095f }, { 0.117846f, 0.159395f }, { -0.000517f, 0.134456f }, { -0.216721f, -0.287235f }, { 0.173660f, 0.366880f }, { 0.114843f, 0.144695f }, { -0.013758f, 0.135460f }, { -0.229253f, -0.278323f }, { 0.180068f, 0.374498f }, { 0.109409f, 0.129520f }, { -0.027310f, 0.138652f }, { -0.241821f, -0.267923f }, { 0.186166f, 0.380815f }, { 0.101315f, 0.114340f }, { -0.040844f, 0.144102f }, { -0.254106f, -0.255969f }, { 0.191798f, 0.385722f }, { 0.090420f, 0.099704f }, { -0.053959f, 0.151792f }, { -0.265751f, -0.242496f }, { 0.196784f, 0.389161f }, { 0.076715f, 0.086209f }, { -0.066206f, 0.161594f }, { -0.276387f, -0.227656f }, { 0.200940f, 0.391141f }, { 0.060345f, 0.074452f }, { -0.077119f, 0.173262f }, { -0.285672f, -0.211719f }, { 0.204093f, 0.391751f }, { 0.041623f, 0.064972f }, { -0.086261f, 0.186436f }, { -0.293329f, -0.195051f }, { 0.206096f, 0.391157f }, { 0.021021f, 0.058191f }, { -0.093269f, 0.200671f }, { -0.299174f, -0.178088f }, { 0.206845f, 0.389591f }, { -0.000873f, 0.054370f }, { -0.097897f, 0.215472f }, { -0.303139f, -0.161286f }, { 0.206287f, 0.387333f }, { -0.023408f, 0.053583f }, { -0.100035f, 0.230352f }, { -0.305268f, -0.145078f }, { 0.204418f, 0.384677f }, { -0.045933f, 0.055728f }, { -0.099718f, 0.244870f }, { -0.305703f, -0.129834f }, { 0.201280f, 0.381908f }, { -0.067853f, 0.060550f }, { -0.097103f, 0.258676f }, { -0.304659f, -0.115840f }, { 0.196947f, 0.379276f }, { -0.088673f, 0.067691f }, { -0.092447f, 0.271523f }, { -0.302387f, -0.103282f }, { 0.191512f, 0.376981f }, { -0.108016f, 0.076742f }, { -0.086064f, 0.283279f }, { -0.299152f, -0.092259f }, { 0.185070f, 0.375172f }, { -0.125629f, 0.087284f }, { -0.078296f, 0.293910f }, { -0.295202f, -0.082785f }, { 0.177714f, 0.373940f }, { -0.141367f, 0.098932f }, { -0.069479f, 0.303464f }, { -0.290755f, -0.074816f }, { 0.169521f, 0.373332f }, { -0.155176f, 0.111351f }, { -0.059931f, 0.312048f }, { -0.285986f, -0.068263f }, { 0.160552f, 0.373355f }, { -0.167067f, 0.124276f }, { -0.049934f, 0.319808f }, { -0.281027f, -0.063010f }, { 0.150849f, 0.373989f }, { -0.177095f, 0.137511f }, { -0.039739f, 0.326908f }, { -0.275963f, -0.058923f }, { 0.140438f, 0.375192f }, { -0.185337f, 0.150925f }, { -0.029562f, 0.333516f }, { -0.270838f, -0.055864f }, { 0.129332f, 0.376909f }, { -0.191884f, 0.164449f }, { -0.019595f, 0.339790f }, { -0.265654f, -0.053693f }, { 0.117534f, 0.379076f }, { -0.196824f, 0.178065f }, { -0.010013f, 0.345877f }, { -0.260378f, -0.052271f }, { 0.105043f, 0.381625f }, { -0.200242f, 0.191796f }, { -0.000980f, 0.351899f }, { -0.254942f, -0.051462f }, { 0.091859f, 0.384484f }, { -0.202213f, 0.205701f }, { 0.007342f, 0.357949f }, { -0.249251f, -0.051129f }, { 0.077991f, 0.387582f }, { -0.202808f, 0.219860f }, { 0.014783f, 0.364092f }, { -0.243181f, -0.051133f }, { 0.063463f, 0.390846f }, { -0.202093f, 0.234372f }, { 0.021165f, 0.370354f }, { -0.236587f, -0.051334f }, { 0.048325f, 0.394205f }, { -0.200138f, 0.249339f }, { 0.026293f, 0.376721f }, { -0.229306f, -0.051580f }, { 0.032656f, 0.397587f }, { -0.197023f, 0.264857f }, { 0.029962f, 0.383132f }, { -0.221166f, -0.051715f }, { 0.016579f, 0.400923f }, { -0.192848f, 0.281005f }, { 0.031954f, 0.389477f }, { -0.211997f, -0.051574f }, { 0.000264f, 0.404147f }, { -0.187743f, 0.297829f }, { 0.032055f, 0.395590f }, { -0.201645f, -0.050983f }, { -0.016064f, 0.407200f }, { -0.181879f, 0.315327f }, { 0.030062f, 0.401257f }, { -0.189991f, -0.049769f }, { -0.032129f, 0.410032f }, { -0.175474f, 0.333434f }, { 0.025812f, 0.406214f }, { -0.176968f, -0.047766f }, { -0.047609f, 0.412607f }, { -0.168797f, 0.352011f }, { 0.019201f, 0.410162f }, { -0.162586f, -0.044828f }, { -0.062153f, 0.414906f }, { -0.162162f, 0.370835f }, { 0.010215f, 0.412790f }, { -0.146946f, -0.040841f }, { -0.075405f, 0.416935f }, { -0.155922f, 0.389604f }, { -0.001050f, 0.413798f }, { -0.130252f, -0.035735f }, { -0.087041f, 0.418720f }, { -0.150442f, 0.407951f }, { -0.014365f, 